// For hydration purposes (Next JS)
// export const network_v1 = create_network(WEIGHTS, BIAS);

import {
  ClassificationType,
  // create_network,
  NetworkType,
  create_network,
  // create_network,
  relu_activation,
  sigmoid_activation,
  softmax_activation,
} from "./network";

// * --------- NETWORK V1 ---------
// Weights of V1 network
const WEIGHTS_V1 = [
  [
    [0.34660286, -0.01123584],
    [-0.16000803, 0.37327516],
    [-0.20330293, -0.285043],
    [0.03866423, 0.00664284],
  ], // First Layer
  [[-0.819887, -0.60944384, -0.60550654, 0.81135994]], // Output Layer
];

// Bias of V1 Network
const BIAS_V1 = [[-1.3854994, -1.2200477, -0.6707291, 2.2454503], [1.962239]];
// The thresholds of each layer that cause neuron to glow (not including input)
export const ACTIVATION_THRESHOLDS_V1 = [0, 0.5];
// Activation function of each layer
export const ACTIVATIONS_V1 = [relu_activation, sigmoid_activation];

// Compiled network
const NETWORK_V1 = [
  [
    {
      id: "NEURON_75921",
      weights: [0.34660286, -0.01123584],
      bias: -1.3854994,
    },
    {
      id: "NEURON_79786",
      weights: [-0.16000803, 0.37327516],
      bias: -1.2200477,
    },
    {
      id: "NEURON_96141",
      weights: [-0.20330293, -0.285043],
      bias: -0.6707291,
    },
    {
      id: "NEURON_65776",
      weights: [0.03866423, 0.00664284],
      bias: 2.2454503,
    },
  ],
  [
    {
      id: "NEURON_82556",
      weights: [-0.819887, -0.60944384, -0.60550654, 0.81135994],
      bias: 1.962239,
    },
  ],
];

// * --------- NETWORK V2 ---------
const WEIGHTS_V2 = [
  [
    [-0.34477118, -1.6760575],
    [0.31985378, 0.05698782],
    [0.9938797, 0.37092927],
    [0.5316709, 0.05891604],
    [-0.3936875, 0.2678236],
    [-0.6676354, -0.23336759],
  ],
  [
    [1.7718524, 0.1253783, 0.05593611, 0.8161352, -0.5778513, -0.32674235],
    [-0.387093, 0.11015438, -0.6425315, 0.01890373, -0.12255807, -0.67158157],
    [0.12292493, -2.2577233, 0.04268863, -0.23945038, 0.824801, 0.16089681],
    [
      -0.5992771, -0.34958652, -0.35315248, -0.5255966, -0.03629249,
      -0.34147778,
    ],
    [-0.53602463, -0.5711668, 0.7213426, -1.7292765, -0.11530387, -1.7924851],
    [0.52787155, 0.15420282, -0.06676751, 0.09076008, 1.7018548, 0.17385295],
  ],
  [[0.566249, 0.51702875, -0.6228413, -0.10376287, -1.122004, -0.55353564]],
];

const BIAS_V2 = [
  [1.2334526, -1.3812139, -0.24565703, -3.3825176, -3.5829697, -0.02190185],
  [-1.1887258, -0.41817272, -1.3184562, -0.20588127, 0.25860855, -2.6970034],
  [1.1585021],
];

const NETWORK_V2 = [
  [
    {
      id: "NEURON_11136",
      weights: [-0.34477118, -1.6760575],
      bias: 1.2334526,
    },
    {
      id: "NEURON_35617",
      weights: [0.31985378, 0.05698782],
      bias: -1.3812139,
    },
    {
      id: "NEURON_52199",
      weights: [0.9938797, 0.37092927],
      bias: -0.24565703,
    },
    {
      id: "NEURON_68952",
      weights: [0.5316709, 0.05891604],
      bias: -3.3825176,
    },
    {
      id: "NEURON_03907",
      weights: [-0.3936875, 0.2678236],
      bias: -3.5829697,
    },
    {
      id: "NEURON_71160",
      weights: [-0.6676354, -0.23336759],
      bias: -0.02190185,
    },
  ],
  [
    {
      id: "NEURON_61495",
      weights: [
        1.7718524, 0.1253783, 0.05593611, 0.8161352, -0.5778513, -0.32674235,
      ],
      bias: -1.1887258,
    },
    {
      id: "NEURON_75033",
      weights: [
        -0.387093, 0.11015438, -0.6425315, 0.01890373, -0.12255807, -0.67158157,
      ],
      bias: -0.41817272,
    },
    {
      id: "NEURON_47197",
      weights: [
        0.12292493, -2.2577233, 0.04268863, -0.23945038, 0.824801, 0.16089681,
      ],
      bias: -1.3184562,
    },
    {
      id: "NEURON_67004",
      weights: [
        -0.5992771, -0.34958652, -0.35315248, -0.5255966, -0.03629249,
        -0.34147778,
      ],
      bias: -0.20588127,
    },
    {
      id: "NEURON_22291",
      weights: [
        -0.53602463, -0.5711668, 0.7213426, -1.7292765, -0.11530387, -1.7924851,
      ],
      bias: 0.25860855,
    },
    {
      id: "NEURON_42131",
      weights: [
        0.52787155, 0.15420282, -0.06676751, 0.09076008, 1.7018548, 0.17385295,
      ],
      bias: -2.6970034,
    },
  ],
  [
    {
      id: "NEURON_38332",
      weights: [
        0.566249, 0.51702875, -0.6228413, -0.10376287, -1.122004, -0.55353564,
      ],
      bias: 1.1585021,
    },
  ],
];

// ---------------- NETWORk V3 ---------------
const WEIGHTS_V3 = [
  [
    [-0.5324926376342773, -0.29907533526420593],
    [-0.7304787039756775, -0.7349548935890198],
    [-0.19057944416999817, 0.6576992273330688],
    [0.7561840415000916, -0.23459865152835846],
    [-0.0315120592713356, 0.09727984666824341],
    [0.7216871976852417, 0.6902466416358948],
  ],
  [
    [
      -0.3610752522945404, 0.8125820755958557, -0.001195224467664957,
      -0.05774438753724098, 0.3710850477218628, -3.180962085723877,
    ],
    [
      0.1668349951505661, 0.452275812625885, 0.15249839425086975,
      0.5151237845420837, -0.7802107930183411, -0.12064271420240402,
    ],
    [
      0.6722677946090698, -0.43293437361717224, 0.20755833387374878,
      0.6839873194694519, -0.30257752537727356, 0.07432575523853302,
    ],
    [
      -0.6294812560081482, -0.303091824054718, 0.2578834295272827,
      0.0066947718150913715, -0.542716383934021, 0.9371834993362427,
    ],
    [
      0.4042842984199524, -0.3901467025279999, -1.5084220170974731,
      0.5652968883514404, 0.8680306077003479, -0.6993414759635925,
    ],
    [
      -0.13709603250026703, -0.4469386637210846, -0.14095459878444672,
      0.5516986846923828, 0.026941873133182526, 0.6507626175880432,
    ],
    [
      0.030041947960853577, -0.06400871276855469, 0.5501330494880676,
      -0.5280497670173645, 0.13784568011760712, 0.3633773922920227,
    ],
    [
      0.13917189836502075, -0.09907057881355286, -1.1791188716888428,
      0.6115815043449402, -0.1257452815771103, 0.28531205654144287,
    ],
  ],
  [
    [
      0.3943626880645752, 0.7286345362663269, 0.15075565874576569,
      -0.6228792071342468, 1.626854658126831, 0.6073384881019592,
      -0.01686279848217964, -0.24761465191841125,
    ],
    [
      0.0928196981549263, 0.3560091555118561, -0.5269024968147278,
      0.6296191811561584, 0.20593887567520142, -0.6647340655326843,
      0.3685893416404724, 1.2788645029067993,
    ],
    [
      -1.3074438571929932, 0.29227086901664734, -0.20799235999584198,
      -1.6280311346054077, 0.9070345759391785, -0.03995760530233383,
      0.2281820923089981, 0.44812899827957153,
    ],
    [
      -0.714678168296814, -0.44059914350509644, -0.4126870930194855,
      -0.4688993990421295, 0.21437454223632812, -0.4142325818538666,
      -0.10313690453767776, -0.35133835673332214,
    ],
  ],
  [
    [
      0.49380406737327576, 0.30138105154037476, 0.8497355580329895,
      0.17598935961723328,
    ],
    [
      0.5417230725288391, 1.002265453338623, -0.19498759508132935,
      -0.22209909558296204,
    ],
    [
      0.6868888735771179, 0.8658484816551208, -1.1983275413513184,
      0.21791952848434448,
    ],
    [
      -1.7504398822784424, 0.530386745929718, -1.7322925329208374,
      -0.156508207321167,
    ],
  ],
  [
    [
      0.4318792223930359, 0.23323090374469757, -1.2973649501800537,
      -3.3018250465393066,
    ],
    [
      -0.5199006199836731, -1.24300217628479, -1.2370699644088745,
      1.5943868160247803,
    ],
    [
      -0.9033937454223633, 0.7900865077972412, 0.6025182008743286,
      0.24536322057247162,
    ],
  ],
];

const BIAS_V3 = [
  [
    -1.0458276271820068, -0.05338984727859497, 1.9784071445465088,
    0.002738594077527523, 1.867319107055664, -0.2467537671327591,
  ],
  [
    0.4289727210998535, -2.3215765953063965, -0.9846894145011902,
    0.17616547644138336, 0.44055885076522827, 0.24573835730552673,
    0.1263357251882553, -1.2629506587982178,
  ],
  [
    -1.5963979959487915, -0.6022589802742004, -1.7257966995239258,
    -0.30573442578315735,
  ],
  [
    2.2868971824645996, -0.46975868940353394, -2.9407854080200195,
    2.441746234893799,
  ],
  [1.476133108139038, 0.42703884840011597, -1.7692339420318604],
];

const NETWORK_V3 = [
  [
    {
      id: "NEURON_61994",
      weights: [-0.5324926376342773, -0.29907533526420593],
      bias: -1.0458276271820068,
    },
    {
      id: "NEURON_39560",
      weights: [-0.7304787039756775, -0.7349548935890198],
      bias: -0.05338984727859497,
    },
    {
      id: "NEURON_94932",
      weights: [-0.19057944416999817, 0.6576992273330688],
      bias: 1.9784071445465088,
    },
    {
      id: "NEURON_73823",
      weights: [0.7561840415000916, -0.23459865152835846],
      bias: 0.002738594077527523,
    },
    {
      id: "NEURON_58804",
      weights: [-0.0315120592713356, 0.09727984666824341],
      bias: 1.867319107055664,
    },
    {
      id: "NEURON_92644",
      weights: [0.7216871976852417, 0.6902466416358948],
      bias: -0.2467537671327591,
    },
  ],
  [
    {
      id: "NEURON_34345",
      weights: [
        -0.3610752522945404, 0.8125820755958557, -0.001195224467664957,
        -0.05774438753724098, 0.3710850477218628, -3.180962085723877,
      ],
      bias: 0.4289727210998535,
    },
    {
      id: "NEURON_49208",
      weights: [
        0.1668349951505661, 0.452275812625885, 0.15249839425086975,
        0.5151237845420837, -0.7802107930183411, -0.12064271420240402,
      ],
      bias: -2.3215765953063965,
    },
    {
      id: "NEURON_38397",
      weights: [
        0.6722677946090698, -0.43293437361717224, 0.20755833387374878,
        0.6839873194694519, -0.30257752537727356, 0.07432575523853302,
      ],
      bias: -0.9846894145011902,
    },
    {
      id: "NEURON_52637",
      weights: [
        -0.6294812560081482, -0.303091824054718, 0.2578834295272827,
        0.0066947718150913715, -0.542716383934021, 0.9371834993362427,
      ],
      bias: 0.17616547644138336,
    },
    {
      id: "NEURON_18446",
      weights: [
        0.4042842984199524, -0.3901467025279999, -1.5084220170974731,
        0.5652968883514404, 0.8680306077003479, -0.6993414759635925,
      ],
      bias: 0.44055885076522827,
    },
    {
      id: "NEURON_72529",
      weights: [
        -0.13709603250026703, -0.4469386637210846, -0.14095459878444672,
        0.5516986846923828, 0.026941873133182526, 0.6507626175880432,
      ],
      bias: 0.24573835730552673,
    },
    {
      id: "NEURON_36645",
      weights: [
        0.030041947960853577, -0.06400871276855469, 0.5501330494880676,
        -0.5280497670173645, 0.13784568011760712, 0.3633773922920227,
      ],
      bias: 0.1263357251882553,
    },
    {
      id: "NEURON_18500",
      weights: [
        0.13917189836502075, -0.09907057881355286, -1.1791188716888428,
        0.6115815043449402, -0.1257452815771103, 0.28531205654144287,
      ],
      bias: -1.2629506587982178,
    },
  ],
  [
    {
      id: "NEURON_20512",
      weights: [
        0.3943626880645752, 0.7286345362663269, 0.15075565874576569,
        -0.6228792071342468, 1.626854658126831, 0.6073384881019592,
        -0.01686279848217964, -0.24761465191841125,
      ],
      bias: -1.5963979959487915,
    },
    {
      id: "NEURON_18675",
      weights: [
        0.0928196981549263, 0.3560091555118561, -0.5269024968147278,
        0.6296191811561584, 0.20593887567520142, -0.6647340655326843,
        0.3685893416404724, 1.2788645029067993,
      ],
      bias: -0.6022589802742004,
    },
    {
      id: "NEURON_56902",
      weights: [
        -1.3074438571929932, 0.29227086901664734, -0.20799235999584198,
        -1.6280311346054077, 0.9070345759391785, -0.03995760530233383,
        0.2281820923089981, 0.44812899827957153,
      ],
      bias: -1.7257966995239258,
    },
    {
      id: "NEURON_76179",
      weights: [
        -0.714678168296814, -0.44059914350509644, -0.4126870930194855,
        -0.4688993990421295, 0.21437454223632812, -0.4142325818538666,
        -0.10313690453767776, -0.35133835673332214,
      ],
      bias: -0.30573442578315735,
    },
  ],
  [
    {
      id: "NEURON_08539",
      weights: [
        0.49380406737327576, 0.30138105154037476, 0.8497355580329895,
        0.17598935961723328,
      ],
      bias: 2.2868971824645996,
    },
    {
      id: "NEURON_47368",
      weights: [
        0.5417230725288391, 1.002265453338623, -0.19498759508132935,
        -0.22209909558296204,
      ],
      bias: -0.46975868940353394,
    },
    {
      id: "NEURON_56888",
      weights: [
        0.6868888735771179, 0.8658484816551208, -1.1983275413513184,
        0.21791952848434448,
      ],
      bias: -2.9407854080200195,
    },
    {
      id: "NEURON_18692",
      weights: [
        -1.7504398822784424, 0.530386745929718, -1.7322925329208374,
        -0.156508207321167,
      ],
      bias: 2.441746234893799,
    },
  ],
  [
    {
      id: "NEURON_48446",
      weights: [
        0.4318792223930359, 0.23323090374469757, -1.2973649501800537,
        -3.3018250465393066,
      ],
      bias: 1.476133108139038,
    },
    {
      id: "NEURON_36365",
      weights: [
        -0.5199006199836731, -1.24300217628479, -1.2370699644088745,
        1.5943868160247803,
      ],
      bias: 0.42703884840011597,
    },
    {
      id: "NEURON_07340",
      weights: [
        -0.9033937454223633, 0.7900865077972412, 0.6025182008743286,
        0.24536322057247162,
      ],
      bias: -1.7692339420318604,
    },
  ],
];

// const network = create_network(WEIGHTS_V3, BIAS_V3);
// console.log(network);

// --------------- NETWORK_V4 (HUGE!) --------------

const NETWORK_V4 = [
  [
      {
          "id": "NEURON_77167",
          "weights": [
              0.10023721307516098,
              0.3108341097831726,
              0.18916475772857666,
              -0.01746739074587822,
              0.05928906425833702,
              0.5142778158187866,
              0.35728591680526733,
              0.6059439778327942,
              0.47959104180336,
              0.28880444169044495,
              -0.1510501652956009,
              -0.43888548016548157,
              0.1288599967956543,
              -0.04043816030025482,
              -0.09758494794368744,
              -0.37270233035087585,
              -0.13662827014923096,
              -0.281134694814682,
              -0.46908894181251526,
              -0.2892492711544037,
              -0.2799326181411743,
              -0.13609756529331207,
              0.28751036524772644,
              -0.03149750456213951,
              -0.07977455109357834,
              -0.09279987215995789,
              0.03601308539509773,
              -0.00786395464092493,
              -0.18008549511432648,
              0.0038161813281476498,
              -0.24054382741451263,
              0.20108483731746674,
              0.23902134597301483,
              0.3453790843486786,
              0.051564671099185944,
              -0.2149847447872162,
              -0.06247296556830406,
              -0.41706618666648865,
              -0.1606699526309967,
              0.09768477827310562,
              0.4731469750404358,
              -0.21016372740268707,
              -0.6710934638977051,
              -0.36106741428375244,
              -0.39306727051734924,
              -0.06890151649713516,
              0.3137108087539673,
              0.2652328908443451,
              -0.1678055077791214,
              0.0068684592843055725,
              -0.12479199469089508,
              -0.33803337812423706,
              -0.13377784192562103,
              -0.25268352031707764,
              -0.1425260305404663,
              0.033225979655981064,
              0.2812771499156952,
              -0.1811511218547821,
              -0.29319608211517334,
              -0.6665140390396118,
              0.2094956785440445,
              0.2509571313858032,
              -0.012718921527266502,
              -0.10663633048534393,
              0.14747753739356995,
              0.16180962324142456,
              0.26990455389022827,
              0.4372241795063019,
              -0.26305386424064636,
              -0.11382854729890823,
              -0.7129896283149719,
              -1.178885817527771,
              -0.8821820020675659,
              -0.6591109037399292,
              0.17885547876358032,
              0.15588515996932983,
              0.319715291261673,
              0.05570349842309952,
              -0.12507028877735138,
              -0.3591512143611908,
              0.023800676688551903,
              -0.4165278673171997,
              -0.27080681920051575,
              -0.21046091616153717,
              0.30780893564224243,
              0.22735580801963806,
              0.10740309208631516,
              0.20719698071479797,
              0.0280230063945055,
              -0.48487988114356995,
              -0.7101912498474121,
              0.2533203363418579,
              0.332278311252594,
              0.23634639382362366,
              0.47879907488822937,
              0.4202963709831238,
              0.08910298347473145,
              0.011660700663924217,
              -0.5242370963096619,
              -0.5769283771514893
          ],
          "bias": 0.4327634274959564
      },
      {
          "id": "NEURON_21001",
          "weights": [
              -0.15815094113349915,
              0.0838131383061409,
              0.14210037887096405,
              -0.3698161244392395,
              0.05623510107398033,
              -0.3043900430202484,
              0.12308381497859955,
              -0.5768653154373169,
              -0.5915004014968872,
              -0.004686317406594753,
              -0.23072828352451324,
              0.10175958275794983,
              0.40143442153930664,
              -0.07904369384050369,
              0.384185254573822,
              0.1329401582479477,
              0.36211100220680237,
              -0.3850259482860565,
              -0.5547524094581604,
              0.30295923352241516,
              -0.004753008484840393,
              0.47809121012687683,
              -0.1360381543636322,
              -0.20933657884597778,
              0.18877950310707092,
              0.26158052682876587,
              0.20539692044258118,
              -0.1566689908504486,
              -0.27659541368484497,
              0.5856156945228577,
              -0.1290155053138733,
              0.06891278922557831,
              -0.3023628294467926,
              -0.2788744866847992,
              0.2154051661491394,
              0.04260269179940224,
              -0.42553597688674927,
              0.01201984379440546,
              -0.17995212972164154,
              0.49176546931266785,
              -0.06722560524940491,
              0.02437654696404934,
              0.14199994504451752,
              -0.27812886238098145,
              0.13879400491714478,
              -0.18998321890830994,
              0.05159507691860199,
              0.07135068625211716,
              0.09714829176664352,
              0.19117163121700287,
              -0.3844921588897705,
              0.3501349091529846,
              0.2903195023536682,
              -0.30707159638404846,
              0.015729980543255806,
              0.167181596159935,
              0.09450114518404007,
              -0.0629015862941742,
              -0.5517551302909851,
              0.5308198928833008,
              -0.4922756850719452,
              0.05128723755478859,
              0.07368075102567673,
              -0.2638626992702484,
              0.19586166739463806,
              0.4623098373413086,
              -0.1986016482114792,
              -0.16820356249809265,
              -1.0185619592666626,
              0.3030792772769928,
              0.09890163689851761,
              0.049650244414806366,
              -0.3873250186443329,
              -0.2279140204191208,
              0.1967684030532837,
              0.1831682175397873,
              -0.44094911217689514,
              -0.6076278686523438,
              -0.2491084784269333,
              0.26064643263816833,
              0.05517541617155075,
              -0.04070482775568962,
              -0.20879192650318146,
              0.03258930519223213,
              0.3037848174571991,
              -0.15345832705497742,
              -0.2035255879163742,
              -0.3196074664592743,
              0.22793425619602203,
              0.628087043762207,
              0.2724122703075409,
              -0.03936169669032097,
              0.00462687062099576,
              0.05042086914181709,
              0.17125873267650604,
              0.05080141872167587,
              -0.8430034518241882,
              0.05696208029985428,
              -0.049699582159519196,
              -0.039749376475811005
          ],
          "bias": 0.0426769033074379
      },
      {
          "id": "NEURON_84576",
          "weights": [
              -0.03868851438164711,
              -0.4116956889629364,
              0.4795447885990143,
              -0.8775838017463684,
              -0.24291901290416718,
              0.5615158081054688,
              -0.2958633303642273,
              0.37605711817741394,
              -0.05340009182691574,
              0.13337001204490662,
              0.15867656469345093,
              -0.41243472695350647,
              0.4504653513431549,
              -0.7094961404800415,
              0.17343205213546753,
              -0.23209945857524872,
              -0.13349486887454987,
              0.07212390005588531,
              -0.44526737928390503,
              -0.03621040657162666,
              0.8108490109443665,
              -0.6724882125854492,
              -0.014424480497837067,
              0.13810187578201294,
              -0.11841610074043274,
              0.6063112020492554,
              -0.2277010977268219,
              -0.16426526010036469,
              -0.1177135780453682,
              0.4500361382961273,
              0.3397079408168793,
              -0.6093429327011108,
              0.08902640640735626,
              0.09944956004619598,
              -0.08805371820926666,
              0.22362147271633148,
              -0.9638010263442993,
              -0.06125515699386597,
              0.0752786174416542,
              -0.4336773753166199,
              0.2144065946340561,
              -0.6132120490074158,
              0.03296283632516861,
              0.00988736841827631,
              -0.11950590461492538,
              0.1984407752752304,
              -0.7485752105712891,
              0.20605745911598206,
              0.0722760260105133,
              -0.573323667049408,
              0.4806952178478241,
              -0.12907390296459198,
              0.19649262726306915,
              0.1159948855638504,
              -0.05672900751233101,
              0.32017287611961365,
              -0.23261120915412903,
              0.3796952962875366,
              0.41209185123443604,
              -0.030817082151770592,
              0.02583480440080166,
              -0.32800963521003723,
              0.11612898856401443,
              0.39527401328086853,
              -0.41491562128067017,
              0.04578900709748268,
              -0.18918755650520325,
              0.1260029524564743,
              0.27166712284088135,
              -0.8248161673545837,
              0.19323080778121948,
              -0.31626731157302856,
              -0.4445500671863556,
              0.19628272950649261,
              -0.6051292419433594,
              0.1772685945034027,
              -0.011461563408374786,
              0.2675216794013977,
              -0.15343338251113892,
              -0.2712739109992981,
              -0.16152949631214142,
              -0.031322333961725235,
              -0.2568882405757904,
              0.47315436601638794,
              -0.34645289182662964,
              0.4079323709011078,
              -0.30957525968551636,
              0.30798131227493286,
              -0.17226958274841309,
              -0.3748151659965515,
              -0.37299153208732605,
              0.08497723937034607,
              -0.48520591855049133,
              0.3818492889404297,
              -0.1690807193517685,
              0.321644127368927,
              -0.32143810391426086,
              -0.19425320625305176,
              0.26691901683807373,
              -0.08167455345392227
          ],
          "bias": 0.10202495753765106
      },
      {
          "id": "NEURON_93347",
          "weights": [
              0.064845509827137,
              -0.3213660418987274,
              -0.20101027190685272,
              0.0375220812857151,
              0.7455729246139526,
              0.6489518284797668,
              0.31229978799819946,
              -0.4958423972129822,
              -0.30527448654174805,
              -0.0695253387093544,
              -0.26690953969955444,
              -0.1087852269411087,
              0.424157977104187,
              0.3631400763988495,
              0.5359057188034058,
              -0.7283247709274292,
              -1.1427050828933716,
              -1.1331902742385864,
              -0.5570333003997803,
              -0.32569366693496704,
              -0.16485287249088287,
              -0.2875860631465912,
              0.23757150769233704,
              0.4067859351634979,
              0.34012481570243835,
              -0.06816674023866653,
              -0.3281939625740051,
              -0.30679619312286377,
              -0.24610817432403564,
              -0.15378662943840027,
              -0.5088604092597961,
              -0.36303961277008057,
              0.12685471773147583,
              0.1622297614812851,
              0.008248331025242805,
              -0.4698117971420288,
              -0.6128368377685547,
              -0.4727782607078552,
              -0.11380581557750702,
              -0.17286795377731323,
              -0.3327180743217468,
              -0.4244990944862366,
              0.521023154258728,
              0.5118551850318909,
              0.47682249546051025,
              -0.03216518834233284,
              0.054151467978954315,
              -0.08703494071960449,
              -0.15841439366340637,
              -0.2581290006637573,
              -0.12469203770160675,
              0.0506444089114666,
              0.1566215455532074,
              0.1300784945487976,
              0.09666839241981506,
              -0.13010644912719727,
              -0.14862988889217377,
              0.2385670691728592,
              0.2203674465417862,
              -0.26846596598625183,
              0.04614282771945,
              -0.26065897941589355,
              0.2400321662425995,
              0.38002312183380127,
              0.1995752453804016,
              0.508186936378479,
              0.2774437963962555,
              0.1600402444601059,
              0.09446016699075699,
              -0.2792203426361084,
              0.0640392079949379,
              0.28626134991645813,
              0.6195367574691772,
              0.5208425521850586,
              0.2093924731016159,
              -0.10565642267465591,
              0.1093054935336113,
              0.1277901977300644,
              -0.16399279236793518,
              -0.4383089244365692,
              0.004900324624031782,
              0.30817461013793945,
              0.13699039816856384,
              -0.0443231575191021,
              -0.04743985831737518,
              -0.07928459346294403,
              -0.10052283853292465,
              0.02577798068523407,
              -0.16521146893501282,
              -0.27520087361335754,
              0.3040935695171356,
              -0.28881821036338806,
              -0.08680214732885361,
              -0.1008615791797638,
              -0.5065352320671082,
              -0.6175099015235901,
              -0.25503677129745483,
              -0.1777534782886505,
              0.07696495205163956,
              0.05814749747514725
          ],
          "bias": -0.2266349345445633
      },
      {
          "id": "NEURON_44890",
          "weights": [
              0.12437600642442703,
              0.37235569953918457,
              0.5278227925300598,
              0.07636381685733795,
              -0.09566381573677063,
              -0.11816040426492691,
              0.27343180775642395,
              0.0866943821310997,
              0.1734960377216339,
              0.3005122244358063,
              0.3933802843093872,
              0.2171921730041504,
              -0.30088716745376587,
              -0.2206970751285553,
              0.18987292051315308,
              0.21101884543895721,
              0.4197153151035309,
              0.03431382775306702,
              0.31179770827293396,
              0.43490031361579895,
              0.324288934469223,
              0.4323670566082001,
              0.125368133187294,
              0.15360426902770996,
              0.2865222096443176,
              0.33639779686927795,
              0.4054192900657654,
              0.2249315232038498,
              0.005293823778629303,
              -0.18300949037075043,
              0.19711866974830627,
              -0.16863781213760376,
              0.26039597392082214,
              0.2379869967699051,
              0.029821336269378662,
              0.3023018538951874,
              0.18959586322307587,
              0.1159895583987236,
              0.15378405153751373,
              -0.18294499814510345,
              0.1921541541814804,
              0.4820568859577179,
              0.05071016401052475,
              0.19464175403118134,
              -0.20726241171360016,
              -0.05963776260614395,
              0.07192736864089966,
              -0.20024926960468292,
              -0.23274469375610352,
              -0.05252334475517273,
              0.3660958707332611,
              0.27291589975357056,
              0.18831615149974823,
              -0.006700540892779827,
              -0.320470929145813,
              -0.2607349157333374,
              0.035697247833013535,
              -0.26622119545936584,
              -0.28735610842704773,
              -0.148397758603096,
              0.31936222314834595,
              0.46791401505470276,
              0.1995180994272232,
              0.2839188873767853,
              0.17282873392105103,
              0.15719841420650482,
              0.05529659241437912,
              -0.1758495420217514,
              0.02077116258442402,
              -0.3435290455818176,
              0.0246311966329813,
              0.2902900278568268,
              -0.04498044028878212,
              0.10323785990476608,
              0.15960323810577393,
              0.32026299834251404,
              0.42882290482521057,
              0.342488557100296,
              0.25898709893226624,
              -0.2819138765335083,
              0.408401757478714,
              0.5646190643310547,
              0.3893636465072632,
              0.28847581148147583,
              0.5116884112358093,
              0.5293794274330139,
              0.6237785220146179,
              0.3235657811164856,
              -0.18377017974853516,
              -0.20666788518428802,
              -0.10469226539134979,
              0.3349933922290802,
              0.16122722625732422,
              0.05244879424571991,
              0.35825735330581665,
              0.1653178185224533,
              -0.134224995970726,
              0.05455051735043526,
              0.12559783458709717,
              0.1362168937921524
          ],
          "bias": -0.6213212013244629
      },
      {
          "id": "NEURON_25678",
          "weights": [
              0.30326971411705017,
              0.14468082785606384,
              0.20830556750297546,
              -0.03603777661919594,
              0.032236576080322266,
              0.24976740777492523,
              -0.0193876214325428,
              0.2209666222333908,
              -0.23097093403339386,
              -0.09348468482494354,
              0.1456129252910614,
              -0.0434158593416214,
              -0.04990128427743912,
              0.1190280169248581,
              0.22288188338279724,
              -0.03644091263413429,
              -0.1753106266260147,
              0.09746235609054565,
              -0.13389910757541656,
              0.03761335462331772,
              0.4058423936367035,
              0.07885382324457169,
              0.4531266987323761,
              0.6494469046592712,
              0.3709178566932678,
              0.2704577147960663,
              0.2222292274236679,
              0.5350835919380188,
              0.015268493443727493,
              0.31945765018463135,
              0.1966562420129776,
              0.03458041697740555,
              0.03489778935909271,
              0.3538288176059723,
              0.48032113909721375,
              0.08253725618124008,
              0.22421413660049438,
              0.4989677369594574,
              0.18694093823432922,
              0.09343566745519638,
              0.2121584713459015,
              0.3716222941875458,
              0.5994219183921814,
              0.3717021346092224,
              -0.13467952609062195,
              -0.2918611764907837,
              0.04607236012816429,
              0.22240692377090454,
              0.21092760562896729,
              0.12598347663879395,
              0.08101191371679306,
              0.050097521394491196,
              0.18858949840068817,
              0.3571898639202118,
              -0.20684395730495453,
              -0.14127105474472046,
              0.01425093412399292,
              0.3480515480041504,
              0.18929831683635712,
              -0.04406502842903137,
              -0.15982620418071747,
              0.052702467888593674,
              0.182675302028656,
              0.35385027527809143,
              -0.21017131209373474,
              -0.40656617283821106,
              0.01175353117287159,
              -0.027672139927744865,
              -0.0005970859783701599,
              0.11926651746034622,
              -0.17281144857406616,
              -0.4260031282901764,
              -0.22658416628837585,
              0.13700255751609802,
              0.0959879457950592,
              -0.04019685834646225,
              0.042201392352581024,
              -0.10909327119588852,
              0.38261574506759644,
              0.4921024739742279,
              0.07884665578603745,
              0.057373467832803726,
              -0.09408032894134521,
              0.0942528024315834,
              0.2529832422733307,
              0.3024544417858124,
              0.025924382731318474,
              0.14771351218223572,
              0.3788212835788727,
              0.23303012549877167,
              0.17815838754177094,
              -0.10407474637031555,
              -0.05528438091278076,
              0.26616936922073364,
              -0.06174536049365997,
              -0.1883070021867752,
              -0.12065134942531586,
              0.07041459530591965,
              0.36394941806793213,
              0.06357688456773758
          ],
          "bias": -0.2809613049030304
      },
      {
          "id": "NEURON_42246",
          "weights": [
              -0.10514995455741882,
              -0.46686288714408875,
              -0.6205121278762817,
              -0.832427978515625,
              -1.0083236694335938,
              -1.2752679586410522,
              -0.627020537853241,
              -0.39111846685409546,
              -0.41602280735969543,
              -0.014915768057107925,
              0.1106138601899147,
              -0.18791167438030243,
              -0.28330838680267334,
              -0.22050172090530396,
              0.2420644313097,
              0.2641856372356415,
              0.0037136487662792206,
              0.5202217102050781,
              0.1693810075521469,
              0.7171931862831116,
              -0.15158571302890778,
              -0.16473034024238586,
              -0.3378051519393921,
              0.12771007418632507,
              0.039290901273489,
              0.4123026728630066,
              0.0529758483171463,
              -0.4740696847438812,
              -0.3693805932998657,
              0.17294734716415405,
              0.1782432496547699,
              0.04750564321875572,
              0.2747238278388977,
              0.28776615858078003,
              0.41211482882499695,
              0.4864061772823334,
              0.23872119188308716,
              -0.28596535325050354,
              -0.39019590616226196,
              -0.0020406371913850307,
              0.2595418393611908,
              0.1260145604610443,
              0.48231640458106995,
              0.38524743914604187,
              0.16685901582241058,
              0.28365030884742737,
              0.2048662155866623,
              -0.08788756281137466,
              -0.4465719163417816,
              -0.023368248715996742,
              0.3433801829814911,
              0.387836217880249,
              0.20395433902740479,
              0.1839289665222168,
              -0.046605829149484634,
              -0.1320544332265854,
              0.03933416306972504,
              0.17933087050914764,
              0.3052403926849365,
              -0.23583287000656128,
              0.003695403691381216,
              -0.011190822347998619,
              -0.10468342155218124,
              -0.24436189234256744,
              -0.07178269326686859,
              -0.11719712615013123,
              0.15729917585849762,
              0.17956918478012085,
              0.27527379989624023,
              -0.6271546483039856,
              0.10015389323234558,
              0.453897088766098,
              -0.17408336699008942,
              -0.5765899419784546,
              -0.2280104160308838,
              0.11417007446289062,
              0.14217184484004974,
              0.28059908747673035,
              0.1625356674194336,
              -0.7008873224258423,
              -0.28096839785575867,
              0.04650464653968811,
              -0.10586368292570114,
              -0.22347208857536316,
              0.51378333568573,
              0.1780320554971695,
              0.5010059475898743,
              0.2446320503950119,
              -0.38883063197135925,
              -0.8694085478782654,
              -0.6621584892272949,
              0.1386810839176178,
              -0.28414690494537354,
              -0.03418775647878647,
              0.09848175197839737,
              0.14735020697116852,
              -0.20679491758346558,
              -0.2294609397649765,
              -0.2045859843492508,
              -0.6734218001365662
          ],
          "bias": 0.23279757797718048
      },
      {
          "id": "NEURON_82187",
          "weights": [
              0.16146104037761688,
              0.3087177872657776,
              0.024353351444005966,
              -0.15866263210773468,
              0.16254960000514984,
              0.06342609971761703,
              0.27108001708984375,
              0.37955206632614136,
              0.2672941982746124,
              0.014072692953050137,
              0.03375217318534851,
              -0.04182632267475128,
              -0.0545964241027832,
              0.077241912484169,
              0.2490929663181305,
              -0.3473416566848755,
              -0.6372383832931519,
              -0.385389506816864,
              0.4583001434803009,
              -0.010566198267042637,
              0.2158709615468979,
              0.16638851165771484,
              0.01879100687801838,
              -0.16705283522605896,
              -0.3060186207294464,
              -0.10782938450574875,
              -0.07477780431509018,
              -0.1038973480463028,
              0.211504727602005,
              0.1416480392217636,
              0.36548495292663574,
              0.13834065198898315,
              0.2613455057144165,
              -0.2629322111606598,
              -0.23165586590766907,
              -0.43956243991851807,
              -0.031109875068068504,
              0.08685020357370377,
              0.11229987442493439,
              -0.2593255341053009,
              0.17520485818386078,
              0.6161620020866394,
              0.23231327533721924,
              0.11644013226032257,
              0.08868854492902756,
              0.5558794736862183,
              0.4265628457069397,
              0.1984100639820099,
              -0.03354360908269882,
              -0.12190048396587372,
              -0.25155171751976013,
              -0.3530706763267517,
              -0.707298219203949,
              -0.35290709137916565,
              0.07662022858858109,
              0.2579268217086792,
              -0.12093621492385864,
              -0.37482649087905884,
              -0.7567651271820068,
              -0.057958900928497314,
              0.008627345785498619,
              -0.40431588888168335,
              -0.5290068984031677,
              -0.040819380432367325,
              0.33362436294555664,
              0.17207121849060059,
              -0.35190171003341675,
              -0.4990927278995514,
              -0.5214981436729431,
              0.2499324232339859,
              -0.8729689121246338,
              -0.6631072163581848,
              -0.28901031613349915,
              0.38898396492004395,
              0.4731273651123047,
              0.23281246423721313,
              -0.48910248279571533,
              -0.45810115337371826,
              0.1722184270620346,
              0.4482908546924591,
              -0.08323448896408081,
              -0.31156691908836365,
              0.1642276495695114,
              0.6393499970436096,
              0.38364627957344055,
              -0.22491949796676636,
              -0.8643212914466858,
              -0.417915403842926,
              -0.09044158458709717,
              0.614600658416748,
              0.2291649729013443,
              -0.0338674858212471,
              0.30497390031814575,
              0.20178839564323425,
              -0.27661946415901184,
              -0.10387488454580307,
              -0.40269818902015686,
              0.2570773959159851,
              0.15039986371994019,
              0.5431475043296814
          ],
          "bias": 0.28807830810546875
      },
      {
          "id": "NEURON_44825",
          "weights": [
              -0.09782770276069641,
              -0.257648229598999,
              -0.34636926651000977,
              -0.40680065751075745,
              0.12184485048055649,
              -0.0994434803724289,
              -0.6323836445808411,
              -0.1284780353307724,
              -0.6047277450561523,
              -0.557167112827301,
              0.09698763489723206,
              -0.11837339401245117,
              0.2558920681476593,
              0.4718264639377594,
              0.19258293509483337,
              0.0065989987924695015,
              -0.3767303228378296,
              -0.2708963453769684,
              -0.33835527300834656,
              0.623266875743866,
              0.15844595432281494,
              -0.150473490357399,
              -0.08426938205957413,
              0.34564414620399475,
              0.31098902225494385,
              0.40975067019462585,
              0.05066797882318497,
              -0.3591000437736511,
              0.13407321274280548,
              0.813831090927124,
              -0.2454860657453537,
              -0.6036424040794373,
              -0.6658032536506653,
              0.13265885412693024,
              0.049084097146987915,
              -0.17041924595832825,
              -0.25962498784065247,
              -0.47438114881515503,
              -0.003006238956004381,
              0.35032930970191956,
              -0.18665890395641327,
              -0.8693883419036865,
              -0.2865023910999298,
              -0.08072588592767715,
              -0.25311121344566345,
              -0.7226591110229492,
              -0.4496794641017914,
              -0.1686616986989975,
              -0.6527188420295715,
              -0.12892240285873413,
              0.04782699793577194,
              0.3418559432029724,
              0.037197377532720566,
              0.37480857968330383,
              -0.11992571502923965,
              -0.6179930567741394,
              -0.12530739605426788,
              -0.18343284726142883,
              -0.4126453995704651,
              -0.5257189869880676,
              0.21137039363384247,
              0.35724642872810364,
              0.4385530352592468,
              0.2953922152519226,
              0.3502141833305359,
              0.25691068172454834,
              0.4831846356391907,
              0.28239312767982483,
              0.04634785279631615,
              0.24227696657180786,
              0.017339808866381645,
              0.20947454869747162,
              -0.18691541254520416,
              -0.15434883534908295,
              0.2495453804731369,
              0.4417876601219177,
              0.49486568570137024,
              0.4044937789440155,
              0.1270654946565628,
              0.631085216999054,
              -0.03554695099592209,
              -0.2958044707775116,
              -0.29246315360069275,
              -0.12712465226650238,
              0.004748772829771042,
              -0.025129472836852074,
              -0.16297835111618042,
              -0.09733210504055023,
              0.42803338170051575,
              -0.44568464159965515,
              -0.21362856030464172,
              -0.6185865998268127,
              -0.293506920337677,
              -0.1190916895866394,
              0.04588509723544121,
              -0.4070070683956146,
              -0.16748949885368347,
              -0.17598365247249603,
              -0.047427382320165634,
              -0.178157240152359
          ],
          "bias": 0.17888832092285156
      },
      {
          "id": "NEURON_22224",
          "weights": [
              -0.192714661359787,
              -0.04772249609231949,
              0.21552039682865143,
              0.2484453320503235,
              0.18583881855010986,
              -0.31837204098701477,
              -0.8594678640365601,
              -0.38458481431007385,
              -0.3173553943634033,
              -0.026121344417333603,
              -0.24270029366016388,
              -0.12445752322673798,
              -0.17725105583667755,
              -0.12686607241630554,
              0.23252829909324646,
              0.05059722810983658,
              -0.9846782684326172,
              -0.8155646324157715,
              -0.4366733133792877,
              -0.28893762826919556,
              0.0717499852180481,
              -0.1053650751709938,
              0.027032632380723953,
              0.17767992615699768,
              0.245912566781044,
              0.034891240298748016,
              0.03876027464866638,
              -0.21833229064941406,
              -0.1661165952682495,
              -0.449677437543869,
              0.41797563433647156,
              -0.03912168741226196,
              0.5234231948852539,
              0.221365824341774,
              0.2901110053062439,
              0.09555274248123169,
              0.07531566172838211,
              0.34021803736686707,
              0.19617587327957153,
              0.28054431080818176,
              0.2716447412967682,
              -0.5211690664291382,
              0.0075339931063354015,
              -0.022966375574469566,
              -0.007019039709120989,
              -0.023872291669249535,
              0.17732788622379303,
              0.16553637385368347,
              0.8162068128585815,
              -0.15127791464328766,
              0.543251097202301,
              -0.6054650545120239,
              -0.5029263496398926,
              -0.837460458278656,
              -0.5882598161697388,
              -0.07154859602451324,
              -0.026244595646858215,
              0.047696780413389206,
              0.30554962158203125,
              -0.2058858722448349,
              0.6084614992141724,
              -0.5116899609565735,
              -0.4585263133049011,
              -0.20686987042427063,
              -0.401326060295105,
              -0.17554354667663574,
              -0.12785667181015015,
              -0.31727614998817444,
              -0.6533069610595703,
              -0.12683212757110596,
              0.2663632333278656,
              -0.22376155853271484,
              -0.20400653779506683,
              0.03294754773378372,
              -0.1723712831735611,
              0.396119624376297,
              0.06565184891223907,
              -0.5940198302268982,
              -0.9230195879936218,
              -0.6623817086219788,
              0.2106710970401764,
              -0.48908644914627075,
              -0.3639056086540222,
              -0.1645372360944748,
              0.2996324896812439,
              0.4448103904724121,
              0.09741296619176865,
              -0.20037993788719177,
              -0.23523107171058655,
              0.06956811249256134,
              -0.16827495396137238,
              -0.7658973932266235,
              -0.2929394841194153,
              0.14286668598651886,
              0.25180160999298096,
              0.07795081287622452,
              0.3123861253261566,
              0.14759565889835358,
              0.3345911502838135,
              0.5170292258262634
          ],
          "bias": 0.009303097613155842
      },
      {
          "id": "NEURON_74220",
          "weights": [
              0.055155232548713684,
              0.18024137616157532,
              0.4158744812011719,
              0.3552539348602295,
              0.10164325684309006,
              -0.21482159197330475,
              -0.7644863128662109,
              -0.11261095851659775,
              0.5275462865829468,
              0.5729224681854248,
              0.18894508481025696,
              0.2726164162158966,
              0.33939990401268005,
              -0.1885046809911728,
              -0.3872280716896057,
              -0.39841315150260925,
              -0.17913848161697388,
              0.7345351576805115,
              0.2361343950033188,
              -0.7144170999526978,
              0.43917614221572876,
              0.4388130307197571,
              0.11995913833379745,
              -0.4183367192745209,
              -0.4812608063220978,
              -0.10899142175912857,
              -0.14191313087940216,
              0.052993714809417725,
              0.41751644015312195,
              0.007271348033100367,
              0.38288864493370056,
              0.2249826043844223,
              -0.28187745809555054,
              -0.34457987546920776,
              -0.3625953197479248,
              -0.23340243101119995,
              -0.1826036125421524,
              -0.3845038115978241,
              -0.456405907869339,
              -0.4879201650619507,
              0.28925952315330505,
              0.3988575041294098,
              0.08552089333534241,
              -0.08959802240133286,
              -0.01067438255995512,
              0.3073021471500397,
              0.0495341457426548,
              -0.12547163665294647,
              -0.5554060339927673,
              -0.5640038251876831,
              0.3289065659046173,
              0.17934325337409973,
              0.07611778378486633,
              0.0046347687020897865,
              0.005449745338410139,
              0.16813215613365173,
              0.19964928925037384,
              -0.5115607380867004,
              -0.3607422113418579,
              -0.11616948246955872,
              0.23393665254116058,
              0.04191393777728081,
              -0.14168600738048553,
              0.3744211494922638,
              0.12812913954257965,
              0.4622979462146759,
              0.500306248664856,
              0.4111482799053192,
              0.1926758736371994,
              0.11559928953647614,
              0.21901586651802063,
              -0.29382047057151794,
              -0.6660100221633911,
              -0.18608872592449188,
              0.10084474831819534,
              0.13258187472820282,
              0.4222237765789032,
              0.7743145227432251,
              0.6323446035385132,
              0.5513142943382263,
              0.10177948325872421,
              -0.15823394060134888,
              -0.366672545671463,
              -0.19453564286231995,
              0.18693915009498596,
              -0.003689314005896449,
              0.11964285373687744,
              0.3919258713722229,
              0.22312378883361816,
              0.3401213586330414,
              0.32867228984832764,
              -0.1830950230360031,
              -0.09546427428722382,
              -0.3640769422054291,
              -0.09663772583007812,
              0.07765595614910126,
              0.03648317605257034,
              -0.16630755364894867,
              0.3446660041809082,
              0.1054144874215126
          ],
          "bias": 0.19871638715267181
      },
      {
          "id": "NEURON_05019",
          "weights": [
              0.044137097895145416,
              0.16037625074386597,
              -0.03132271394133568,
              0.18964344263076782,
              -0.03228258341550827,
              0.2763565182685852,
              -0.16140231490135193,
              -0.23995830118656158,
              0.49343037605285645,
              0.13394254446029663,
              0.1377333551645279,
              0.26961857080459595,
              0.3526553809642792,
              -0.0719037726521492,
              -0.08740997314453125,
              0.1440669149160385,
              -0.10120996087789536,
              -0.45811882615089417,
              0.6664404273033142,
              0.45877811312675476,
              -0.02788422629237175,
              -0.06228174641728401,
              0.251064658164978,
              -0.00924631766974926,
              0.30517446994781494,
              0.04795525223016739,
              -0.3737528622150421,
              -0.33683162927627563,
              0.5739445686340332,
              0.5328766107559204,
              -0.08441987633705139,
              -0.2726201117038727,
              -0.23885945975780487,
              0.19803860783576965,
              0.11461032181978226,
              0.14066728949546814,
              -0.36488062143325806,
              -0.30421262979507446,
              0.6597751379013062,
              0.45971181988716125,
              0.06935378909111023,
              -0.4354678988456726,
              -0.4187116026878357,
              -0.1172424703836441,
              0.3276028335094452,
              0.43679189682006836,
              -0.6147317290306091,
              -0.4352249205112457,
              -0.0010376283898949623,
              0.2060854583978653,
              0.3319687843322754,
              -0.22696226835250854,
              -0.07494903355836868,
              -0.01661107689142227,
              0.2700270712375641,
              0.21411451697349548,
              -0.9490381479263306,
              -0.23756654560565948,
              0.31014618277549744,
              0.00563794793561101,
              0.39845630526542664,
              -0.32343918085098267,
              -0.5362145304679871,
              -0.12195856124162674,
              0.14138440787792206,
              0.10670608282089233,
              -0.3842836320400238,
              -0.08551493287086487,
              0.29746660590171814,
              -0.6048669219017029,
              0.25918877124786377,
              -0.22931091487407684,
              -0.18010225892066956,
              -0.05123834311962128,
              0.1938970983028412,
              -0.01674167439341545,
              -0.09816498309373856,
              0.23103618621826172,
              0.0995323583483696,
              -0.4854601323604584,
              0.00056655757362023,
              0.04828979820013046,
              0.08876550197601318,
              0.0183930192142725,
              0.2261674404144287,
              0.01750669628381729,
              -0.4182732105255127,
              0.10694117099046707,
              0.3125235140323639,
              -0.24606655538082123,
              -0.33745813369750977,
              -0.0697120726108551,
              0.4733942747116089,
              0.4200840890407562,
              -0.3962561786174774,
              0.2776469886302948,
              -0.5694836378097534,
              0.029847614467144012,
              0.13816136121749878,
              -0.3828194737434387
          ],
          "bias": -0.04453052207827568
      },
      {
          "id": "NEURON_01608",
          "weights": [
              0.34888020157814026,
              0.7944530844688416,
              0.817523717880249,
              0.7046552896499634,
              0.3782777190208435,
              0.2257191687822342,
              -0.2178671956062317,
              -0.16956262290477753,
              -0.2322664111852646,
              -0.25987952947616577,
              0.43065154552459717,
              0.0780620202422142,
              0.2333195060491562,
              0.11095661669969559,
              0.25180450081825256,
              0.4662166237831116,
              0.4959605932235718,
              0.3098161220550537,
              0.26155561208724976,
              -0.34879523515701294,
              -0.5442515015602112,
              -0.6018376350402832,
              -0.8663865923881531,
              -0.3232388496398926,
              -0.21874982118606567,
              -0.060455210506916046,
              0.1698843389749527,
              -0.03144995495676994,
              0.08758357912302017,
              0.09373178333044052,
              -0.9789251089096069,
              -0.9644264578819275,
              -0.8419128060340881,
              -0.36166173219680786,
              -0.18123692274093628,
              -0.1143379732966423,
              -0.06777559220790863,
              0.0322648361325264,
              0.15810947120189667,
              -0.0054701692424714565,
              0.6372263431549072,
              0.5684460401535034,
              0.36248481273651123,
              0.4697818160057068,
              0.20908726751804352,
              0.02532113343477249,
              -0.31440281867980957,
              -0.359540194272995,
              0.08893046528100967,
              -0.3177618980407715,
              -0.230485200881958,
              -0.34727808833122253,
              -0.12071910500526428,
              -0.21709208190441132,
              -0.2811058461666107,
              -0.3241865634918213,
              -0.22141356766223907,
              0.22001560032367706,
              -0.07870089262723923,
              -0.02260637655854225,
              0.028174152597784996,
              -0.07658769190311432,
              0.2303321212530136,
              -0.2217758744955063,
              -0.16163012385368347,
              -0.31483685970306396,
              0.21115338802337646,
              0.0242405217140913,
              -0.23188118636608124,
              0.1560424566268921,
              -0.08221808820962906,
              0.4656865894794464,
              0.05767881125211716,
              -0.24226844310760498,
              -0.08368746936321259,
              0.3128248155117035,
              0.24096158146858215,
              0.0163810383528471,
              -0.10968906432390213,
              -0.10029885172843933,
              0.10137368738651276,
              0.2563942074775696,
              -0.2142484039068222,
              -0.2027381956577301,
              0.08542424440383911,
              -0.05031207576394081,
              0.00757753849029541,
              -0.312907874584198,
              0.2734358608722687,
              0.19567497074604034,
              0.34046173095703125,
              -0.18059521913528442,
              -0.25708287954330444,
              0.01637052558362484,
              0.26045307517051697,
              0.04030149430036545,
              -0.07928620278835297,
              -0.07969775050878525,
              -0.15267154574394226,
              0.019274771213531494
          ],
          "bias": 0.23420654237270355
      },
      {
          "id": "NEURON_88979",
          "weights": [
              -0.23221129179000854,
              -0.17769977450370789,
              -0.11004388332366943,
              -0.08621160686016083,
              0.13606098294258118,
              0.2273496687412262,
              0.2461559921503067,
              0.06481542438268661,
              0.17050723731517792,
              0.17762663960456848,
              -0.3756670653820038,
              -0.005971754901111126,
              0.15251341462135315,
              0.4427352249622345,
              0.3870636224746704,
              0.25597965717315674,
              -0.06833301484584808,
              0.13752445578575134,
              0.16421473026275635,
              -0.011803285218775272,
              0.19695593416690826,
              0.015780091285705566,
              0.34140023589134216,
              0.3952626883983612,
              0.3124735355377197,
              0.013786295428872108,
              0.285470187664032,
              0.31842222809791565,
              0.057376131415367126,
              0.15432731807231903,
              0.47126707434654236,
              0.13995128870010376,
              0.4400683045387268,
              0.5267168879508972,
              0.17424646019935608,
              0.3622976839542389,
              0.3279402554035187,
              0.3286191523075104,
              0.20395183563232422,
              0.3551127314567566,
              0.3515211045742035,
              0.4495498239994049,
              0.45855391025543213,
              0.4001947343349457,
              0.21660710871219635,
              0.3767196238040924,
              0.08559855818748474,
              0.1952013224363327,
              0.3616129159927368,
              0.0077618323266506195,
              -0.4243374168872833,
              -0.11146222800016403,
              0.11973264068365097,
              -0.04099202901124954,
              -0.008547872304916382,
              -0.0561017282307148,
              -0.10655497014522552,
              -0.37050142884254456,
              -0.11684108525514603,
              -0.25782185792922974,
              -0.7838144302368164,
              -0.6331053972244263,
              -0.14168034493923187,
              -0.5361059308052063,
              -0.32929727435112,
              -0.4130111038684845,
              -0.13622713088989258,
              -0.26702743768692017,
              -0.3044497072696686,
              -0.1569199413061142,
              -0.46037691831588745,
              -0.6202343702316284,
              0.0186005886644125,
              -0.27593928575515747,
              -0.37147238850593567,
              -0.29324251413345337,
              -0.3778241276741028,
              -0.42443859577178955,
              0.20258046686649323,
              -0.2523181736469269,
              0.10307852923870087,
              -0.031210443004965782,
              -0.2271863967180252,
              -0.0766560435295105,
              -0.31306466460227966,
              -0.17576204240322113,
              -0.7177589535713196,
              -0.2471017837524414,
              0.38679298758506775,
              -0.2633099853992462,
              -0.24158109724521637,
              -0.26358458399772644,
              0.1020248681306839,
              -0.25342029333114624,
              -0.44456225633621216,
              -0.5462555289268494,
              -0.5293668508529663,
              -0.15830349922180176,
              0.07647690176963806,
              -0.46617448329925537
          ],
          "bias": -0.13988865911960602
      },
      {
          "id": "NEURON_89384",
          "weights": [
              0.050039611756801605,
              -0.48636725544929504,
              -0.37858501076698303,
              -0.07953806966543198,
              0.11486037075519562,
              -0.09316752851009369,
              -0.14574235677719116,
              0.1984536200761795,
              0.08483606576919556,
              0.08437683433294296,
              -0.0046846214681863785,
              -0.0346953384578228,
              0.0779842957854271,
              -0.2260669767856598,
              -0.11357799172401428,
              -0.11487285047769547,
              -0.3547252416610718,
              0.3577228784561157,
              -0.46639740467071533,
              0.1942896693944931,
              0.31904366612434387,
              0.07674828171730042,
              0.13919252157211304,
              -0.02722005359828472,
              0.10507605969905853,
              -0.20950040221214294,
              0.04419182240962982,
              0.23611296713352203,
              -0.708196222782135,
              0.16759541630744934,
              -0.009780505672097206,
              0.033848170191049576,
              0.17162881791591644,
              -0.32278263568878174,
              0.25253233313560486,
              0.33982187509536743,
              0.27654382586479187,
              0.13125509023666382,
              -0.26519665122032166,
              0.40516817569732666,
              0.2520851492881775,
              -0.1737481951713562,
              -0.026517702266573906,
              -0.3966537415981293,
              0.34719085693359375,
              0.214970201253891,
              0.18626613914966583,
              0.3779466152191162,
              -0.035541635006666183,
              0.6273307800292969,
              0.21366822719573975,
              0.01634743995964527,
              -0.19900566339492798,
              -0.5741655826568604,
              -0.0060199773870408535,
              -0.09449345618486404,
              -0.30974823236465454,
              -0.28103628754615784,
              -0.42098748683929443,
              0.36831870675086975,
              0.6461880803108215,
              0.2066967785358429,
              -0.41567954421043396,
              -0.21673355996608734,
              0.3156222999095917,
              0.16384324431419373,
              -0.33065804839134216,
              -0.4138777256011963,
              -0.2688218355178833,
              0.13610009849071503,
              0.3735232651233673,
              0.29763492941856384,
              0.0038570156320929527,
              0.10427414625883102,
              0.275339275598526,
              0.005009499844163656,
              -0.010108206421136856,
              0.12730181217193604,
              0.17354810237884521,
              -0.009402323514223099,
              0.2630932033061981,
              -0.019041482359170914,
              -0.054275814443826675,
              0.4588913917541504,
              0.2391333281993866,
              0.09599940478801727,
              0.14077059924602509,
              0.3019176125526428,
              0.07665219157934189,
              -0.1270557940006256,
              -0.3779180943965912,
              -0.5120822787284851,
              0.053301047533750534,
              0.1780809462070465,
              0.14376772940158844,
              0.2267092913389206,
              0.5300275683403015,
              0.5867674350738525,
              -0.08861716091632843,
              -0.20956385135650635
          ],
          "bias": -0.34862107038497925
      },
      {
          "id": "NEURON_45791",
          "weights": [
              -0.05110601708292961,
              0.09412503987550735,
              0.5812457203865051,
              0.10727822035551071,
              0.16788725554943085,
              -0.1157899871468544,
              0.009684549644589424,
              0.23399026691913605,
              0.31004005670547485,
              0.24297842383384705,
              0.21348720788955688,
              0.2504439353942871,
              0.31604668498039246,
              -0.15742571651935577,
              0.06951815634965897,
              0.12337715923786163,
              0.2554302513599396,
              0.047286342829465866,
              0.09557047486305237,
              -0.03404533490538597,
              -0.04582080990076065,
              0.04566415026783943,
              0.03228771314024925,
              -0.2222593128681183,
              -0.1563122272491455,
              -0.3013613522052765,
              -0.1402122676372528,
              -0.07168510556221008,
              -0.22734908759593964,
              0.15645384788513184,
              0.10396743565797806,
              0.10965993255376816,
              0.3316689729690552,
              0.13586479425430298,
              -0.15782079100608826,
              -0.17226016521453857,
              -0.27960169315338135,
              0.030360786244273186,
              0.24902169406414032,
              0.032577041536569595,
              -0.07962442189455032,
              0.06305323541164398,
              0.16842450201511383,
              -0.004730022046715021,
              -0.3185655176639557,
              -0.1084446832537651,
              -0.04410993307828903,
              -0.5346947908401489,
              -0.4042922854423523,
              -0.26657748222351074,
              0.265984445810318,
              0.46476849913597107,
              0.15588147938251495,
              -0.031584326177835464,
              0.26777079701423645,
              0.3559526205062866,
              0.3023264408111572,
              0.37249755859375,
              0.3935171067714691,
              0.3579520881175995,
              0.4859900176525116,
              0.2690185606479645,
              -0.020992817357182503,
              0.07140663266181946,
              0.25794366002082825,
              0.24047671258449554,
              0.2843034267425537,
              0.5653459429740906,
              0.47372084856033325,
              0.2719043791294098,
              0.3572945296764374,
              0.1751631498336792,
              -0.30897340178489685,
              -0.02463051676750183,
              0.0961027443408966,
              0.1645227074623108,
              -0.011148578487336636,
              0.006668051239103079,
              0.128585085272789,
              0.007829570211470127,
              0.5587843656539917,
              -0.16343526542186737,
              -0.918266773223877,
              -0.9214639663696289,
              -1.1254371404647827,
              -1.3423573970794678,
              -1.3297799825668335,
              -1.0041124820709229,
              -1.1063685417175293,
              -0.9903163313865662,
              0.03886149078607559,
              0.22505514323711395,
              -0.1742265671491623,
              -0.25781863927841187,
              -0.1832648366689682,
              -0.6750802993774414,
              -0.7120878100395203,
              -0.6844909191131592,
              -0.47972372174263,
              -0.393754780292511
          ],
          "bias": 0.20863695442676544
      },
      {
          "id": "NEURON_23421",
          "weights": [
              -0.3180845081806183,
              -0.3142147660255432,
              -0.3912868797779083,
              -0.7586925029754639,
              -0.3702997863292694,
              -0.551760733127594,
              -0.619598925113678,
              -0.022126032039523125,
              0.31179213523864746,
              0.5370275974273682,
              -0.1011916771531105,
              -0.0783698707818985,
              0.09811365604400635,
              0.2243679314851761,
              0.5344319343566895,
              0.4825655519962311,
              0.3202240467071533,
              0.09242650866508484,
              0.15352678298950195,
              -0.07483959943056107,
              0.044475529342889786,
              -0.17335917055606842,
              -0.37980008125305176,
              -0.017054323107004166,
              -0.2132308930158615,
              0.07785040885210037,
              0.4411360025405884,
              0.3086657226085663,
              0.041035447269678116,
              0.32174402475357056,
              0.38750582933425903,
              0.07870011031627655,
              -0.2552703022956848,
              0.11612902581691742,
              0.38496631383895874,
              0.1730620563030243,
              -0.13819752633571625,
              -0.06911312788724899,
              -0.2138424515724182,
              0.22687123715877533,
              0.2578679323196411,
              0.19490684568881989,
              -0.20007802546024323,
              0.36489373445510864,
              0.09997980296611786,
              -0.2999074459075928,
              0.02662818133831024,
              -0.05528245121240616,
              0.3024095296859741,
              0.2745106518268585,
              0.33119484782218933,
              0.32610884308815,
              -0.34010568261146545,
              -0.36524295806884766,
              0.0009078280418179929,
              0.17241543531417847,
              -0.1717778593301773,
              0.09569846838712692,
              0.21686089038848877,
              0.32958197593688965,
              0.13968411087989807,
              0.1711464673280716,
              -0.1775761842727661,
              -0.5652860403060913,
              -0.7079089879989624,
              -0.2885917127132416,
              -0.028190920129418373,
              -0.14687632024288177,
              0.3005917966365814,
              0.18756553530693054,
              -0.5448827743530273,
              -0.3418947458267212,
              0.25362613797187805,
              0.26052162051200867,
              0.10277456790208817,
              -0.06098639592528343,
              -0.12602515518665314,
              -0.2289133220911026,
              0.24407069385051727,
              0.15682651102542877,
              0.10406030714511871,
              -0.20840635895729065,
              0.29036250710487366,
              0.10467015206813812,
              0.24004946649074554,
              -0.15492723882198334,
              -0.1601283848285675,
              0.08184631913900375,
              0.28129643201828003,
              0.2139607071876526,
              0.20768363773822784,
              0.1435459703207016,
              0.12164328247308731,
              -0.1482408195734024,
              -0.18318696320056915,
              -0.08579479157924652,
              0.054894205182790756,
              -0.12629346549510956,
              -0.00477502029389143,
              0.228904590010643
          ],
          "bias": 0.21633243560791016
      },
      {
          "id": "NEURON_50559",
          "weights": [
              0.2604031264781952,
              0.06368618458509445,
              -0.27644842863082886,
              0.4631306827068329,
              0.4163462817668915,
              -0.264241486787796,
              -0.1508786380290985,
              -0.7468783259391785,
              0.3251241445541382,
              0.47463372349739075,
              0.18631704151630402,
              -0.5226677656173706,
              -0.693064272403717,
              0.159593403339386,
              0.11443789303302765,
              -0.35894328355789185,
              -0.2888229787349701,
              -1.0849835872650146,
              0.4812141954898834,
              0.023432206362485886,
              0.3150206506252289,
              -0.07214445620775223,
              -0.8620190620422363,
              -0.26862266659736633,
              -0.22392240166664124,
              -0.0813932716846466,
              -0.11926531046628952,
              -0.9781401753425598,
              0.35204845666885376,
              0.11087387800216675,
              0.3607551157474518,
              0.13607047498226166,
              -0.5728868842124939,
              -0.14311152696609497,
              -0.11616590619087219,
              -0.1865597516298294,
              -0.293129026889801,
              -1.1552741527557373,
              0.4061480164527893,
              0.3471872806549072,
              0.09432516247034073,
              0.3861434757709503,
              -0.25254252552986145,
              -0.07358705252408981,
              0.20051133632659912,
              -0.41402921080589294,
              -0.11176135390996933,
              -0.7596147060394287,
              0.4514354169368744,
              0.1272035390138626,
              0.07029610872268677,
              0.039396971464157104,
              -0.71871018409729,
              0.4201132357120514,
              -0.1848650425672531,
              -0.1242903470993042,
              0.08268146216869354,
              -0.49631303548812866,
              0.31676918268203735,
              0.13163651525974274,
              0.2968480587005615,
              -0.284248024225235,
              -0.4587477147579193,
              -0.09504109621047974,
              0.4808216392993927,
              -0.45476651191711426,
              -0.2219570130109787,
              -0.23456184566020966,
              0.5341722369194031,
              0.005905788857489824,
              0.0932941734790802,
              0.03688211366534233,
              -0.0894366204738617,
              0.035416193306446075,
              0.3509539067745209,
              -0.22629089653491974,
              -0.298446923494339,
              -0.5128616690635681,
              0.32108795642852783,
              0.22031235694885254,
              0.21840964257717133,
              0.26324930787086487,
              -0.14781299233436584,
              -0.019999254494905472,
              0.19888563454151154,
              -0.8156201839447021,
              -0.16594116389751434,
              -0.21013030409812927,
              0.18080852925777435,
              0.015044277533888817,
              0.44702357053756714,
              0.2213597446680069,
              -0.7169041037559509,
              -0.4109489619731903,
              0.06557031720876694,
              -0.24152164161205292,
              0.0044889855198562145,
              -0.23153004050254822,
              0.26586076617240906,
              0.11992210894823074
          ],
          "bias": 0.5983366966247559
      },
      {
          "id": "NEURON_51702",
          "weights": [
              0.5362434387207031,
              0.2345743328332901,
              -0.15478990972042084,
              0.3105453848838806,
              0.2855520248413086,
              0.11269114911556244,
              -0.17980697751045227,
              0.11584898829460144,
              0.05706842616200447,
              0.29068559408187866,
              -0.32634612917900085,
              -0.3010837733745575,
              0.23551908135414124,
              0.32974517345428467,
              0.18002118170261383,
              0.04961070790886879,
              0.036658961325883865,
              0.4061264395713806,
              0.08691208809614182,
              0.0790034681558609,
              -0.6875213384628296,
              -0.10273147374391556,
              0.2991468012332916,
              0.19222266972064972,
              -0.4165247678756714,
              -0.38947370648384094,
              -0.23720799386501312,
              0.43558943271636963,
              -0.08341066539287567,
              -0.11386110633611679,
              -0.31867486238479614,
              0.4154200851917267,
              0.2418089359998703,
              -0.5401089787483215,
              -0.9188894629478455,
              -0.38233834505081177,
              0.10441241413354874,
              0.10118039697408676,
              -0.27068835496902466,
              -0.5802853107452393,
              -0.25602272152900696,
              0.5301514267921448,
              0.35222259163856506,
              -0.6658491492271423,
              -0.6295315623283386,
              -0.1537526398897171,
              0.1111229881644249,
              0.23924528062343597,
              -0.41937413811683655,
              -0.34893232583999634,
              0.011721058748662472,
              0.21342572569847107,
              0.33932408690452576,
              -0.3232230246067047,
              -0.06367258727550507,
              -0.06725936383008957,
              0.29308032989501953,
              0.3104354739189148,
              -0.30179116129875183,
              -0.5114256143569946,
              0.17949584126472473,
              0.1870139092206955,
              -0.14922957122325897,
              0.18627507984638214,
              0.12698018550872803,
              0.08527462184429169,
              0.42391660809516907,
              0.11117749661207199,
              0.20295055210590363,
              -0.34755653142929077,
              0.06499719619750977,
              -0.38608425855636597,
              -0.06562335044145584,
              0.028500154614448547,
              -0.07838864624500275,
              -0.2002631574869156,
              0.23691695928573608,
              0.08856325596570969,
              -0.07147493958473206,
              0.26621609926223755,
              -0.1604052633047104,
              -0.14885202050209045,
              -0.41659384965896606,
              -0.26843515038490295,
              -0.09175918251276016,
              0.07370740920305252,
              0.09310974180698395,
              -0.09049736708402634,
              -0.2484693080186844,
              -0.029716163873672485,
              0.05645672604441643,
              -0.0005254457937553525,
              -0.40386322140693665,
              -0.36128392815589905,
              0.2785896062850952,
              -0.38796308636665344,
              -0.06727688759565353,
              -0.13124597072601318,
              -0.6012305617332458,
              -0.5651770830154419
          ],
          "bias": 0.20641757547855377
      },
      {
          "id": "NEURON_17038",
          "weights": [
              0.6406202912330627,
              0.31603172421455383,
              0.10553154349327087,
              -0.08375291526317596,
              -0.0867137610912323,
              0.12052161246538162,
              -0.4955824017524719,
              -0.29632166028022766,
              -0.13330933451652527,
              -0.43496233224868774,
              0.4637245833873749,
              0.17944881319999695,
              0.218598872423172,
              0.28737589716911316,
              0.44718533754348755,
              0.4206700026988983,
              0.054516348987817764,
              0.2291911542415619,
              0.16976352035999298,
              -0.5981266498565674,
              0.03774091973900795,
              -0.114488884806633,
              -0.11008962243795395,
              0.07125440984964371,
              0.03588294982910156,
              -0.02953791245818138,
              0.2813105881214142,
              0.07574417442083359,
              0.41869375109672546,
              -0.36526402831077576,
              -0.12266243249177933,
              -0.21351046860218048,
              0.016410743817687035,
              0.33229967951774597,
              -0.012623020447790623,
              0.14336349070072174,
              -0.11942972242832184,
              -0.03385022655129433,
              0.33480754494667053,
              -0.2655569016933441,
              -0.5033084154129028,
              -0.49020588397979736,
              0.08217308670282364,
              -0.03005007840692997,
              -0.028096502646803856,
              -0.7424846887588501,
              -0.7216445207595825,
              -0.18673644959926605,
              0.4789937436580658,
              -0.5407780408859253,
              -0.37925246357917786,
              -0.09393444657325745,
              0.19195593893527985,
              0.4456549882888794,
              -0.06328699737787247,
              -0.9020481109619141,
              -0.4458283483982086,
              0.32138004899024963,
              0.38916561007499695,
              0.039436984807252884,
              0.10206139087677002,
              -0.16815735399723053,
              -0.09060052037239075,
              0.5065432190895081,
              -0.08844556659460068,
              -0.45071154832839966,
              -0.07210411876440048,
              0.11218145489692688,
              0.5161337852478027,
              -0.2611793279647827,
              -0.15230120718479156,
              -0.0008834768086671829,
              0.0553075447678566,
              0.29408377408981323,
              -0.44346070289611816,
              -0.16530774533748627,
              -0.24844755232334137,
              0.23843948543071747,
              0.5007032752037048,
              -0.510100781917572,
              -0.1603287309408188,
              0.17456132173538208,
              0.1443382203578949,
              0.24707792699337006,
              -0.8975826501846313,
              -0.17525999248027802,
              -0.08440659940242767,
              0.24058504402637482,
              0.39128386974334717,
              -0.35233137011528015,
              0.4966029226779938,
              0.37599197030067444,
              -0.30268430709838867,
              0.23227274417877197,
              -0.43266716599464417,
              -0.33778631687164307,
              0.09533977508544922,
              0.39441153407096863,
              -0.1914995014667511,
              -0.3847997784614563
          ],
          "bias": 0.13926392793655396
      },
      {
          "id": "NEURON_35942",
          "weights": [
              -0.2914166748523712,
              0.34564208984375,
              0.028465740382671356,
              -0.39250046014785767,
              -0.6558660268783569,
              -0.5136330127716064,
              -0.5340338945388794,
              -0.3565893769264221,
              -0.6255559921264648,
              -0.6005959510803223,
              0.5135394334793091,
              0.5412141680717468,
              0.4170251488685608,
              0.44740957021713257,
              0.6410980820655823,
              0.6090081930160522,
              0.2732580602169037,
              0.07778450101613998,
              0.17705115675926208,
              0.4413925111293793,
              -0.20926189422607422,
              -0.4500174820423126,
              -0.12098235636949539,
              0.29519790410995483,
              0.2831929922103882,
              -0.12021704763174057,
              -0.05136962980031967,
              -0.27613580226898193,
              0.07676632702350616,
              0.3407582640647888,
              -0.7380000948905945,
              -0.8163732290267944,
              0.03813636675477028,
              0.1070711687207222,
              -0.03676605597138405,
              -0.2766430974006653,
              -0.32443496584892273,
              -0.4260685443878174,
              -0.4465693235397339,
              -0.4957898259162903,
              -0.4717108905315399,
              -0.3740154206752777,
              -0.3224220275878906,
              -0.14085949957370758,
              -0.1901276707649231,
              -0.1035221517086029,
              -0.12224812805652618,
              0.024528827518224716,
              0.13451042771339417,
              0.07048054784536362,
              0.4284900426864624,
              0.4317210018634796,
              0.22615569829940796,
              0.0023488556034862995,
              -0.026561496779322624,
              0.4840894043445587,
              0.32085075974464417,
              0.29279956221580505,
              0.20925450325012207,
              0.21514442563056946,
              -0.05378003045916557,
              0.08464307337999344,
              -0.0924207866191864,
              -0.2670868933200836,
              -0.1068819910287857,
              0.14210036396980286,
              0.11830051988363266,
              -0.02538258023560047,
              -0.22481654584407806,
              -0.3813806176185608,
              -0.011707544326782227,
              -0.22038297355175018,
              -0.2650008797645569,
              0.07029064744710922,
              0.21585461497306824,
              0.061433710157871246,
              0.06541141122579575,
              0.08061575889587402,
              -0.22242632508277893,
              0.11321651935577393,
              0.26250624656677246,
              0.03184361755847931,
              0.08900251984596252,
              0.28082072734832764,
              0.07284721732139587,
              0.06073860079050064,
              0.10123398900032043,
              0.08554770052433014,
              0.1592300683259964,
              -0.3479490876197815,
              -0.07546671479940414,
              0.03356947377324104,
              -0.22280369699001312,
              -0.11594058573246002,
              -0.28442683815956116,
              -0.5968372821807861,
              -0.2498340904712677,
              -0.19948868453502655,
              0.18306758999824524,
              -0.052974916994571686
          ],
          "bias": 0.28473567962646484
      },
      {
          "id": "NEURON_75450",
          "weights": [
              0.1679697185754776,
              0.29040268063545227,
              0.48726704716682434,
              0.32982322573661804,
              0.3552025854587555,
              0.21594423055648804,
              0.30532944202423096,
              0.18965095281600952,
              0.39514610171318054,
              0.244060680270195,
              -0.7419863939285278,
              -0.3699188232421875,
              -0.6303144097328186,
              -0.41295889019966125,
              -0.34299516677856445,
              -0.15988069772720337,
              -0.018927879631519318,
              -0.1728450208902359,
              -0.354679137468338,
              -0.2989089787006378,
              -0.8828827142715454,
              -0.6249890923500061,
              -0.08156349509954453,
              -0.2688680589199066,
              -0.24952509999275208,
              -0.5859752893447876,
              -0.7168639302253723,
              -0.27028268575668335,
              -0.3538791239261627,
              -0.5417681932449341,
              0.19601869583129883,
              0.0825909674167633,
              0.06644683331251144,
              0.4528302848339081,
              0.47924673557281494,
              0.5208418965339661,
              0.6675751209259033,
              0.4000757932662964,
              0.5958346724510193,
              0.5748098492622375,
              -0.17042048275470734,
              -0.156019926071167,
              -0.0657789409160614,
              -0.1420709788799286,
              -0.04785426706075668,
              -0.023336714133620262,
              -0.39823389053344727,
              -0.3286656439304352,
              -0.3706754744052887,
              -0.17372649908065796,
              0.07435760647058487,
              -0.11587768793106079,
              -0.14349256455898285,
              -0.20714253187179565,
              -0.3198215067386627,
              -0.03757551684975624,
              -0.0521431528031826,
              -0.06374494731426239,
              -0.33438560366630554,
              -0.36417168378829956,
              0.3209267854690552,
              0.004274027422070503,
              0.18002378940582275,
              -0.18779268860816956,
              0.008171853609383106,
              -0.0648813471198082,
              -0.08964034914970398,
              0.07419014722108841,
              -0.05012280493974686,
              0.01736599951982498,
              -0.6942126154899597,
              0.012919354252517223,
              -0.00005530555790755898,
              0.21360962092876434,
              0.3836905360221863,
              0.09171177446842194,
              -0.03176093474030495,
              0.07029528170824051,
              -0.1231735497713089,
              0.14679567515850067,
              0.2530486583709717,
              0.2249917984008789,
              -0.2328159362077713,
              -0.08005201816558838,
              -0.45141229033470154,
              0.008312463760375977,
              0.08365359157323837,
              0.14390867948532104,
              0.1713525503873825,
              -0.1442016363143921,
              0.11022717505693436,
              0.01854497566819191,
              -0.25926336646080017,
              -0.05781662091612816,
              -0.33140477538108826,
              0.04563286900520325,
              0.05743187665939331,
              -0.2103409320116043,
              -0.30385470390319824,
              -0.14020678400993347
          ],
          "bias": 0.5243694186210632
      },
      {
          "id": "NEURON_86048",
          "weights": [
              -0.22839662432670593,
              0.5445290207862854,
              0.004406680818647146,
              -0.10228073596954346,
              0.3494989275932312,
              0.4457096457481384,
              0.3564642667770386,
              0.22816871106624603,
              0.3328639268875122,
              -0.09815128892660141,
              -0.07496387511491776,
              -0.022968582808971405,
              -0.1977304220199585,
              -0.47245243191719055,
              -0.058963593095541,
              0.4059189558029175,
              0.24397464096546173,
              0.3088349401950836,
              0.18588389456272125,
              0.20089749991893768,
              -0.41853421926498413,
              -0.01708550751209259,
              0.10081271082162857,
              -0.2624766528606415,
              0.09303437918424606,
              0.4002538323402405,
              0.3145975172519684,
              0.3802824914455414,
              0.25074005126953125,
              0.5630296468734741,
              -0.42313146591186523,
              -0.17404602468013763,
              0.05242116376757622,
              -0.5932044982910156,
              0.056633107364177704,
              -0.07336988300085068,
              0.1702270209789276,
              -0.1311463564634323,
              0.03439779952168465,
              0.38851526379585266,
              -0.39575010538101196,
              -0.4913722276687622,
              -0.9129117727279663,
              -0.868114709854126,
              -0.2794766128063202,
              0.22693240642547607,
              0.5610277652740479,
              0.2339344322681427,
              0.4973706305027008,
              -0.2517959177494049,
              -0.45769810676574707,
              -0.7533971071243286,
              -0.9650314450263977,
              -0.28704240918159485,
              -0.10793701559305191,
              0.1251668632030487,
              0.47787967324256897,
              0.2686275839805603,
              -0.19147036969661713,
              -0.12472256273031235,
              -0.3544246554374695,
              -0.4768162965774536,
              0.011893811635673046,
              -0.08326233923435211,
              -0.10056958347558975,
              0.182783305644989,
              0.28732672333717346,
              0.16705505549907684,
              0.045232418924570084,
              -0.3733838200569153,
              -0.39896160364151,
              -0.1523033231496811,
              -0.12214548885822296,
              -0.3134358823299408,
              -0.1608782559633255,
              0.0025681424885988235,
              0.25036272406578064,
              0.06830660998821259,
              -0.027245204895734787,
              -0.1291726529598236,
              -0.2380102425813675,
              -0.3867260813713074,
              -0.7967573404312134,
              0.24243302643299103,
              0.006558005232363939,
              0.1940530687570572,
              -0.047238789498806,
              0.08379125595092773,
              -0.04479077085852623,
              -0.36081641912460327,
              -0.014959289692342281,
              -0.05770077928900719,
              0.530348002910614,
              0.5310333967208862,
              0.3478674292564392,
              0.22301919758319855,
              -0.04362938925623894,
              0.38410305976867676,
              -0.15298046171665192,
              0.10307836532592773
          ],
          "bias": -0.05936366319656372
      },
      {
          "id": "NEURON_37421",
          "weights": [
              -0.10516780614852905,
              -0.9298458695411682,
              -0.06376313418149948,
              0.06927486509084702,
              -0.2796826660633087,
              0.08611270040273666,
              -0.4031422436237335,
              -0.6348538994789124,
              0.30903393030166626,
              0.1631568968296051,
              0.06607130169868469,
              -0.9596707820892334,
              0.009741045534610748,
              -0.012697519734501839,
              -0.39201822876930237,
              -0.4428461194038391,
              -0.2674497961997986,
              -0.2440737932920456,
              0.5492011308670044,
              0.09578733891248703,
              -0.07784662395715714,
              -0.16696040332317352,
              0.1081649661064148,
              0.13130828738212585,
              0.057740360498428345,
              -0.3414291441440582,
              0.2350291758775711,
              -0.37560373544692993,
              0.4101382791996002,
              -0.08913581818342209,
              0.21108867228031158,
              -0.047074273228645325,
              0.018184194341301918,
              0.1453259438276291,
              -0.4553011655807495,
              -0.09363585710525513,
              0.4238998591899872,
              -0.38645002245903015,
              0.0978696197271347,
              -0.2318301945924759,
              0.5104314684867859,
              -0.06283528357744217,
              0.4044656455516815,
              0.5478317141532898,
              -0.0896156057715416,
              0.1929560750722885,
              0.6248332262039185,
              -0.30204498767852783,
              0.3721505403518677,
              -0.13638779520988464,
              0.4477007985115051,
              -0.2676309049129486,
              0.3938334882259369,
              0.3639174699783325,
              -0.2576088309288025,
              0.35088422894477844,
              0.4039522707462311,
              0.08267255127429962,
              0.35322004556655884,
              0.0179643202573061,
              -0.2365092635154724,
              -0.32184284925460815,
              0.18826059997081757,
              0.052577827125787735,
              -0.13206085562705994,
              0.27027422189712524,
              0.3685656785964966,
              -0.37184861302375793,
              0.2873375117778778,
              0.13451942801475525,
              -0.3944655954837799,
              -0.3613710403442383,
              0.05243430659174919,
              0.03570331260561943,
              -0.3832699954509735,
              0.2694888114929199,
              -0.05279668793082237,
              -0.2939532399177551,
