// For hydration purposes (Next JS)
// export const network_v1 = create_network(WEIGHTS, BIAS);

import {
  ClassificationType,
  // create_network,
  NetworkType,
  create_network,
  // create_network,
  relu_activation,
  sigmoid_activation,
  softmax_activation,
} from "./network";

// * --------- NETWORK V1 ---------
// Weights of V1 network
const WEIGHTS_V1 = [
  [
    [0.34660286, -0.01123584],
    [-0.16000803, 0.37327516],
    [-0.20330293, -0.285043],
    [0.03866423, 0.00664284],
  ], // First Layer
  [[-0.819887, -0.60944384, -0.60550654, 0.81135994]], // Output Layer
];

// Bias of V1 Network
const BIAS_V1 = [[-1.3854994, -1.2200477, -0.6707291, 2.2454503], [1.962239]];
// The thresholds of each layer that cause neuron to glow (not including input)
export const ACTIVATION_THRESHOLDS_V1 = [0, 0.5];
// Activation function of each layer
export const ACTIVATIONS_V1 = [relu_activation, sigmoid_activation];

// Compiled network
const NETWORK_V1 = [
  [
    {
      id: "NEURON_75921",
      weights: [0.34660286, -0.01123584],
      bias: -1.3854994,
    },
    {
      id: "NEURON_79786",
      weights: [-0.16000803, 0.37327516],
      bias: -1.2200477,
    },
    {
      id: "NEURON_96141",
      weights: [-0.20330293, -0.285043],
      bias: -0.6707291,
    },
    {
      id: "NEURON_65776",
      weights: [0.03866423, 0.00664284],
      bias: 2.2454503,
    },
  ],
  [
    {
      id: "NEURON_82556",
      weights: [-0.819887, -0.60944384, -0.60550654, 0.81135994],
      bias: 1.962239,
    },
  ],
];

// * --------- NETWORK V2 ---------
const WEIGHTS_V2 = [
  [
    [-0.34477118, -1.6760575],
    [0.31985378, 0.05698782],
    [0.9938797, 0.37092927],
    [0.5316709, 0.05891604],
    [-0.3936875, 0.2678236],
    [-0.6676354, -0.23336759],
  ],
  [
    [1.7718524, 0.1253783, 0.05593611, 0.8161352, -0.5778513, -0.32674235],
    [-0.387093, 0.11015438, -0.6425315, 0.01890373, -0.12255807, -0.67158157],
    [0.12292493, -2.2577233, 0.04268863, -0.23945038, 0.824801, 0.16089681],
    [
      -0.5992771, -0.34958652, -0.35315248, -0.5255966, -0.03629249,
      -0.34147778,
    ],
    [-0.53602463, -0.5711668, 0.7213426, -1.7292765, -0.11530387, -1.7924851],
    [0.52787155, 0.15420282, -0.06676751, 0.09076008, 1.7018548, 0.17385295],
  ],
  [[0.566249, 0.51702875, -0.6228413, -0.10376287, -1.122004, -0.55353564]],
];

const BIAS_V2 = [
  [1.2334526, -1.3812139, -0.24565703, -3.3825176, -3.5829697, -0.02190185],
  [-1.1887258, -0.41817272, -1.3184562, -0.20588127, 0.25860855, -2.6970034],
  [1.1585021],
];

const NETWORK_V2 = [
  [
    {
      id: "NEURON_11136",
      weights: [-0.34477118, -1.6760575],
      bias: 1.2334526,
    },
    {
      id: "NEURON_35617",
      weights: [0.31985378, 0.05698782],
      bias: -1.3812139,
    },
    {
      id: "NEURON_52199",
      weights: [0.9938797, 0.37092927],
      bias: -0.24565703,
    },
    {
      id: "NEURON_68952",
      weights: [0.5316709, 0.05891604],
      bias: -3.3825176,
    },
    {
      id: "NEURON_03907",
      weights: [-0.3936875, 0.2678236],
      bias: -3.5829697,
    },
    {
      id: "NEURON_71160",
      weights: [-0.6676354, -0.23336759],
      bias: -0.02190185,
    },
  ],
  [
    {
      id: "NEURON_61495",
      weights: [
        1.7718524, 0.1253783, 0.05593611, 0.8161352, -0.5778513, -0.32674235,
      ],
      bias: -1.1887258,
    },
    {
      id: "NEURON_75033",
      weights: [
        -0.387093, 0.11015438, -0.6425315, 0.01890373, -0.12255807, -0.67158157,
      ],
      bias: -0.41817272,
    },
    {
      id: "NEURON_47197",
      weights: [
        0.12292493, -2.2577233, 0.04268863, -0.23945038, 0.824801, 0.16089681,
      ],
      bias: -1.3184562,
    },
    {
      id: "NEURON_67004",
      weights: [
        -0.5992771, -0.34958652, -0.35315248, -0.5255966, -0.03629249,
        -0.34147778,
      ],
      bias: -0.20588127,
    },
    {
      id: "NEURON_22291",
      weights: [
        -0.53602463, -0.5711668, 0.7213426, -1.7292765, -0.11530387, -1.7924851,
      ],
      bias: 0.25860855,
    },
    {
      id: "NEURON_42131",
      weights: [
        0.52787155, 0.15420282, -0.06676751, 0.09076008, 1.7018548, 0.17385295,
      ],
      bias: -2.6970034,
    },
  ],
  [
    {
      id: "NEURON_38332",
      weights: [
        0.566249, 0.51702875, -0.6228413, -0.10376287, -1.122004, -0.55353564,
      ],
      bias: 1.1585021,
    },
  ],
];

// ---------------- NETWORk V3 ---------------
const WEIGHTS_V3 = [
  [
    [-0.5324926376342773, -0.29907533526420593],
    [-0.7304787039756775, -0.7349548935890198],
    [-0.19057944416999817, 0.6576992273330688],
    [0.7561840415000916, -0.23459865152835846],
    [-0.0315120592713356, 0.09727984666824341],
    [0.7216871976852417, 0.6902466416358948],
  ],
  [
    [
      -0.3610752522945404, 0.8125820755958557, -0.001195224467664957,
      -0.05774438753724098, 0.3710850477218628, -3.180962085723877,
    ],
    [
      0.1668349951505661, 0.452275812625885, 0.15249839425086975,
      0.5151237845420837, -0.7802107930183411, -0.12064271420240402,
    ],
    [
      0.6722677946090698, -0.43293437361717224, 0.20755833387374878,
      0.6839873194694519, -0.30257752537727356, 0.07432575523853302,
    ],
    [
      -0.6294812560081482, -0.303091824054718, 0.2578834295272827,
      0.0066947718150913715, -0.542716383934021, 0.9371834993362427,
    ],
    [
      0.4042842984199524, -0.3901467025279999, -1.5084220170974731,
      0.5652968883514404, 0.8680306077003479, -0.6993414759635925,
    ],
    [
      -0.13709603250026703, -0.4469386637210846, -0.14095459878444672,
      0.5516986846923828, 0.026941873133182526, 0.6507626175880432,
    ],
    [
      0.030041947960853577, -0.06400871276855469, 0.5501330494880676,
      -0.5280497670173645, 0.13784568011760712, 0.3633773922920227,
    ],
    [
      0.13917189836502075, -0.09907057881355286, -1.1791188716888428,
      0.6115815043449402, -0.1257452815771103, 0.28531205654144287,
    ],
  ],
  [
    [
      0.3943626880645752, 0.7286345362663269, 0.15075565874576569,
      -0.6228792071342468, 1.626854658126831, 0.6073384881019592,
      -0.01686279848217964, -0.24761465191841125,
    ],
    [
      0.0928196981549263, 0.3560091555118561, -0.5269024968147278,
      0.6296191811561584, 0.20593887567520142, -0.6647340655326843,
      0.3685893416404724, 1.2788645029067993,
    ],
    [
      -1.3074438571929932, 0.29227086901664734, -0.20799235999584198,
      -1.6280311346054077, 0.9070345759391785, -0.03995760530233383,
      0.2281820923089981, 0.44812899827957153,
    ],
    [
      -0.714678168296814, -0.44059914350509644, -0.4126870930194855,
      -0.4688993990421295, 0.21437454223632812, -0.4142325818538666,
      -0.10313690453767776, -0.35133835673332214,
    ],
  ],
  [
    [
      0.49380406737327576, 0.30138105154037476, 0.8497355580329895,
      0.17598935961723328,
    ],
    [
      0.5417230725288391, 1.002265453338623, -0.19498759508132935,
      -0.22209909558296204,
    ],
    [
      0.6868888735771179, 0.8658484816551208, -1.1983275413513184,
      0.21791952848434448,
    ],
    [
      -1.7504398822784424, 0.530386745929718, -1.7322925329208374,
      -0.156508207321167,
    ],
  ],
  [
    [
      0.4318792223930359, 0.23323090374469757, -1.2973649501800537,
      -3.3018250465393066,
    ],
    [
      -0.5199006199836731, -1.24300217628479, -1.2370699644088745,
      1.5943868160247803,
    ],
    [
      -0.9033937454223633, 0.7900865077972412, 0.6025182008743286,
      0.24536322057247162,
    ],
  ],
];

const BIAS_V3 = [
  [
    -1.0458276271820068, -0.05338984727859497, 1.9784071445465088,
    0.002738594077527523, 1.867319107055664, -0.2467537671327591,
  ],
  [
    0.4289727210998535, -2.3215765953063965, -0.9846894145011902,
    0.17616547644138336, 0.44055885076522827, 0.24573835730552673,
    0.1263357251882553, -1.2629506587982178,
  ],
  [
    -1.5963979959487915, -0.6022589802742004, -1.7257966995239258,
    -0.30573442578315735,
  ],
  [
    2.2868971824645996, -0.46975868940353394, -2.9407854080200195,
    2.441746234893799,
  ],
  [1.476133108139038, 0.42703884840011597, -1.7692339420318604],
];

const NETWORK_V3 = [
  [
    {
      id: "NEURON_61994",
      weights: [-0.5324926376342773, -0.29907533526420593],
      bias: -1.0458276271820068,
    },
    {
      id: "NEURON_39560",
      weights: [-0.7304787039756775, -0.7349548935890198],
      bias: -0.05338984727859497,
    },
    {
      id: "NEURON_94932",
      weights: [-0.19057944416999817, 0.6576992273330688],
      bias: 1.9784071445465088,
    },
    {
      id: "NEURON_73823",
      weights: [0.7561840415000916, -0.23459865152835846],
      bias: 0.002738594077527523,
    },
    {
      id: "NEURON_58804",
      weights: [-0.0315120592713356, 0.09727984666824341],
      bias: 1.867319107055664,
    },
    {
      id: "NEURON_92644",
      weights: [0.7216871976852417, 0.6902466416358948],
      bias: -0.2467537671327591,
    },
  ],
  [
    {
      id: "NEURON_34345",
      weights: [
        -0.3610752522945404, 0.8125820755958557, -0.001195224467664957,
        -0.05774438753724098, 0.3710850477218628, -3.180962085723877,
      ],
      bias: 0.4289727210998535,
    },
    {
      id: "NEURON_49208",
      weights: [
        0.1668349951505661, 0.452275812625885, 0.15249839425086975,
        0.5151237845420837, -0.7802107930183411, -0.12064271420240402,
      ],
      bias: -2.3215765953063965,
    },
    {
      id: "NEURON_38397",
      weights: [
        0.6722677946090698, -0.43293437361717224, 0.20755833387374878,
        0.6839873194694519, -0.30257752537727356, 0.07432575523853302,
      ],
      bias: -0.9846894145011902,
    },
    {
      id: "NEURON_52637",
      weights: [
        -0.6294812560081482, -0.303091824054718, 0.2578834295272827,
        0.0066947718150913715, -0.542716383934021, 0.9371834993362427,
      ],
      bias: 0.17616547644138336,
    },
    {
      id: "NEURON_18446",
      weights: [
        0.4042842984199524, -0.3901467025279999, -1.5084220170974731,
        0.5652968883514404, 0.8680306077003479, -0.6993414759635925,
      ],
      bias: 0.44055885076522827,
    },
    {
      id: "NEURON_72529",
      weights: [
        -0.13709603250026703, -0.4469386637210846, -0.14095459878444672,
        0.5516986846923828, 0.026941873133182526, 0.6507626175880432,
      ],
      bias: 0.24573835730552673,
    },
    {
      id: "NEURON_36645",
      weights: [
        0.030041947960853577, -0.06400871276855469, 0.5501330494880676,
        -0.5280497670173645, 0.13784568011760712, 0.3633773922920227,
      ],
      bias: 0.1263357251882553,
    },
    {
      id: "NEURON_18500",
      weights: [
        0.13917189836502075, -0.09907057881355286, -1.1791188716888428,
        0.6115815043449402, -0.1257452815771103, 0.28531205654144287,
      ],
      bias: -1.2629506587982178,
    },
  ],
  [
    {
      id: "NEURON_20512",
      weights: [
        0.3943626880645752, 0.7286345362663269, 0.15075565874576569,
        -0.6228792071342468, 1.626854658126831, 0.6073384881019592,
        -0.01686279848217964, -0.24761465191841125,
      ],
      bias: -1.5963979959487915,
    },
    {
      id: "NEURON_18675",
      weights: [
        0.0928196981549263, 0.3560091555118561, -0.5269024968147278,
        0.6296191811561584, 0.20593887567520142, -0.6647340655326843,
        0.3685893416404724, 1.2788645029067993,
      ],
      bias: -0.6022589802742004,
    },
    {
      id: "NEURON_56902",
      weights: [
        -1.3074438571929932, 0.29227086901664734, -0.20799235999584198,
        -1.6280311346054077, 0.9070345759391785, -0.03995760530233383,
        0.2281820923089981, 0.44812899827957153,
      ],
      bias: -1.7257966995239258,
    },
    {
      id: "NEURON_76179",
      weights: [
        -0.714678168296814, -0.44059914350509644, -0.4126870930194855,
        -0.4688993990421295, 0.21437454223632812, -0.4142325818538666,
        -0.10313690453767776, -0.35133835673332214,
      ],
      bias: -0.30573442578315735,
    },
  ],
  [
    {
      id: "NEURON_08539",
      weights: [
        0.49380406737327576, 0.30138105154037476, 0.8497355580329895,
        0.17598935961723328,
      ],
      bias: 2.2868971824645996,
    },
    {
      id: "NEURON_47368",
      weights: [
        0.5417230725288391, 1.002265453338623, -0.19498759508132935,
        -0.22209909558296204,
      ],
      bias: -0.46975868940353394,
    },
    {
      id: "NEURON_56888",
      weights: [
        0.6868888735771179, 0.8658484816551208, -1.1983275413513184,
        0.21791952848434448,
      ],
      bias: -2.9407854080200195,
    },
    {
      id: "NEURON_18692",
      weights: [
        -1.7504398822784424, 0.530386745929718, -1.7322925329208374,
        -0.156508207321167,
      ],
      bias: 2.441746234893799,
    },
  ],
  [
    {
      id: "NEURON_48446",
      weights: [
        0.4318792223930359, 0.23323090374469757, -1.2973649501800537,
        -3.3018250465393066,
      ],
      bias: 1.476133108139038,
    },
    {
      id: "NEURON_36365",
      weights: [
        -0.5199006199836731, -1.24300217628479, -1.2370699644088745,
        1.5943868160247803,
      ],
      bias: 0.42703884840011597,
    },
    {
      id: "NEURON_07340",
      weights: [
        -0.9033937454223633, 0.7900865077972412, 0.6025182008743286,
        0.24536322057247162,
      ],
      bias: -1.7692339420318604,
    },
  ],
];

// const network = create_network(WEIGHTS_V3, BIAS_V3);
// console.log(network);

// --------------- NETWORK_V4 (HUGE!) --------------
const NETWORK_V4 = [
  [
      {
          "id": "NEURON_66877",
          "weights": [
              0.04638354107737541,
              0.04033239930868149,
              0.758371889591217,
              -0.026260219514369965,
              -0.48102593421936035,
              -0.1932033747434616,
              -1.396246314048767,
              0.08465736359357834,
              0.4970209300518036,
              -0.16742916405200958,
              -0.2789231538772583,
              -0.9418779611587524,
              -1.6714204549789429,
              -0.42442840337753296,
              -0.08336383104324341,
              0.31125837564468384,
              -1.1860942840576172,
              -0.8538748025894165,
              0.9638274908065796,
              -0.2538565397262573,
              -0.9909690022468567,
              -0.030993463471531868,
              0.7150570154190063,
              0.4070446491241455,
              0.2689666748046875,
              -0.12236730754375458,
              0.02105189673602581,
              -0.7019632458686829,
              0.5423212647438049,
              -0.7853935956954956,
              0.4129216969013214,
              -0.09860028326511383,
              0.3609088361263275,
              0.30646225810050964,
              0.15569233894348145,
              -0.19155988097190857,
              -0.028002819046378136,
              -0.009763862937688828,
              0.16931889951229095,
              -0.6552244424819946,
              0.3186817169189453,
              -0.4028027057647705,
              -0.5203239321708679,
              -0.6553013920783997,
              0.39938604831695557,
              0.34462323784828186,
              0.07999780029058456,
              0.10283300280570984,
              0.36917006969451904,
              -0.7302072048187256,
              0.020864861086010933,
              -0.0721350908279419,
              -0.6626509428024292,
              -0.19754213094711304,
              0.09186749905347824,
              0.2222059816122055,
              0.4612989127635956,
              -0.46161147952079773,
              0.12051892280578613,
              -0.9635923504829407,
              -0.06506610661745071,
              -0.5523572564125061,
              -0.6727365851402283,
              -0.5881534814834595,
              -0.4245283007621765,
              -0.17110756039619446,
              -0.21768248081207275,
              -0.0994778499007225,
              -0.7155876755714417,
              -0.63527911901474,
              -0.10287442058324814,
              0.2945495545864105,
              -0.40581971406936646,
              0.08756768703460693,
              -0.19514058530330658,
              0.054640620946884155,
              -0.6804885268211365,
              -0.4626694917678833,
              -0.9199514985084534,
              -0.9092662930488586,
              -0.6099101901054382,
              0.66709303855896,
              0.8165721893310547,
              -0.5480896830558777,
              -0.29087701439857483,
              -0.7118488550186157,
              -0.639979362487793,
              -0.930817723274231,
              -1.7812104225158691,
              -1.2949234247207642,
              -0.3261786699295044,
              0.30965307354927063,
              0.45371800661087036,
              0.3394664227962494,
              0.5470556616783142,
              0.570789098739624,
              0.3021341562271118,
              1.0159986019134521,
              0.7383946180343628,
              1.2475934028625488
          ],
          "bias": -0.20825153589248657
      },
      {
          "id": "NEURON_64827",
          "weights": [
              -0.9427732229232788,
              -1.0361026525497437,
              0.195585697889328,
              -0.009749879129230976,
              0.11866996437311172,
              -0.13397039473056793,
              0.0853286162018776,
              -0.0895230770111084,
              0.40515366196632385,
              0.2098776251077652,
              -0.37163209915161133,
              -0.6845052242279053,
              -0.5561601519584656,
              0.6682682037353516,
              0.6376861333847046,
              0.3039708137512207,
              0.23799782991409302,
              -0.1124156191945076,
              -0.3478175103664398,
              -0.45759716629981995,
              0.13628679513931274,
              0.34017881751060486,
              -0.4601988196372986,
              0.034778811037540436,
              0.4319930672645569,
              0.29941868782043457,
              0.22553864121437073,
              0.26897016167640686,
              0.13526888191699982,
              -0.4539911150932312,
              -0.3966691493988037,
              -1.597437858581543,
              -0.8004182577133179,
              -1.1720728874206543,
              -0.46346041560173035,
              -0.17772072553634644,
              -0.03855979070067406,
              0.1754172444343567,
              0.08631175756454468,
              0.8087545037269592,
              0.3854486644268036,
              0.9879722595214844,
              -0.045521970838308334,
              0.4337204694747925,
              0.06846240162849426,
              -0.1308266669511795,
              0.07324297726154327,
              0.13081461191177368,
              -0.0737813413143158,
              0.2933557629585266,
              0.6882014274597168,
              0.5774381160736084,
              -0.18899691104888916,
              -0.11603546142578125,
              -0.38903021812438965,
              0.20383818447589874,
              -0.18077799677848816,
              -0.044373560696840286,
              -0.15360161662101746,
              -0.6871356964111328,
              1.2612589597702026,
              0.8749575018882751,
              -0.21967749297618866,
              -0.8392987251281738,
              -1.3569923639297485,
              -0.1219400092959404,
              -0.35708293318748474,
              -0.21834281086921692,
              -0.3609926998615265,
              -0.06858958303928375,
              -0.6206575632095337,
              -0.3822680115699768,
              -0.17418590188026428,
              -0.5954247713088989,
              -1.5532046556472778,
              -2.8796281814575195,
              -1.661768913269043,
              -0.59328293800354,
              0.25941699743270874,
              0.3513476252555847,
              -1.1972630023956299,
              -0.11720439046621323,
              0.4854486882686615,
              0.20636552572250366,
              0.32826220989227295,
              0.7050294876098633,
              0.8750127553939819,
              0.3711993098258972,
              0.020415306091308594,
              -0.012902558781206608,
              0.1714358776807785,
              0.2912329435348511,
              0.06070549041032791,
              -0.2112869769334793,
              -0.4248097836971283,
              0.39206066727638245,
              0.349133163690567,
              0.20939910411834717,
              0.07691843062639236,
              -0.5367940664291382
          ],
          "bias": -0.24254503846168518
      },
      {
          "id": "NEURON_64767",
          "weights": [
              0.08063400536775589,
              -0.2960590720176697,
              0.5705798268318176,
              -0.021213548257946968,
              -0.016823433339595795,
              0.3076431155204773,
              -0.6775563359260559,
              -0.09892071783542633,
              -0.2838357985019684,
              -0.07760650664567947,
              -0.24709810316562653,
              0.17827005684375763,
              -0.06632956117391586,
              -0.4550665020942688,
              0.3506799638271332,
              -0.6314186453819275,
              0.07188946008682251,
              0.04848023131489754,
              -0.8292834758758545,
              0.42780378460884094,
              -0.12568731606006622,
              0.006829584948718548,
              -0.25750455260276794,
              0.08466082066297531,
              0.13167519867420197,
              -0.5805069804191589,
              0.3319491147994995,
              -0.1194477528333664,
              -0.09135864675045013,
              0.46072351932525635,
              -0.03226605802774429,
              0.15163709223270416,
              -0.28736162185668945,
              0.23738597333431244,
              0.3459508419036865,
              -0.4308120608329773,
              0.38200539350509644,
              0.24079492688179016,
              0.2941097021102905,
              0.2486400157213211,
              0.1238953024148941,
              0.426935613155365,
              0.0562349371612072,
              0.2757387161254883,
              0.4239421784877777,
              0.07430628687143326,
              0.45595645904541016,
              0.17831876873970032,
              0.3010886013507843,
              0.4977825880050659,
              0.3614518642425537,
              0.3019491732120514,
              0.30422210693359375,
              0.3195180892944336,
              0.1876714825630188,
              0.31113243103027344,
              0.3221094310283661,
              0.5824036002159119,
              0.21639733016490936,
              0.3822314441204071,
              0.2884044051170349,
              0.27425888180732727,
              0.13785240054130554,
              0.4614678919315338,
              0.5373960733413696,
              -0.07374507933855057,
              0.2590155005455017,
              0.18258823454380035,
              0.037431199103593826,
              -0.11775778979063034,
              0.21864467859268188,
              0.1678476184606552,
              -0.07514233887195587,
              0.23333331942558289,
              0.10369930416345596,
              -0.17365911602973938,
              0.11166803538799286,
              -0.046056050807237625,
              0.3172265589237213,
              0.4649248421192169,
              0.3854171633720398,
              -0.0012341311667114496,
              -0.05098329111933708,
              0.08432862907648087,
              -0.18367867171764374,
              0.007744811475276947,
              0.34474027156829834,
              -0.1059136688709259,
              0.022494317963719368,
              0.0916348323225975,
              -0.11465143412351608,
              -0.09539742767810822,
              0.0466129407286644,
              0.021247703582048416,
              0.1854299008846283,
              -0.03185499832034111,
              -0.10579293221235275,
              0.15403199195861816,
              -0.1397962123155594,
              0.13028226792812347
          ],
          "bias": -2.2072224617004395
      },
      {
          "id": "NEURON_90986",
          "weights": [
              0.2778629958629608,
              0.03566891327500343,
              0.2234923541545868,
              0.013522000052034855,
              0.18641959130764008,
              0.4972698986530304,
              0.8410404324531555,
              -0.19081373512744904,
              -1.4992759227752686,
              -0.41646242141723633,
              -0.30375075340270996,
              -0.17266149818897247,
              -0.2325730174779892,
              -0.8814994692802429,
              -0.9008579850196838,
              -1.4146320819854736,
              -1.3200336694717407,
              -0.6847651600837708,
              0.42485669255256653,
              -0.5449908971786499,
              -0.7566196322441101,
              -0.5207676887512207,
              0.008798424154520035,
              0.37175917625427246,
              0.09214457869529724,
              0.12371309101581573,
              0.581061065196991,
              0.06597908586263657,
              0.19067391753196716,
              0.41745108366012573,
              -0.08856604993343353,
              -0.027812547981739044,
              -0.39403608441352844,
              0.0636979416012764,
              -0.06694182753562927,
              -0.46756869554519653,
              -0.9349377751350403,
              -0.6612468957901001,
              -2.112238645553589,
              -0.573667049407959,
              0.6181245446205139,
              0.10764352977275848,
              -0.1494758427143097,
              -0.3639861047267914,
              -0.11166276782751083,
              0.45191702246665955,
              0.4831434488296509,
              0.30859506130218506,
              -0.8654706478118896,
              -0.8902475833892822,
              -0.3284330666065216,
              -0.06758464872837067,
              0.12239529937505722,
              0.20657284557819366,
              -0.33246561884880066,
              -0.5656017065048218,
              -0.4291568696498871,
              0.10682506114244461,
              0.6483575105667114,
              -0.22418181598186493,
              -0.6465765237808228,
              0.027682702988386154,
              -0.06749404966831207,
              -0.10424736142158508,
              -0.060374125838279724,
              0.15609870851039886,
              -0.2941058874130249,
              -0.5239697694778442,
              -0.11215605586767197,
              0.12435033917427063,
              -2.0125207901000977,
              -2.1593003273010254,
              -1.7581976652145386,
              -1.0393356084823608,
              -0.5380995273590088,
              -0.2509133219718933,
              -0.1801770031452179,
              0.046473342925310135,
              0.2073286771774292,
              -0.881427526473999,
              0.9768215417861938,
              1.063090205192566,
              0.7010571360588074,
              0.416608989238739,
              0.08195199817419052,
              0.409892201423645,
              0.061898235231637955,
              -0.16536037623882294,
              -0.0034545562230050564,
              0.6698669195175171,
              -0.367940217256546,
              -0.1474476009607315,
              -0.006374296732246876,
              -0.12484116852283478,
              0.13168169558048248,
              -0.35717716813087463,
              0.17617550492286682,
              -0.1401817947626114,
              -0.019538789987564087,
              0.3014448583126068
          ],
          "bias": 0.44158822298049927
      },
      {
          "id": "NEURON_44105",
          "weights": [
              1.1161214113235474,
              0.5539409518241882,
              0.5396316647529602,
              0.4183809757232666,
              -0.009043077006936073,
              -0.5443648099899292,
              -0.7085906863212585,
              -1.6733009815216064,
              -0.8047469854354858,
              -0.37515556812286377,
              0.24057263135910034,
              0.25483080744743347,
              -0.02925129421055317,
              0.4975917637348175,
              0.22326740622520447,
              0.7738029956817627,
              0.14676710963249207,
              0.6062653660774231,
              0.2132849395275116,
              0.3463324308395386,
              0.5261328220367432,
              0.10897303372621536,
              0.28074148297309875,
              0.1604694426059723,
              0.4238053858280182,
              0.032563913613557816,
              -0.5521047711372375,
              0.2601347863674164,
              -0.6567386984825134,
              -0.2757231295108795,
              -1.0528827905654907,
              -0.612740159034729,
              -0.45227718353271484,
              -0.3910214602947235,
              -0.15768645703792572,
              -0.3290634751319885,
              0.5945322513580322,
              0.34462520480155945,
              -0.3696986138820648,
              -0.07002542912960052,
              -0.13623619079589844,
              -0.656046986579895,
              -0.2862510085105896,
              0.29600265622138977,
              0.5264422297477722,
              0.572352409362793,
              -0.16231843829154968,
              0.22526589035987854,
              -0.0990573838353157,
              -0.7289195656776428,
              -1.9599604606628418,
              -0.9742081165313721,
              -0.04449545964598656,
              0.3757396638393402,
              -0.019928403198719025,
              -0.38709956407546997,
              -0.42766621708869934,
              0.11896269023418427,
              0.12877044081687927,
              0.2387058585882187,
              -0.49740785360336304,
              -0.7275412678718567,
              -0.39381861686706543,
              -0.1069929227232933,
              0.12210587412118912,
              -0.07363434135913849,
              0.2203502506017685,
              -0.813974142074585,
              -0.7323261499404907,
              -0.6864266991615295,
              0.29463157057762146,
              0.5821584463119507,
              0.5736761093139648,
              0.3089774250984192,
              -0.18276098370552063,
              0.009877888485789299,
              -0.0770714282989502,
              -0.21214719116687775,
              0.7193319797515869,
              0.11849461495876312,
              0.8175221085548401,
              0.7248872518539429,
              0.44592660665512085,
              0.11124444007873535,
              0.2361573427915573,
              0.16736923158168793,
              -0.06692586839199066,
              -0.594336748123169,
              0.391254723072052,
              -0.9557139873504639,
              0.12266434729099274,
              0.06260427832603455,
              0.33885377645492554,
              -0.465052992105484,
              -0.49835437536239624,
              -0.4460340440273285,
              -1.09442937374115,
              -0.9337568879127502,
              -0.22735702991485596,
              -0.08409159630537033
          ],
          "bias": -0.621259868144989
      },
      {
          "id": "NEURON_99732",
          "weights": [
              -0.6128779053688049,
              -0.917923092842102,
              -1.0872955322265625,
              0.15030162036418915,
              0.20676648616790771,
              0.055911459028720856,
              -0.16225706040859222,
              -0.36576953530311584,
              -0.25685572624206543,
              0.06006668135523796,
              -0.4571745693683624,
              -0.44828882813453674,
              0.1276247650384903,
              0.25718504190444946,
              -0.0869196206331253,
              0.669610857963562,
              0.1802533119916916,
              -0.36442506313323975,
              -0.07773330062627792,
              -0.11743700504302979,
              -0.04723113402724266,
              -0.49025169014930725,
              -0.9451901912689209,
              0.05493295565247536,
              0.014963268302381039,
              -0.2776091694831848,
              -0.1915721744298935,
              -0.3103903830051422,
              0.022014763206243515,
              0.4022735059261322,
              -1.053687334060669,
              -1.7151987552642822,
              -0.3148985505104065,
              0.6737772822380066,
              0.4507595896720886,
              -0.007498639635741711,
              -0.23738840222358704,
              -0.7179616093635559,
              0.33087587356567383,
              0.009770133532583714,
              -1.1577680110931396,
              -1.2084685564041138,
              -0.0033683583606034517,
              -0.233015775680542,
              -0.061485812067985535,
              -0.7270218133926392,
              -0.7933609485626221,
              -0.5449576377868652,
              -0.8619697690010071,
              -0.43560919165611267,
              -1.563844084739685,
              -0.7922024130821228,
              -0.1936749815940857,
              0.19501687586307526,
              0.39602130651474,
              -0.6293600797653198,
              -0.32089763879776,
              -0.34645912051200867,
              -0.20927129685878754,
              -0.8081055283546448,
              -0.1178995817899704,
              -0.027592672035098076,
              0.7236825227737427,
              0.19154655933380127,
              -0.5261648297309875,
              -0.2670033574104309,
              -0.29578372836112976,
              0.08441285043954849,
              0.0880657434463501,
              0.46480971574783325,
              -0.03891325369477272,
              -0.281095415353775,
              0.22741468250751495,
              0.1830943077802658,
              0.1881837397813797,
              0.45629802346229553,
              0.5439774394035339,
              0.4612996280193329,
              0.49935996532440186,
              1.0050331354141235,
              0.5740073323249817,
              0.212640643119812,
              0.9565187692642212,
              0.38462138175964355,
              0.38666239380836487,
              0.10765509307384491,
              0.6561543345451355,
              0.5566723942756653,
              0.6806924343109131,
              0.5773692727088928,
              0.47546693682670593,
              0.02163243107497692,
              -0.06762567907571793,
              -0.1873406171798706,
              -0.20261068642139435,
              -0.06189652532339096,
              0.26481541991233826,
              -0.0671871155500412,
              -0.08056382834911346,
              0.43058615922927856
          ],
          "bias": -0.1684786081314087
      },
      {
          "id": "NEURON_84421",
          "weights": [
              0.015344854444265366,
              0.4947715699672699,
              -0.716766893863678,
              -1.9586100578308105,
              -1.70026695728302,
              -0.09172004461288452,
              0.14323514699935913,
              0.34097620844841003,
              0.4335242509841919,
              -0.4015982747077942,
              0.5515139102935791,
              0.6907335519790649,
              -0.6777269840240479,
              -2.42809796333313,
              -0.32415440678596497,
              0.5360531806945801,
              0.392280250787735,
              0.181212916970253,
              0.07960865646600723,
              -0.004427693318575621,
              0.6045619249343872,
              -0.0500650480389595,
              -0.9652554392814636,
              -2.0142252445220947,
              -0.2243870496749878,
              0.2730953097343445,
              0.5775230526924133,
              -0.04561891406774521,
              -0.055423442274332047,
              -0.14992299675941467,
              0.5002303123474121,
              -0.7564117908477783,
              -1.3767352104187012,
              -0.591921865940094,
              0.037326179444789886,
              0.4786728024482727,
              0.5209972262382507,
              -0.37839630246162415,
              -0.4227515757083893,
              -0.16769856214523315,
              0.19137509167194366,
              -0.42116889357566833,
              -1.090733289718628,
              0.27833354473114014,
              0.030486831441521645,
              0.47050005197525024,
              0.12614257633686066,
              -0.2997860312461853,
              -0.03622325137257576,
              -0.41510432958602905,
              0.31262093782424927,
              0.4262129068374634,
              -0.3844769597053528,
              0.3299140930175781,
              0.0962316021323204,
              0.6107784509658813,
              -0.09141746163368225,
              0.008437996730208397,
              -0.09258028119802475,
              0.12615086138248444,
              1.2317560911178589,
              0.5782158374786377,
              0.36161747574806213,
              0.5496001839637756,
              0.18515197932720184,
              0.08963656425476074,
              -0.05133301392197609,
              0.19484299421310425,
              0.1451629400253296,
              0.13413479924201965,
              0.94621741771698,
              0.5081213712692261,
              0.265386164188385,
              -0.04865601286292076,
              0.18444733321666718,
              0.10148260742425919,
              -0.21338504552841187,
              -0.07127417623996735,
              0.38781338930130005,
              0.029867179691791534,
              0.24014340341091156,
              -0.17521853744983673,
              0.12962473928928375,
              0.09761497378349304,
              0.24014431238174438,
              -0.058893196284770966,
              -0.0810561552643776,
              -0.5403457283973694,
              0.48630955815315247,
              -0.110472172498703,
              -0.4604613482952118,
              -0.9056491255760193,
              -0.1231774240732193,
              -0.1377277821302414,
              0.4653964042663574,
              0.12438058853149414,
              -0.45932433009147644,
              -0.3456258773803711,
              0.5475388169288635,
              0.21397876739501953
          ],
          "bias": -1.1990630626678467
      },
      {
          "id": "NEURON_80420",
          "weights": [
              0.194285050034523,
              0.5919313430786133,
              -0.7599315643310547,
              -0.5147391557693481,
              0.08053319156169891,
              -0.38036155700683594,
              0.24302572011947632,
              0.10409194976091385,
              -0.031041260808706284,
              0.35308775305747986,
              0.27677983045578003,
              -0.47560030221939087,
              -0.8381704092025757,
              0.5110335350036621,
              0.3648715019226074,
              -0.07234236598014832,
              0.5832468867301941,
              0.04454326257109642,
              0.4181497097015381,
              0.20485085248947144,
              0.6276161670684814,
              -0.07262615114450455,
              -0.742723286151886,
              0.7880438566207886,
              0.46732205152511597,
              -0.02938552014529705,
              0.6250104904174805,
              -0.23420237004756927,
              1.0589582920074463,
              0.20599216222763062,
              1.0848188400268555,
              -0.49259522557258606,
              0.005383641924709082,
              0.670006275177002,
              0.17379511892795563,
              0.6881750226020813,
              0.28061339259147644,
              -0.6546504497528076,
              0.05572302266955376,
              0.13425973057746887,
              1.2384718656539917,
              -0.3516068458557129,
              0.5903999209403992,
              0.19880987703800201,
              -0.7215149402618408,
              0.606459379196167,
              -0.22842583060264587,
              -0.277032732963562,
              -0.3718635141849518,
              -0.03803045675158501,
              0.6443870067596436,
              -0.08642736822366714,
              -0.19326238334178925,
              -0.4719395339488983,
              -0.23371656239032745,
              -0.7830922603607178,
              -0.05831652879714966,
              -0.5576062798500061,
              0.33399564027786255,
              -0.059324298053979874,
              0.010046872310340405,
              -0.5914463996887207,
              0.026985660195350647,
              -0.22057713568210602,
              -0.4600367248058319,
              0.35847723484039307,
              -0.49806034564971924,
              -0.36749476194381714,
              0.45775124430656433,
              -0.3318912386894226,
              -0.18704573810100555,
              -0.19993379712104797,
              -0.016698496416211128,
              -0.3217222988605499,
              -0.5003617405891418,
              0.1987093687057495,
              -0.12474285066127777,
              0.14047332108020782,
              0.15955400466918945,
              -0.717398464679718,
              -0.130375936627388,
              0.08644144982099533,
              0.37321600317955017,
              -0.13403363525867462,
              0.1305251568555832,
              0.1627415418624878,
              -0.09501729905605316,
              0.1951298862695694,
              -0.3531690835952759,
              -1.3241010904312134,
              0.08442112058401108,
              0.2818683087825775,
              -0.0644088163971901,
              -0.4819619953632355,
              0.4100850224494934,
              -0.12856443226337433,
              -1.0125962495803833,
              -0.03893754258751869,
              -0.7386736273765564,
              -0.46282902359962463
          ],
          "bias": -1.019013524055481
      },
      {
          "id": "NEURON_06465",
          "weights": [
              -0.4407593905925751,
              -0.017075229436159134,
              -0.22954832017421722,
              -0.3362008035182953,
              -0.10717079788446426,
              0.04928749054670334,
              -0.3509262204170227,
              0.11969618499279022,
              -0.23327381908893585,
              -0.2259930968284607,
              0.22191466391086578,
              -0.17704978585243225,
              0.06621351838111877,
              0.14325080811977386,
              0.14886455237865448,
              0.2635996341705322,
              0.18566486239433289,
              0.22868990898132324,
              -0.09997646510601044,
              0.4204510748386383,
              -0.8649079203605652,
              -0.6645728945732117,
              -0.7877417206764221,
              -0.26219642162323,
              -0.2930702865123749,
              -0.29617705941200256,
              -0.23230242729187012,
              -0.44996166229248047,
              0.11135786771774292,
              0.4935801327228546,
              -0.20737190544605255,
              0.14013946056365967,
              -0.007528156042098999,
              -0.6229342222213745,
              -0.9450995922088623,
              -0.5221604108810425,
              -0.8682578206062317,
              -0.832804799079895,
              -1.0444749593734741,
              -1.6895966529846191,
              1.102641224861145,
              0.9927225708961487,
              0.5535202026367188,
              0.6206185817718506,
              0.8736248016357422,
              0.3979206085205078,
              0.8766940832138062,
              0.5490131378173828,
              0.17241404950618744,
              0.46991801261901855,
              -0.39236941933631897,
              0.19461879134178162,
              0.263546347618103,
              0.4605826735496521,
              0.34849125146865845,
              0.33617332577705383,
              0.4093259572982788,
              0.2546355426311493,
              0.6991504430770874,
              0.6333901882171631,
              -0.22765466570854187,
              -0.9968847036361694,
              -0.7943137884140015,
              -1.1042736768722534,
              -0.7154170870780945,
              -0.4367203712463379,
              -0.7317390441894531,
              -0.8680456280708313,
              -0.23404017090797424,
              -0.4854196608066559,
              -0.20223531126976013,
              0.45148658752441406,
              0.08149567991495132,
              0.022275526076555252,
              -0.14511707425117493,
              -0.3247767686843872,
              -0.0413820743560791,
              -0.15910951793193817,
              -0.27592626214027405,
              0.2594313323497772,
              -0.8544929027557373,
              -1.0012478828430176,
              -0.22174309194087982,
              0.3560275733470917,
              0.17591983079910278,
              0.3211907148361206,
              0.11742430925369263,
              -0.3664821684360504,
              0.3997079133987427,
              -0.6979846954345703,
              0.6035253405570984,
              -0.37171730399131775,
              -0.18920962512493134,
              -0.4701347351074219,
              -0.1756451576948166,
              -0.5944570899009705,
              0.18007206916809082,
              -0.5917556285858154,
              0.27288398146629333,
              0.3610444962978363
          ],
          "bias": -0.14922307431697845
      },
      {
          "id": "NEURON_31127",
          "weights": [
              0.6827049255371094,
              0.7780162692070007,
              0.15605683624744415,
              -0.10153818130493164,
              -0.6785586476325989,
              -0.9542808532714844,
              0.060213420540094376,
              -0.22627294063568115,
              -0.063188835978508,
              -0.8250413537025452,
              -2.1118156909942627,
              -2.205714225769043,
              -1.2993736267089844,
              -0.6197664141654968,
              -0.28066176176071167,
              -0.2794049084186554,
              -0.2742578983306885,
              -0.208289235830307,
              0.4069911241531372,
              -0.16339121758937836,
              0.16735638678073883,
              0.5455792546272278,
              -0.10381171107292175,
              -0.07110339403152466,
              0.0443911999464035,
              -0.1454559713602066,
              0.07507795840501785,
              0.025003882125020027,
              -0.07366729527711868,
              -0.03925162926316261,
              -0.4522736370563507,
              0.027288546785712242,
              0.5705094933509827,
              0.29945647716522217,
              0.5052921772003174,
              0.48332059383392334,
              0.11855898052453995,
              -0.21269750595092773,
              -0.3056129813194275,
              -0.013013537973165512,
              0.49870380759239197,
              0.10939562320709229,
              0.28683531284332275,
              0.48509591817855835,
              0.19577856361865997,
              0.3924436569213867,
              -0.2674931585788727,
              -0.6640883684158325,
              -0.36770185828208923,
              0.06433647125959396,
              0.7011496424674988,
              0.1498931348323822,
              -0.5461106300354004,
              -0.281486839056015,
              -0.29537302255630493,
              -0.24662087857723236,
              -0.5525129437446594,
              -0.383041113615036,
              -0.3158094882965088,
              0.3689464330673218,
              -0.07013441622257233,
              -0.05641400068998337,
              -0.8813329935073853,
              -0.8304372429847717,
              -0.6760563254356384,
              -0.8736685514450073,
              -0.4560964107513428,
              -0.07931052893400192,
              0.344359427690506,
              0.16359642148017883,
              -1.4033689498901367,
              -1.348389983177185,
              -0.7311010956764221,
              -0.5540657639503479,
              -0.0933515727519989,
              -0.27232950925827026,
              0.3033352494239807,
              0.8071502447128296,
              0.4367172122001648,
              0.03611314669251442,
              0.30463141202926636,
              0.4802235960960388,
              0.29231342673301697,
              0.561028242111206,
              0.4058222472667694,
              0.5478123426437378,
              0.5089064836502075,
              0.28940480947494507,
              -0.008108808659017086,
              -0.8135328888893127,
              0.1906733512878418,
              0.2896440029144287,
              0.2839246392250061,
              0.3259221315383911,
              -0.28198277950286865,
              0.5715728402137756,
              0.28727060556411743,
              -0.1450207680463791,
              0.16028441488742828,
              -1.2574477195739746
          ],
          "bias": 0.1520691066980362
      },
      {
          "id": "NEURON_53089",
          "weights": [
              1.0107536315917969,
              0.7309387922286987,
              0.897125780582428,
              0.5163922905921936,
              0.6037578582763672,
              0.4716445803642273,
              0.5487198829650879,
              0.6001586318016052,
              0.6239863038063049,
              0.7506166100502014,
              -0.5627524852752686,
              -0.5284982919692993,
              -0.7777948975563049,
              -0.7106433510780334,
              -0.8892071843147278,
              -1.345646619796753,
              -1.62196946144104,
              -1.893533706665039,
              -1.7102015018463135,
              -1.9477635622024536,
              -0.27028411626815796,
              -0.21351467072963715,
              -0.16490410268306732,
              -0.07543864101171494,
              0.15249016880989075,
              0.10142741352319717,
              0.17862068116664886,
              0.5188140273094177,
              0.3700300455093384,
              0.6091610789299011,
              -0.6272401213645935,
              -0.24916251003742218,
              -0.1114175021648407,
              0.024727849289774895,
              0.11003667861223221,
              0.31406310200691223,
              -0.027932824566960335,
              -0.05272924154996872,
              -0.4195772409439087,
              -0.8264026641845703,
              -0.45250964164733887,
              -0.40547773241996765,
              -0.45570752024650574,
              -0.2603839635848999,
              -0.4589904546737671,
              -0.24257676303386688,
              -0.15114347636699677,
              -0.10192310065031052,
              0.0076508717611432076,
              -0.27531522512435913,
              -0.3994714915752411,
              -0.43167468905448914,
              -0.26069018244743347,
              -0.017933538183569908,
              -0.003817957825958729,
              -0.15179580450057983,
              0.11162647604942322,
              -0.2299107313156128,
              -0.018917404115200043,
              -0.07977533340454102,
              -0.6798971891403198,
              -0.8531534075737,
              -0.18805505335330963,
              -0.6793662905693054,
              -0.3242836594581604,
              -0.533532440662384,
              -0.39211782813072205,
              -0.14047524333000183,
              -0.11025361716747284,
              -0.19584624469280243,
              0.4320288300514221,
              -0.247746542096138,
              0.22355185449123383,
              0.1565335988998413,
              0.1428706794977188,
              0.344702810049057,
              0.011228972114622593,
              -0.12444038689136505,
              -0.28699633479118347,
              -0.11288443207740784,
              -0.4917331635951996,
              -0.074859119951725,
              -0.40231797099113464,
              -0.06699991226196289,
              -0.04381903260946274,
              -0.21764899790287018,
              -0.2118297666311264,
              -0.518683135509491,
              -0.1374529004096985,
              -0.1758713573217392,
              -0.3779367506504059,
              -0.0769699215888977,
              0.5229876637458801,
              0.011595354415476322,
              -0.12658028304576874,
              0.10377700626850128,
              -0.7940840721130371,
              -0.12119535356760025,
              -0.41683176159858704,
              -0.0029538883827626705
          ],
          "bias": 0.6647856831550598
      },
      {
          "id": "NEURON_14936",
          "weights": [
              -0.06715047359466553,
              0.34534281492233276,
              0.6022759079933167,
              0.47343289852142334,
              0.4565274119377136,
              0.04919392988085747,
              -0.04203418269753456,
              0.27961376309394836,
              0.23697799444198608,
              0.021390147507190704,
              0.7222970724105835,
              0.3842581808567047,
              0.2138795256614685,
              0.23270289599895477,
              0.31671008467674255,
              0.04216960817575455,
              0.23627261817455292,
              0.0968782976269722,
              0.49805882573127747,
              0.24112482368946075,
              0.08274254947900772,
              -0.14288894832134247,
              -0.06000872328877449,
              0.13879486918449402,
              0.0661226287484169,
              0.3866178095340729,
              0.5083808898925781,
              0.17612652480602264,
              0.24626684188842773,
              0.3735550045967102,
              0.029663724824786186,
              -0.03855479136109352,
              0.2478451430797577,
              0.054261285811662674,
              -0.03983267396688461,
              0.13406924903392792,
              -0.0716508999466896,
              0.32159218192100525,
              0.03848360851407051,
              0.031183140352368355,
              -0.08058342337608337,
              -0.19426554441452026,
              -0.2608095407485962,
              -0.07810847461223602,
              0.008101553656160831,
              -0.04397067055106163,
              0.2719046175479889,
              -0.2934758961200714,
              0.15700632333755493,
              0.37388259172439575,
              -0.10371945798397064,
              0.20746953785419464,
              0.4948738217353821,
              0.4041201174259186,
              -0.022517764940857887,
              0.015250837430357933,
              -0.0023638515267521143,
              0.14032092690467834,
              -0.27908602356910706,
              -0.04420439898967743,
              -0.014151820912957191,
              0.14172114431858063,
              0.24368593096733093,
              0.06362798064947128,
              0.1688859760761261,
              0.2859823703765869,
              0.32807987928390503,
              0.5529912114143372,
              0.4475514590740204,
              0.35454848408699036,
              0.6081440448760986,
              0.6456340551376343,
              0.564022958278656,
              0.3535824418067932,
              0.2019559144973755,
              0.227229043841362,
              0.5170202255249023,
              0.5935991406440735,
              0.10119801759719849,
              0.3398023545742035,
              0.28569144010543823,
              0.7333161234855652,
              0.4288645386695862,
              0.05130787193775177,
              0.273929238319397,
              0.45128852128982544,
              0.561879575252533,
              0.49597224593162537,
              0.4371746778488159,
              0.5288873314857483,
              -0.018231738358736038,
              -0.08972084522247314,
              -0.25364914536476135,
              0.31356143951416016,
              -0.21903102099895477,
              -0.4036533534526825,
              0.24537372589111328,
              -0.23219698667526245,
              -0.2568855285644531,
              0.220489963889122
          ],
          "bias": -1.9727709293365479
      },
      {
          "id": "NEURON_04163",
          "weights": [
              0.2734943628311157,
              0.4249311685562134,
              0.2453235238790512,
              0.2779156565666199,
              0.1944499909877777,
              0.24146568775177002,
              0.10392432659864426,
              0.35912564396858215,
              0.3236393630504608,
              0.5379670262336731,
              0.35575318336486816,
              0.5803106427192688,
              0.1519579142332077,
              0.33985504508018494,
              0.25079143047332764,
              0.4807374179363251,
              0.2535744905471802,
              0.13473662734031677,
              0.18096600472927094,
              0.19353993237018585,
              1.3001130819320679,
              0.4282780587673187,
              0.03475853428244591,
              0.011665341444313526,
              -0.030830705538392067,
              -0.13252156972885132,
              0.107853963971138,
              0.23312988877296448,
              0.0133212273940444,
              0.22368136048316956,
              0.6267803311347961,
              0.42948511242866516,
              0.7934311628341675,
              0.45442450046539307,
              -0.01190957985818386,
              0.10012310743331909,
              -0.02084716409444809,
              -0.03234182298183441,
              0.16183270514011383,
              0.13804689049720764,
              -2.371351718902588,
              -1.4313163757324219,
              -0.9751034379005432,
              -0.3251155614852905,
              -0.0127149298787117,
              -0.19693362712860107,
              -0.23986327648162842,
              -0.15236487984657288,
              -0.26827770471572876,
              -0.4570789635181427,
              -0.8557209372520447,
              -1.2078089714050293,
              -0.4983149468898773,
              -0.8027395009994507,
              -0.5554273128509521,
              -0.038013529032468796,
              -0.11788231134414673,
              -0.3353138566017151,
              -0.4923911690711975,
              -0.5513767004013062,
              0.0848313570022583,
              -0.054940104484558105,
              0.012271829880774021,
              0.012627070769667625,
              -0.1165442243218422,
              -0.24008320271968842,
              -0.02090252749621868,
              -0.09203525632619858,
              0.08966390043497086,
              -0.7269898056983948,
              -0.6041205525398254,
              -0.8740267753601074,
              -1.253995418548584,
              0.2507624924182892,
              0.2690320909023285,
              0.17123396694660187,
              0.2230284959077835,
              0.3708883225917816,
              -0.2525516152381897,
              -1.4179298877716064,
              -0.5895354151725769,
              -1.4466201066970825,
              -0.98081374168396,
              -2.2352652549743652,
              -0.6625532507896423,
              0.14739196002483368,
              0.05587988719344139,
              -0.02145388163626194,
              -0.2624499499797821,
              -1.1345438957214355,
              -0.9978740215301514,
              -0.4653875231742859,
              0.32921671867370605,
              1.3307892084121704,
              1.0903668403625488,
              0.16085045039653778,
              -0.19035403430461884,
              -0.14806360006332397,
              0.5477097034454346,
              -0.41456446051597595
          ],
          "bias": -0.3143274784088135
      },
      {
          "id": "NEURON_02054",
          "weights": [
              -0.06972837448120117,
              -0.1636982411146164,
              -0.16589996218681335,
              0.2822987139225006,
              0.2110099494457245,
              -0.34762245416641235,
              0.09273961931467056,
              -0.10524869710206985,
              0.25940659642219543,
              -0.3446045219898224,
              0.5790240168571472,
              -0.2156103104352951,
              -0.182026669383049,
              0.09903289377689362,
              0.48289772868156433,
              0.13036096096038818,
              0.18663471937179565,
              0.055416129529476166,
              -0.028967754915356636,
              0.3040853440761566,
              0.27057158946990967,
              0.7120561599731445,
              0.1796850860118866,
              -0.07585152983665466,
              -0.19466423988342285,
              0.38777539134025574,
              0.24782264232635498,
              0.3948647677898407,
              0.3202672600746155,
              0.23274165391921997,
              0.6034337282180786,
              0.34831714630126953,
              0.10921667516231537,
              0.0845450758934021,
              0.7201494574546814,
              0.6509097218513489,
              0.02090260572731495,
              0.43267378211021423,
              0.2780425548553467,
              0.30927616357803345,
              0.2585386335849762,
              0.5216487646102905,
              0.5762346982955933,
              0.2917863726615906,
              -0.3829686641693115,
              0.00008882455585990101,
              0.40184304118156433,
              0.2839850187301636,
              0.35168805718421936,
              0.1705230176448822,
              -0.5587852001190186,
              0.20065808296203613,
              0.32505691051483154,
              -0.2147350013256073,
              -0.6167758703231812,
              -1.5770561695098877,
              -1.4469512701034546,
              -0.816802978515625,
              -0.0986623540520668,
              0.10036535561084747,
              -1.9043173789978027,
              -3.1279563903808594,
              -1.5811643600463867,
              -0.7710903286933899,
              -0.30530187487602234,
              0.19229435920715332,
              -0.01182672381401062,
              -0.20205429196357727,
              -0.3005561828613281,
              -0.01320599764585495,
              0.35376399755477905,
              0.28997570276260376,
              0.37143635749816895,
              0.24743928015232086,
              0.18447375297546387,
              0.06694700568914413,
              -0.1720575988292694,
              -0.07611051946878433,
              -0.31908607482910156,
              -0.4225384294986725,
              0.40176263451576233,
              -0.014509167522192001,
              0.6621664762496948,
              0.16910016536712646,
              -0.05874931067228317,
              -0.4348624050617218,
              -0.08414382487535477,
              -0.13268348574638367,
              -0.36327603459358215,
              -0.8325571417808533,
              -0.318187952041626,
              0.17041128873825073,
              -0.4442080855369568,
              -0.8823176622390747,
              -0.2270272672176361,
              -0.3796461224555969,
              -0.7247346043586731,
              0.06907937675714493,
              -0.12184170633554459,
              0.0977272167801857
          ],
          "bias": -0.6333549618721008
      },
      {
          "id": "NEURON_49999",
          "weights": [
              -1.0464441776275635,
              -0.7147090435028076,
              -0.31586357951164246,
              -0.20970851182937622,
              0.5613250732421875,
              1.0025660991668701,
              0.7631787657737732,
              0.11310043931007385,
              -0.1564912497997284,
              -0.42775842547416687,
              -1.9541699886322021,
              -0.14875470101833344,
              0.6462085843086243,
              0.220017209649086,
              0.25834786891937256,
              -0.38984110951423645,
              -1.5951741933822632,
              -1.5456198453903198,
              -1.774432897567749,
              -0.6941986680030823,
              -1.360763669013977,
              -0.20612916350364685,
              0.5523743629455566,
              0.1638864278793335,
              0.2150903195142746,
              0.14028257131576538,
              0.38444969058036804,
              0.07944218069314957,
              -1.3463462591171265,
              -0.3688491880893707,
              -0.7794233560562134,
              -0.31111466884613037,
              0.3981932997703552,
              0.6249817609786987,
              0.2195523977279663,
              -0.5574601888656616,
              -0.27656832337379456,
              -0.6857834458351135,
              -0.5032898783683777,
              -0.42476126551628113,
              -0.6131359934806824,
              -0.3090232014656067,
              0.1853431761264801,
              0.06516741216182709,
              -0.412865549325943,
              -0.01280989870429039,
              0.11133690923452377,
              0.07405969500541687,
              -0.343435674905777,
              -0.690722644329071,
              -0.7011017799377441,
              -0.5802134871482849,
              -0.16086813807487488,
              0.33201247453689575,
              0.012501583434641361,
              -0.28811943531036377,
              -0.11879346519708633,
              0.20502933859825134,
              -0.11112916469573975,
              -0.15752559900283813,
              -1.0767710208892822,
              -0.2882336676120758,
              -0.09635812044143677,
              0.29323211312294006,
              -0.42566871643066406,
              -0.07386311888694763,
              -0.11512403935194016,
              0.15038573741912842,
              -0.17746612429618835,
              0.27805960178375244,
              -0.4464717507362366,
              0.04717038944363594,
              -0.0680956020951271,
              0.48728570342063904,
              -0.27595019340515137,
              -0.07199148088693619,
              -0.1665407419204712,
              -0.007937556132674217,
              -0.1126360073685646,
              -0.4529653787612915,
              -1.2607319355010986,
              0.7090075612068176,
              0.639699399471283,
              0.2120594084262848,
              -0.0668679028749466,
              -0.3472346365451813,
              0.05575559288263321,
              -0.4856964647769928,
              0.45437511801719666,
              0.5959674715995789,
              -0.004504574462771416,
              0.2049974948167801,
              0.2566165328025818,
              -0.048098720610141754,
              0.6723799705505371,
              0.434208482503891,
              0.3079426884651184,
              -0.5706578493118286,
              -0.7026152610778809,
              -0.44812309741973877
          ],
          "bias": -0.746292769908905
      },
      {
          "id": "NEURON_61187",
          "weights": [
              0.14190439879894257,
              0.5268340110778809,
              0.08922284096479416,
              -0.15288293361663818,
              -0.0034821280278265476,
              -0.4259161353111267,
              0.2813401222229004,
              -0.16004034876823425,
              -0.08711474388837814,
              0.30303025245666504,
              -0.7068712115287781,
              -0.007543782703578472,
              0.2562086582183838,
              0.06590035557746887,
              -0.15412291884422302,
              0.3965698182582855,
              -0.18596956133842468,
              0.03226596117019653,
              0.29339614510536194,
              -0.05457570031285286,
              -0.3052779734134674,
              -0.5139403343200684,
              0.1450118124485016,
              0.3151382505893707,
              -0.22429154813289642,
              0.24243903160095215,
              -0.2202589213848114,
              0.4622372090816498,
              0.15174977481365204,
              -0.7580323815345764,
              -0.22732074558734894,
              -0.30925482511520386,
              0.2883490324020386,
              0.2695847153663635,
              -0.3404255211353302,
              0.07692057639360428,
              0.15194013714790344,
              0.07199502736330032,
              0.5281462669372559,
              -0.47453296184539795,
              0.2395428568124771,
              0.22332404553890228,
              0.2613694369792938,
              0.2892819046974182,
              0.18558713793754578,
              0.040737077593803406,
              -0.08478239923715591,
              0.29846054315567017,
              0.4776749312877655,
              -0.4191698431968689,
              0.3701421022415161,
              0.5658859014511108,
              0.6535437703132629,
              0.614034116268158,
              0.5193067789077759,
              -0.08614775538444519,
              0.05875134840607643,
              0.7906891107559204,
              0.6540325284004211,
              -1.2220944166183472,
              0.7083285450935364,
              -0.3005260229110718,
              0.4114324450492859,
              0.4504247307777405,
              0.44038939476013184,
              0.3964742422103882,
              -0.008357688784599304,
              -0.10430455207824707,
              0.3571813106536865,
              -0.9645421504974365,
              0.39423954486846924,
              -0.36150607466697693,
              0.015071181580424309,
              0.058380089700222015,
              0.08127782493829727,
              0.3177148997783661,
              0.06633315980434418,
              0.024437928572297096,
              0.21130140125751495,
              -0.6908510327339172,
              0.3439628779888153,
              -0.9675616025924683,
              -0.05799855291843414,
              0.02018483728170395,
              -0.258405476808548,
              0.24818749725818634,
              0.10594609379768372,
              0.06377826631069183,
              0.2899552881717682,
              -1.6393183469772339,
              -0.1974000185728073,
              0.2163020670413971,
              -0.21413321793079376,
              -0.12582732737064362,
              -0.12475351244211197,
              0.2333870530128479,
              0.40228691697120667,
              -0.06194046512246132,
              -0.941628098487854,
              -1.0415115356445312
          ],
          "bias": -2.0629758834838867
      },
      {
          "id": "NEURON_59665",
          "weights": [
              0.16867659986019135,
              -0.2335016429424286,
              -0.9627826809883118,
              -0.8452819585800171,
              -2.4256043434143066,
              -0.6875410079956055,
              -0.057737577706575394,
              -0.23525457084178925,
              0.18772698938846588,
              -0.20324794948101044,
              0.08016101270914078,
              -0.49324658513069153,
              0.6594353318214417,
              0.19843797385692596,
              -0.03730228543281555,
              0.06993638724088669,
              -0.15844115614891052,
              -0.18145139515399933,
              -0.08563881367444992,
              0.32820600271224976,
              -0.002248830860480666,
              -0.047266826033592224,
              0.4738538861274719,
              0.07628652453422546,
              -0.5252400636672974,
              0.130979984998703,
              0.003734344383701682,
              -0.29641273617744446,
              -0.112862728536129,
              0.22832730412483215,
              0.08133858442306519,
              -0.6534542441368103,
              0.23900698125362396,
              0.1736292988061905,
              -0.6170960664749146,
              -0.3754752576351166,
              -0.6138432025909424,
              -0.7972888946533203,
              0.3090333938598633,
              0.49948203563690186,
              0.07631377130746841,
              0.14041584730148315,
              0.5724621415138245,
              0.17069537937641144,
              0.24444431066513062,
              0.19498305022716522,
              0.31974369287490845,
              -0.15268760919570923,
              0.7078813910484314,
              0.320346862077713,
              -0.43948447704315186,
              0.15814261138439178,
              0.7036582231521606,
              0.721204936504364,
              0.45268383622169495,
              0.07500377297401428,
              -0.24515435099601746,
              -0.26229819655418396,
              0.8212571740150452,
              0.2483057975769043,
              -0.07792720943689346,
              -0.28157663345336914,
              -0.3705817759037018,
              0.23216967284679413,
              0.18388588726520538,
              -0.20578281581401825,
              -0.36555206775665283,
              -0.7878205180168152,
              0.315280944108963,
              -0.14995041489601135,
              0.08157779276371002,
              -0.43444788455963135,
              -0.19057708978652954,
              -0.2141631841659546,
              -0.20386597514152527,
              -0.541293740272522,
              -0.3056999146938324,
              -0.3289426267147064,
              0.17481446266174316,
              -0.2791129946708679,
              -2.462778329849243,
              -1.5467618703842163,
              -0.3610108494758606,
              0.257630318403244,
              0.04009050875902176,
              -0.131533682346344,
              -0.45040589570999146,
              -0.596531331539154,
              0.6200590133666992,
              0.3652903139591217,
              0.11601432412862778,
              0.849993109703064,
              0.3525247573852539,
              0.04158197343349457,
              0.004729469306766987,
              -0.302534818649292,
              -0.2180737853050232,
              -0.08306142687797546,
              0.016503149643540382,
              0.4847462773323059
          ],
          "bias": -0.1065293624997139
      },
      {
          "id": "NEURON_99096",
          "weights": [
              -0.2197362184524536,
              -0.2636474072933197,
              -0.10523905605077744,
              0.052295319736003876,
              -0.0061801583506166935,
              0.07004962116479874,
              0.2674597203731537,
              0.14968238770961761,
              0.32814496755599976,
              -0.2035953402519226,
              -0.201261967420578,
              -0.19339169561862946,
              0.07389932125806808,
              0.2792707681655884,
              0.2381749451160431,
              0.5853869318962097,
              0.24013692140579224,
              0.46231624484062195,
              0.5395578742027283,
              -0.2222083956003189,
              0.14763498306274414,
              -0.18144336342811584,
              0.3713425397872925,
              0.1767205446958542,
              0.6327105164527893,
              0.6343616247177124,
              0.19106335937976837,
              0.4157636761665344,
              0.383341908454895,
              -0.8520524501800537,
              0.6931555271148682,
              0.007856708019971848,
              0.811870276927948,
              0.08996608853340149,
              0.33593136072158813,
              0.2464722841978073,
              0.18114645779132843,
              0.5045714974403381,
              0.06428278237581253,
              -0.7984955906867981,
              0.5072776079177856,
              0.2792985737323761,
              0.6420488953590393,
              -0.13485072553157806,
              0.2806699872016907,
              0.04645968973636627,
              -0.2418496459722519,
              -0.04142295941710472,
              -0.25415709614753723,
              -0.37822484970092773,
              0.20592723786830902,
              -0.21275869011878967,
              0.2963346838951111,
              0.08204342424869537,
              -0.047154929488897324,
              -0.2257673740386963,
              0.08399869501590729,
              -0.37622442841529846,
              0.026665154844522476,
              -0.8340536952018738,
              -0.2560233771800995,
              -0.014845018275082111,
              -0.13553807139396667,
              -0.2032439112663269,
              0.0069574397057294846,
              -0.24190515279769897,
              0.015836339443922043,
              0.11566139757633209,
              -0.6231375932693481,
              -0.912384033203125,
              -0.4597937762737274,
              0.19540104269981384,
              0.19837291538715363,
              -0.2710026204586029,
              -0.11150727421045303,
              -0.11775467544794083,
              0.2512984573841095,
              -0.05515880882740021,
              -0.6661195755004883,
              -1.1650265455245972,
              -0.21317565441131592,
              0.03978314623236656,
              0.017967581748962402,
              -0.34485942125320435,
              0.33863765001296997,
              -0.050332728773355484,
              -0.3843819200992584,
              -0.4006347954273224,
              -0.2960902154445648,
              -0.9933496117591858,
              -0.08107846230268478,
              -0.6875513792037964,
              -0.12987445294857025,
              0.39620381593704224,
              -0.2717698812484741,
              -0.5910601615905762,
              0.36309146881103516,
              0.0668242946267128,
              -1.4932217597961426,
              -0.5929266214370728
          ],
          "bias": -1.977846384048462
      },
      {
          "id": "NEURON_92162",
          "weights": [
              -1.8007805347442627,
              0.06999001652002335,
              -0.030961565673351288,
              -0.21871957182884216,
              0.624225378036499,
              0.47200214862823486,
              0.06595756113529205,
              0.02955547161400318,
              -0.5751613974571228,
              -0.14257845282554626,
              -1.14077889919281,
              -0.004079733043909073,
              0.147634819149971,
              0.42165952920913696,
              -0.26840776205062866,
              -0.20686842501163483,
              -0.0019018987659364939,
              -0.5537753105163574,
              0.11395906656980515,
              0.0801643505692482,
              0.22311435639858246,
              0.0003711048630066216,
              -0.05070476606488228,
              0.10956418514251709,
              0.3539932072162628,
              0.015460099093616009,
              -0.25286710262298584,
              -0.713019073009491,
              -0.15481330454349518,
              -0.5748809576034546,
              0.5462467074394226,
              0.10319136083126068,
              -0.16384953260421753,
              0.3689614236354828,
              0.17361265420913696,
              0.14928178489208221,
              -0.06377800554037094,
              -0.34977564215660095,
              -0.0014595971442759037,
              0.7695920467376709,
              0.4453844130039215,
              0.9407833218574524,
              0.015180857852101326,
              -0.1847480684518814,
              0.2382100224494934,
              0.36961305141448975,
              0.35616129636764526,
              -0.18685787916183472,
              -0.06642597168684006,
              -0.03608940541744232,
              0.6710149645805359,
              0.6745198965072632,
              0.30545204877853394,
              0.4085507094860077,
              0.13429948687553406,
              0.5869913697242737,
              0.4237566590309143,
              0.8454371094703674,
              0.6922529339790344,
              0.13211588561534882,
              0.47668153047561646,
              0.13759846985340118,
              -0.11609666794538498,
              0.06963764131069183,
              -0.4772956073284149,
              -0.12757611274719238,
              -0.04929564893245697,
              0.2742368280887604,
              0.28124019503593445,
              0.4924057424068451,
              0.22753870487213135,
              -0.35118311643600464,
              -0.2358514666557312,
              0.38419100642204285,
              0.2723253667354584,
              0.3242025673389435,
              0.04864862188696861,
              -0.2548544108867645,
              0.5237450003623962,
              0.6015003323554993,
              0.13067728281021118,
              0.08649910986423492,
              -0.3719273805618286,
              0.06335912644863129,
              0.06462058424949646,
              0.024842267856001854,
              0.231608048081398,
              -0.32519882917404175,
              0.058328062295913696,
              0.13465067744255066,
              -0.03422797471284866,
              0.1285376250743866,
              0.07253369688987732,
              -0.23619675636291504,
              0.17019547522068024,
              -0.18115080893039703,
              -0.08710625022649765,
              0.16103020310401917,
              -0.17170900106430054,
              -0.07120729237794876
          ],
          "bias": -1.8244577646255493
      },
      {
          "id": "NEURON_13737",
          "weights": [
              -0.6512811183929443,
              -0.22526583075523376,
              -0.22344154119491577,
              -0.029177311807870865,
              0.186579167842865,
              0.01960999146103859,
              0.4524427354335785,
              0.315194308757782,
              0.682602047920227,
              0.4508800804615021,
              0.08189953118562698,
              0.13853217661380768,
              -0.138031005859375,
              -0.20832152664661407,
              -0.05472082272171974,
              -0.13349543511867523,
              -0.022442443296313286,
              -0.2565620243549347,
              -0.24831990897655487,
              -0.3118687868118286,
              0.14728902280330658,
              -0.22332675755023956,
              0.1770602911710739,
              0.3137722611427307,
              -0.1344747692346573,
              -0.04478389024734497,
              -0.4675089120864868,
              -0.15857860445976257,
              -0.7482849359512329,
              -0.5555834770202637,
              -0.8343434929847717,
              -0.49285247921943665,
              -0.6942154765129089,
              -1.0056357383728027,
              -0.8211118578910828,
              -0.9670925140380859,
              -1.0559035539627075,
              -1.130787968635559,
              -0.5608451962471008,
              -1.1219006776809692,
              0.005334490444511175,
              0.20636865496635437,
              0.14011727273464203,
              -0.311239093542099,
              -0.06680601835250854,
              -0.20000694692134857,
              -0.09612869471311569,
              -0.27186718583106995,
              -0.5674866437911987,
              -1.7332252264022827,
              0.36867794394493103,
              0.18420901894569397,
              0.26365724205970764,
              0.20741897821426392,
              0.23773595690727234,
              0.14018332958221436,
              -0.016251856461167336,
              -0.7749650478363037,
              -0.2750527262687683,
              -0.0526873879134655,
              0.07473865151405334,
              -0.07642893493175507,
              0.32981425523757935,
              0.36954769492149353,
              0.21209034323692322,
              0.43645355105400085,
              0.5622557401657104,
              0.8574967384338379,
              0.20672684907913208,
              0.9365153908729553,
              -0.22091731429100037,
              0.2006303369998932,
              -0.04248103126883507,
              -0.05699917674064636,
              0.07410002499818802,
              0.5787758231163025,
              0.16133131086826324,
              0.897479772567749,
              1.186580777168274,
              1.309337854385376,
              -0.23822717368602753,
              0.18644879758358002,
              -0.07392880320549011,
              -0.13938939571380615,
              -0.16063645482063293,
              -0.10996851325035095,
              -0.6500914692878723,
              -0.34159770607948303,
              -0.055069081485271454,
              -1.6694600582122803,
              -0.4524337947368622,
              -1.0866726636886597,
              -0.43760669231414795,
              -0.9059373140335083,
              -0.7654750943183899,
              -0.9945111274719238,
              -0.45549845695495605,
              -1.0061105489730835,
              -0.6255800127983093,
              -0.9760748147964478
          ],
          "bias": 0.44872376322746277
      },
      {
          "id": "NEURON_87492",
          "weights": [
              -0.1765473484992981,
              0.23655284941196442,
              0.18970972299575806,
              -0.025918634608387947,
              0.09138184040784836,
              -0.48190510272979736,
              -0.4679618179798126,
              -0.47284504771232605,
              -0.8042291402816772,
              -0.16470438241958618,
              0.42090776562690735,
              0.15412646532058716,
              0.48028841614723206,
              0.38611626625061035,
              0.21414734423160553,
              -0.015451453626155853,
              -0.05642808973789215,
              -0.0497983954846859,
              -0.4843137562274933,
              -0.39307624101638794,
              0.32353195548057556,
              0.01781976781785488,
              -0.30238470435142517,
              -0.20857778191566467,
              -0.4308147728443146,
              0.20820455253124237,
              0.20017360150814056,
              0.19429589807987213,
              0.03582426533102989,
              0.28665289282798767,
              -0.11149711161851883,
              -0.12781481444835663,
              -0.6502101421356201,
              -0.5383285284042358,
              -0.49200159311294556,
              -0.39791133999824524,
              -0.17222614586353302,
              0.29101771116256714,
              0.03919678181409836,
              0.07682131230831146,
              -0.20618361234664917,
              0.1199994906783104,
              -0.8312375545501709,
              -0.5778282284736633,
              -0.6481439471244812,
              -0.3129543960094452,
              -0.004321190994232893,
              -0.4247782826423645,
              0.2256232649087906,
              -0.41015109419822693,
              0.1219513863325119,
              0.6841140985488892,
              0.3171555995941162,
              0.14689122140407562,
              0.07331633567810059,
              -0.03735172376036644,
              -0.7149200439453125,
              -0.9392334222793579,
              -0.41080179810523987,
              -0.7866979241371155,
              0.18370875716209412,
              0.435330867767334,
              0.1983390748500824,
              0.6057316064834595,
              0.6623548865318298,
              0.37825021147727966,
              -0.0018036642577499151,
              0.09374957531690598,
              -0.464164674282074,
              -0.8903495073318481,
              -0.5546264052391052,
              0.157943993806839,
              0.11553152650594711,
              -0.12184145301580429,
              0.6517112255096436,
              0.6538031697273254,
              0.5344517230987549,
              0.28711792826652527,
              -0.5445311665534973,
              -0.5459308624267578,
              -0.40151235461235046,
              -0.1978481262922287,
              -0.3328879773616791,
              -0.9448311924934387,
              -0.20642682909965515,
              -0.4651587903499603,
              0.801447868347168,
              1.44832444190979,
              0.2607939541339874,
              0.6788622140884399,
              -0.7847702503204346,
              -0.09208701550960541,
              -1.3024663925170898,
              -1.8735525608062744,
              -1.2903436422348022,
              -0.6746926307678223,
              -0.18471676111221313,
              0.02881469577550888,
              0.987001359462738,
              1.3691569566726685
          ],
          "bias": -0.2672412097454071
      },
      {
          "id": "NEURON_56564",
          "weights": [
              0.11606966704130173,
              -0.508143424987793,
              -0.8028433918952942,
              -0.5054982304573059,
              -0.39340150356292725,
              -0.15621806681156158,
              -0.0003735136706382036,
              -0.1856263130903244,
              -0.13612623512744904,
              0.34597641229629517,
              0.7934805750846863,
              0.2438274621963501,
              0.4589196443557739,
              0.21158954501152039,
              0.011664044111967087,
              -0.5489445924758911,
              -0.7817071080207825,
              -0.10552408546209335,
              -0.34706977009773254,
              -0.24227485060691833,
              0.3074168264865875,
              0.7809330821037292,
              0.3646259605884552,
              0.38322386145591736,
              -0.08729927986860275,
              -0.013847698457539082,
              0.06958893686532974,
              -0.30345284938812256,
              -0.0310048907995224,
              0.3431311845779419,
              0.5949596762657166,
              0.4928796589374542,
              0.2812081575393677,
              0.6999119520187378,
              0.5829406976699829,
              -0.02467414364218712,
              -0.31745150685310364,
              -0.03277938812971115,
              -0.5000649690628052,
              -0.27735328674316406,
              -0.35834673047065735,
              -0.5779985785484314,
              0.0437939316034317,
              0.25167956948280334,
              0.370158851146698,
              0.3204989433288574,
              0.17910371720790863,
              0.12954266369342804,
              0.4806620180606842,
              0.8351957201957703,
              -1.51498544216156,
              -1.1214430332183838,
              -0.38743841648101807,
              -0.06689471006393433,
              -0.16815264523029327,
              0.019755760207772255,
              0.29649361968040466,
              -0.09804598987102509,
              -0.8059273362159729,
              -1.1662013530731201,
              0.018734591081738472,
              -0.15329739451408386,
              -0.19330592453479767,
              -0.41750288009643555,
              -0.3206782937049866,
              -0.3290938138961792,
              0.069666288793087,
              0.058251239359378815,
              0.07490003854036331,
              -0.09642677754163742,
              -0.4028976559638977,
              0.052205413579940796,
              -1.6016795635223389,
              -1.3673516511917114,
              -0.6869884729385376,
              0.3960737884044647,
              0.606648325920105,
              0.558701753616333,
              -0.11736046522855759,
              -0.7831975221633911,
              -1.8882805109024048,
              -1.745727777481079,
              -0.5831299424171448,
              0.1914900243282318,
              0.3048211634159088,
              -0.25129902362823486,
              -0.0756869986653328,
              -0.2801542282104492,
              0.12104348093271255,
              -0.12039406597614288,
              0.5747361779212952,
              0.5012181401252747,
              0.5483592748641968,
              -0.04694673791527748,
              0.015119221061468124,
              -0.0013380582677200437,
              -0.03625219687819481,
              -0.2858661413192749,
              -0.19561170041561127,
              -1.1097394227981567
          ],
          "bias": -0.46517816185951233
      },
      {
          "id": "NEURON_01426",
          "weights": [
              -0.1598292589187622,
              0.15047158300876617,
              0.18988244235515594,
              0.023065853863954544,
              0.15043124556541443,
              0.33587682247161865,
              0.1264195740222931,
              -0.29565468430519104,
              -0.520686149597168,
              -0.8755080699920654,
              0.33823519945144653,
              0.7185778617858887,
              -0.05076020210981369,
              0.45077571272850037,
              0.17430508136749268,
              -0.23384545743465424,
              -0.04605787619948387,
              0.23678480088710785,
              0.08804595470428467,
              -0.3735245168209076,
              0.6048495173454285,
              -0.7979071140289307,
              -0.3146112561225891,
              -0.0477905198931694,
              -0.10451923310756683,
              0.12844900786876678,
              0.152263343334198,
              0.021110832691192627,
              0.12629225850105286,
              0.11780886352062225,
              -0.4391869604587555,
              0.10671991109848022,
              -0.035543471574783325,
              0.17629775404930115,
              0.3494691252708435,
              0.0029777379240840673,
              0.07293196022510529,
              -0.1991700679063797,
              -0.11451320350170135,
              0.271193265914917,
              -0.30883848667144775,
              0.499047189950943,
              0.4159786105155945,
              -0.34863534569740295,
              -0.5735561847686768,
              -0.06217854097485542,
              0.32979467511177063,
              0.26669275760650635,
              0.5019704699516296,
              0.4311504364013672,
              -0.07833943516016006,
              -1.1648941040039062,
              -0.8303207755088806,
              -0.2528398036956787,
              0.4855171740055084,
              0.698133111000061,
              0.44985008239746094,
              0.18991348147392273,
              -0.484182208776474,
              -0.44300585985183716,
              0.19919130206108093,
              0.7316508293151855,
              0.27033358812332153,
              0.6201772689819336,
              0.32511377334594727,
              -0.06822674721479416,
              -0.17250114679336548,
              -0.22739256918430328,
              -0.051263466477394104,
              -0.018744749948382378,
              0.10734105110168457,
              0.45114731788635254,
              0.3060038983821869,
              0.05571708455681801,
              -0.4272175431251526,
              -0.4125469923019409,
              -0.02912561222910881,
              0.039703432470560074,
              -0.12498519569635391,
              -0.06861448287963867,
              -0.23296475410461426,
              -1.1660614013671875,
              -2.000389814376831,
              -0.5833988785743713,
              0.3255561590194702,
              0.10319547355175018,
              -0.005388564895838499,
              0.3266198933124542,
              0.10122048854827881,
              0.17449888586997986,
              0.592887282371521,
              -0.303509384393692,
              0.4076719880104065,
              0.5838325023651123,
              0.41178029775619507,
              0.6014741063117981,
              0.30302688479423523,
              0.4874570369720459,
              0.15657968819141388,
              0.43590986728668213
          ],
          "bias": -1.4637285470962524
      },
      {
          "id": "NEURON_10928",
          "weights": [
              0.3459325432777405,
              -0.559631884098053,
              -0.47029322385787964,
              -0.49269574880599976,
              -0.01619712822139263,
              -0.17031289637088776,
              0.06112009659409523,
              -0.017155326902866364,
              0.4144427180290222,
              0.1065143272280693,
              -0.5110442638397217,
              0.16796329617500305,
              0.07021167129278183,
              0.06586716324090958,
              0.008659753948450089,
              0.18013356626033783,
              0.17004524171352386,
              0.04292953014373779,
              0.20730386674404144,
              0.03439944237470627,
              0.0900377482175827,
              -0.14695751667022705,
              -0.46014776825904846,
              0.307728111743927,
              -0.024649476632475853,
              0.4798722565174103,
              0.0638778954744339,
              0.013853282667696476,
              -0.20716199278831482,
              -0.10545402020215988,
              0.5284479260444641,
              -0.15306755900382996,
              0.21932139992713928,
              -0.26629769802093506,
              0.05579909682273865,
              0.3210151493549347,
              0.07856572419404984,
              0.14019346237182617,
              -0.3786641061306,
              -0.48119983077049255,
              -0.584270715713501,
              -0.0016749226488173008,
              0.5212631821632385,
              0.027196818962693214,
              -0.10529740899801254,
              -0.4678046405315399,
              -0.015589667484164238,
              -0.07425885647535324,
              -0.5995097756385803,
              -0.2631862759590149,
              -0.045036789029836655,
              -0.15583625435829163,
              -0.03551410511136055,
              0.08625264465808868,
              0.08341604471206665,
              0.16363729536533356,
              0.1857733577489853,
              -0.15847621858119965,
              -0.03101212903857231,
              -0.011461766436696053,
              -0.19866904616355896,
              0.558779776096344,
              0.2661510407924652,
              0.20002737641334534,
              0.48874181509017944,
              0.3390747904777527,
              0.49391692876815796,
              0.7759878635406494,
              0.723173975944519,
              1.1375638246536255,
              1.0699982643127441,
              0.5887146592140198,
              0.16133786737918854,
              0.4173155725002289,
              0.2698342800140381,
              0.23392312228679657,
              0.3994593322277069,
              0.6220951080322266,
              0.3970180153846741,
              0.5075726509094238,
              -0.4919222891330719,
              0.36970919370651245,
              0.2799147069454193,
              0.2130199819803238,
              0.5933129787445068,
