// For hydration purposes (Next JS)
// export const network_v1 = create_network(WEIGHTS, BIAS);

import {
  ClassificationType,
  create_network,
  NetworkType,
  relu_activation,
  sigmoid_activation,
  softmax_activation,
} from "./network";

// * --------- NETWORK V1 ---------
// Weights of V1 network
const WEIGHTS_V1 = [
  [
    [0.34660286, -0.01123584],
    [-0.16000803, 0.37327516],
    [-0.20330293, -0.285043],
    [0.03866423, 0.00664284],
  ], // First Layer
  [[-0.819887, -0.60944384, -0.60550654, 0.81135994]], // Output Layer
];

// Bias of V1 Network
const BIAS_V1 = [[-1.3854994, -1.2200477, -0.6707291, 2.2454503], [1.962239]];
// The thresholds of each layer that cause neuron to glow (not including input)
export const ACTIVATION_THRESHOLDS_V1 = [0, 0.5];
// Activation function of each layer
export const ACTIVATIONS_V1 = [relu_activation, sigmoid_activation];

// Compiled network
const NETWORK_V1 = [
  [
    {
      id: "NEURON_75921",
      weights: [0.34660286, -0.01123584],
      bias: -1.3854994,
    },
    {
      id: "NEURON_79786",
      weights: [-0.16000803, 0.37327516],
      bias: -1.2200477,
    },
    {
      id: "NEURON_96141",
      weights: [-0.20330293, -0.285043],
      bias: -0.6707291,
    },
    {
      id: "NEURON_65776",
      weights: [0.03866423, 0.00664284],
      bias: 2.2454503,
    },
  ],
  [
    {
      id: "NEURON_82556",
      weights: [-0.819887, -0.60944384, -0.60550654, 0.81135994],
      bias: 1.962239,
    },
  ],
];

// * --------- NETWORK V2 ---------
const WEIGHTS_V2 = [
  [
    [-0.34477118, -1.6760575],
    [0.31985378, 0.05698782],
    [0.9938797, 0.37092927],
    [0.5316709, 0.05891604],
    [-0.3936875, 0.2678236],
    [-0.6676354, -0.23336759],
  ],
  [
    [1.7718524, 0.1253783, 0.05593611, 0.8161352, -0.5778513, -0.32674235],
    [-0.387093, 0.11015438, -0.6425315, 0.01890373, -0.12255807, -0.67158157],
    [0.12292493, -2.2577233, 0.04268863, -0.23945038, 0.824801, 0.16089681],
    [
      -0.5992771, -0.34958652, -0.35315248, -0.5255966, -0.03629249,
      -0.34147778,
    ],
    [-0.53602463, -0.5711668, 0.7213426, -1.7292765, -0.11530387, -1.7924851],
    [0.52787155, 0.15420282, -0.06676751, 0.09076008, 1.7018548, 0.17385295],
  ],
  [[0.566249, 0.51702875, -0.6228413, -0.10376287, -1.122004, -0.55353564]],
];

const BIAS_V2 = [
  [1.2334526, -1.3812139, -0.24565703, -3.3825176, -3.5829697, -0.02190185],
  [-1.1887258, -0.41817272, -1.3184562, -0.20588127, 0.25860855, -2.6970034],
  [1.1585021],
];

const NETWORK_V2 = [
  [
    {
      id: "NEURON_11136",
      weights: [-0.34477118, -1.6760575],
      bias: 1.2334526,
    },
    {
      id: "NEURON_35617",
      weights: [0.31985378, 0.05698782],
      bias: -1.3812139,
    },
    {
      id: "NEURON_52199",
      weights: [0.9938797, 0.37092927],
      bias: -0.24565703,
    },
    {
      id: "NEURON_68952",
      weights: [0.5316709, 0.05891604],
      bias: -3.3825176,
    },
    {
      id: "NEURON_03907",
      weights: [-0.3936875, 0.2678236],
      bias: -3.5829697,
    },
    {
      id: "NEURON_71160",
      weights: [-0.6676354, -0.23336759],
      bias: -0.02190185,
    },
  ],
  [
    {
      id: "NEURON_61495",
      weights: [
        1.7718524, 0.1253783, 0.05593611, 0.8161352, -0.5778513, -0.32674235,
      ],
      bias: -1.1887258,
    },
    {
      id: "NEURON_75033",
      weights: [
        -0.387093, 0.11015438, -0.6425315, 0.01890373, -0.12255807, -0.67158157,
      ],
      bias: -0.41817272,
    },
    {
      id: "NEURON_47197",
      weights: [
        0.12292493, -2.2577233, 0.04268863, -0.23945038, 0.824801, 0.16089681,
      ],
      bias: -1.3184562,
    },
    {
      id: "NEURON_67004",
      weights: [
        -0.5992771, -0.34958652, -0.35315248, -0.5255966, -0.03629249,
        -0.34147778,
      ],
      bias: -0.20588127,
    },
    {
      id: "NEURON_22291",
      weights: [
        -0.53602463, -0.5711668, 0.7213426, -1.7292765, -0.11530387, -1.7924851,
      ],
      bias: 0.25860855,
    },
    {
      id: "NEURON_42131",
      weights: [
        0.52787155, 0.15420282, -0.06676751, 0.09076008, 1.7018548, 0.17385295,
      ],
      bias: -2.6970034,
    },
  ],
  [
    {
      id: "NEURON_38332",
      weights: [
        0.566249, 0.51702875, -0.6228413, -0.10376287, -1.122004, -0.55353564,
      ],
      bias: 1.1585021,
    },
  ],
];

// ---------------- NETWORk V3 ---------------
const WEIGHTS_V3 = [
  [
    [-0.5324926376342773, -0.29907533526420593],
    [-0.7304787039756775, -0.7349548935890198],
    [-0.19057944416999817, 0.6576992273330688],
    [0.7561840415000916, -0.23459865152835846],
    [-0.0315120592713356, 0.09727984666824341],
    [0.7216871976852417, 0.6902466416358948],
  ],
  [
    [
      -0.3610752522945404, 0.8125820755958557, -0.001195224467664957,
      -0.05774438753724098, 0.3710850477218628, -3.180962085723877,
    ],
    [
      0.1668349951505661, 0.452275812625885, 0.15249839425086975,
      0.5151237845420837, -0.7802107930183411, -0.12064271420240402,
    ],
    [
      0.6722677946090698, -0.43293437361717224, 0.20755833387374878,
      0.6839873194694519, -0.30257752537727356, 0.07432575523853302,
    ],
    [
      -0.6294812560081482, -0.303091824054718, 0.2578834295272827,
      0.0066947718150913715, -0.542716383934021, 0.9371834993362427,
    ],
    [
      0.4042842984199524, -0.3901467025279999, -1.5084220170974731,
      0.5652968883514404, 0.8680306077003479, -0.6993414759635925,
    ],
    [
      -0.13709603250026703, -0.4469386637210846, -0.14095459878444672,
      0.5516986846923828, 0.026941873133182526, 0.6507626175880432,
    ],
    [
      0.030041947960853577, -0.06400871276855469, 0.5501330494880676,
      -0.5280497670173645, 0.13784568011760712, 0.3633773922920227,
    ],
    [
      0.13917189836502075, -0.09907057881355286, -1.1791188716888428,
      0.6115815043449402, -0.1257452815771103, 0.28531205654144287,
    ],
  ],
  [
    [
      0.3943626880645752, 0.7286345362663269, 0.15075565874576569,
      -0.6228792071342468, 1.626854658126831, 0.6073384881019592,
      -0.01686279848217964, -0.24761465191841125,
    ],
    [
      0.0928196981549263, 0.3560091555118561, -0.5269024968147278,
      0.6296191811561584, 0.20593887567520142, -0.6647340655326843,
      0.3685893416404724, 1.2788645029067993,
    ],
    [
      -1.3074438571929932, 0.29227086901664734, -0.20799235999584198,
      -1.6280311346054077, 0.9070345759391785, -0.03995760530233383,
      0.2281820923089981, 0.44812899827957153,
    ],
    [
      -0.714678168296814, -0.44059914350509644, -0.4126870930194855,
      -0.4688993990421295, 0.21437454223632812, -0.4142325818538666,
      -0.10313690453767776, -0.35133835673332214,
    ],
  ],
  [
    [
      0.49380406737327576, 0.30138105154037476, 0.8497355580329895,
      0.17598935961723328,
    ],
    [
      0.5417230725288391, 1.002265453338623, -0.19498759508132935,
      -0.22209909558296204,
    ],
    [
      0.6868888735771179, 0.8658484816551208, -1.1983275413513184,
      0.21791952848434448,
    ],
    [
      -1.7504398822784424, 0.530386745929718, -1.7322925329208374,
      -0.156508207321167,
    ],
  ],
  [
    [
      0.4318792223930359, 0.23323090374469757, -1.2973649501800537,
      -3.3018250465393066,
    ],
    [
      -0.5199006199836731, -1.24300217628479, -1.2370699644088745,
      1.5943868160247803,
    ],
    [
      -0.9033937454223633, 0.7900865077972412, 0.6025182008743286,
      0.24536322057247162,
    ],
  ],
];

const BIAS_V3 = [
  [
    -1.0458276271820068, -0.05338984727859497, 1.9784071445465088,
    0.002738594077527523, 1.867319107055664, -0.2467537671327591,
  ],
  [
    0.4289727210998535, -2.3215765953063965, -0.9846894145011902,
    0.17616547644138336, 0.44055885076522827, 0.24573835730552673,
    0.1263357251882553, -1.2629506587982178,
  ],
  [
    -1.5963979959487915, -0.6022589802742004, -1.7257966995239258,
    -0.30573442578315735,
  ],
  [
    2.2868971824645996, -0.46975868940353394, -2.9407854080200195,
    2.441746234893799,
  ],
  [1.476133108139038, 0.42703884840011597, -1.7692339420318604],
];

const NETWORK_V3 = [
  [
    {
      id: "NEURON_61994",
      weights: [-0.5324926376342773, -0.29907533526420593],
      bias: -1.0458276271820068,
    },
    {
      id: "NEURON_39560",
      weights: [-0.7304787039756775, -0.7349548935890198],
      bias: -0.05338984727859497,
    },
    {
      id: "NEURON_94932",
      weights: [-0.19057944416999817, 0.6576992273330688],
      bias: 1.9784071445465088,
    },
    {
      id: "NEURON_73823",
      weights: [0.7561840415000916, -0.23459865152835846],
      bias: 0.002738594077527523,
    },
    {
      id: "NEURON_58804",
      weights: [-0.0315120592713356, 0.09727984666824341],
      bias: 1.867319107055664,
    },
    {
      id: "NEURON_92644",
      weights: [0.7216871976852417, 0.6902466416358948],
      bias: -0.2467537671327591,
    },
  ],
  [
    {
      id: "NEURON_34345",
      weights: [
        -0.3610752522945404, 0.8125820755958557, -0.001195224467664957,
        -0.05774438753724098, 0.3710850477218628, -3.180962085723877,
      ],
      bias: 0.4289727210998535,
    },
    {
      id: "NEURON_49208",
      weights: [
        0.1668349951505661, 0.452275812625885, 0.15249839425086975,
        0.5151237845420837, -0.7802107930183411, -0.12064271420240402,
      ],
      bias: -2.3215765953063965,
    },
    {
      id: "NEURON_38397",
      weights: [
        0.6722677946090698, -0.43293437361717224, 0.20755833387374878,
        0.6839873194694519, -0.30257752537727356, 0.07432575523853302,
      ],
      bias: -0.9846894145011902,
    },
    {
      id: "NEURON_52637",
      weights: [
        -0.6294812560081482, -0.303091824054718, 0.2578834295272827,
        0.0066947718150913715, -0.542716383934021, 0.9371834993362427,
      ],
      bias: 0.17616547644138336,
    },
    {
      id: "NEURON_18446",
      weights: [
        0.4042842984199524, -0.3901467025279999, -1.5084220170974731,
        0.5652968883514404, 0.8680306077003479, -0.6993414759635925,
      ],
      bias: 0.44055885076522827,
    },
    {
      id: "NEURON_72529",
      weights: [
        -0.13709603250026703, -0.4469386637210846, -0.14095459878444672,
        0.5516986846923828, 0.026941873133182526, 0.6507626175880432,
      ],
      bias: 0.24573835730552673,
    },
    {
      id: "NEURON_36645",
      weights: [
        0.030041947960853577, -0.06400871276855469, 0.5501330494880676,
        -0.5280497670173645, 0.13784568011760712, 0.3633773922920227,
      ],
      bias: 0.1263357251882553,
    },
    {
      id: "NEURON_18500",
      weights: [
        0.13917189836502075, -0.09907057881355286, -1.1791188716888428,
        0.6115815043449402, -0.1257452815771103, 0.28531205654144287,
      ],
      bias: -1.2629506587982178,
    },
  ],
  [
    {
      id: "NEURON_20512",
      weights: [
        0.3943626880645752, 0.7286345362663269, 0.15075565874576569,
        -0.6228792071342468, 1.626854658126831, 0.6073384881019592,
        -0.01686279848217964, -0.24761465191841125,
      ],
      bias: -1.5963979959487915,
    },
    {
      id: "NEURON_18675",
      weights: [
        0.0928196981549263, 0.3560091555118561, -0.5269024968147278,
        0.6296191811561584, 0.20593887567520142, -0.6647340655326843,
        0.3685893416404724, 1.2788645029067993,
      ],
      bias: -0.6022589802742004,
    },
    {
      id: "NEURON_56902",
      weights: [
        -1.3074438571929932, 0.29227086901664734, -0.20799235999584198,
        -1.6280311346054077, 0.9070345759391785, -0.03995760530233383,
        0.2281820923089981, 0.44812899827957153,
      ],
      bias: -1.7257966995239258,
    },
    {
      id: "NEURON_76179",
      weights: [
        -0.714678168296814, -0.44059914350509644, -0.4126870930194855,
        -0.4688993990421295, 0.21437454223632812, -0.4142325818538666,
        -0.10313690453767776, -0.35133835673332214,
      ],
      bias: -0.30573442578315735,
    },
  ],
  [
    {
      id: "NEURON_08539",
      weights: [
        0.49380406737327576, 0.30138105154037476, 0.8497355580329895,
        0.17598935961723328,
      ],
      bias: 2.2868971824645996,
    },
    {
      id: "NEURON_47368",
      weights: [
        0.5417230725288391, 1.002265453338623, -0.19498759508132935,
        -0.22209909558296204,
      ],
      bias: -0.46975868940353394,
    },
    {
      id: "NEURON_56888",
      weights: [
        0.6868888735771179, 0.8658484816551208, -1.1983275413513184,
        0.21791952848434448,
      ],
      bias: -2.9407854080200195,
    },
    {
      id: "NEURON_18692",
      weights: [
        -1.7504398822784424, 0.530386745929718, -1.7322925329208374,
        -0.156508207321167,
      ],
      bias: 2.441746234893799,
    },
  ],
  [
    {
      id: "NEURON_48446",
      weights: [
        0.4318792223930359, 0.23323090374469757, -1.2973649501800537,
        -3.3018250465393066,
      ],
      bias: 1.476133108139038,
    },
    {
      id: "NEURON_36365",
      weights: [
        -0.5199006199836731, -1.24300217628479, -1.2370699644088745,
        1.5943868160247803,
      ],
      bias: 0.42703884840011597,
    },
    {
      id: "NEURON_07340",
      weights: [
        -0.9033937454223633, 0.7900865077972412, 0.6025182008743286,
        0.24536322057247162,
      ],
      bias: -1.7692339420318604,
    },
  ],
];

// const network = create_network(WEIGHTS_V3, BIAS_V3);
// console.log(network);

// --------------- NETWORK_V4 (HUGE!) --------------
// const NETWORK_V4 = create_network(WEIGHTS_V4, BIAS_V4);
// console.log(NETWORK_V4);
const NETWORK_V4 = [
  [
      {
          "id": "NEURON_12564",
          "weights": [
              -0.6955493092536926,
              -0.5915495157241821,
              -0.7273618578910828,
              -0.9017972350120544,
              -0.8290870785713196,
              -0.7854949831962585,
              -0.7374109625816345,
              -0.04738074168562889,
              -0.4537201523780823,
              -0.27442803978919983,
              -0.3758956491947174,
              -1.1058332920074463,
              -0.9567015171051025,
              -1.1257418394088745,
              -0.6871659755706787,
              -0.5651646852493286,
              0.036803051829338074,
              -0.19213593006134033,
              -0.9217782020568848,
              -0.07664646953344345,
              -0.6589754223823547,
              -0.7212257981300354,
              -0.17894905805587769,
              -0.9238400459289551,
              -0.4345247149467468,
              -0.4869958162307739,
              -0.405232697725296,
              -0.26424044370651245,
              -0.38523685932159424,
              0.33942368626594543,
              -0.27037420868873596,
              -0.8200445771217346,
              -0.14127856492996216,
              -0.6747682094573975,
              -0.7012974619865417,
              -0.4583621621131897,
              -0.3105689585208893,
              -0.8102673292160034,
              -0.05384881794452667,
              0.3392137289047241,
              0.39087003469467163,
              -0.6084545850753784,
              -0.7218540906906128,
              -0.1561034470796585,
              -0.42664003372192383,
              -0.15955960750579834,
              -0.1451244354248047,
              -0.16099488735198975,
              0.6969746947288513,
              0.2945877015590668,
              0.8182780146598816,
              -0.028547432273626328,
              0.09232456982135773,
              0.8517023921012878,
              0.5634297728538513,
              0.2870193421840668,
              0.3276337683200836,
              0.5841525793075562,
              0.6726548671722412,
              0.32234928011894226,
              0.3271958529949188,
              0.7199270129203796,
              0.9952391386032104,
              0.5056051015853882,
              0.7649300694465637,
              0.8066806197166443,
              0.322569876909256,
              0.13217027485370636,
              0.5349617004394531,
              0.34201374650001526,
              0.18473555147647858,
              0.3943862020969391,
              0.7444308996200562,
              0.7262908220291138,
              0.4580838680267334,
              0.2961071729660034,
              0.14115773141384125,
              0.02777845785021782,
              0.32906535267829895,
              0.08006227016448975,
              -0.46714138984680176,
              -0.6293971538543701,
              -0.1223706603050232,
              -0.02898733876645565,
              -0.10606998950242996,
              0.19031070172786713,
              -0.29294461011886597,
              0.007410190999507904,
              -0.11077229678630829,
              0.2835969626903534,
              -0.2831799387931824,
              -0.42166125774383545,
              -0.09991836547851562,
              -0.05567985028028488,
              0.04925159364938736,
              0.4819229245185852,
              0.4811716377735138,
              -0.08924464136362076,
              -0.10394121706485748,
              -0.06047356501221657
          ],
          "bias": -0.28110024333000183
      },
      {
          "id": "NEURON_93198",
          "weights": [
              0.5115481615066528,
              0.27633365988731384,
              0.19816608726978302,
              0.1533227413892746,
              0.2258571982383728,
              0.1522349715232849,
              0.14372672140598297,
              0.11772754788398743,
              -0.05869385972619057,
              -0.32335802912712097,
              -0.7982324361801147,
              -0.8235297799110413,
              -0.49315473437309265,
              -0.4393893778324127,
              -0.2271338254213333,
              0.11128659546375275,
              0.3174850642681122,
              0.26149982213974,
              0.5654172897338867,
              0.7093470692634583,
              -0.26086556911468506,
              0.3187035918235779,
              -0.6186844110488892,
              -0.332844614982605,
              -0.7093170285224915,
              -0.8612926006317139,
              -0.6703076958656311,
              -0.6882243156433105,
              -0.41482415795326233,
              -0.8941296935081482,
              0.4254940152168274,
              0.4306093752384186,
              0.5075778365135193,
              0.44918814301490784,
              0.44084200263023376,
              0.48542067408561707,
              0.4740942418575287,
              0.3341941237449646,
              0.03842221200466156,
              0.37242788076400757,
              -1.4548022747039795,
              -0.5243782997131348,
              -0.16407491266727448,
              0.0836678296327591,
              0.07630718499422073,
              0.06299470365047455,
              0.11623631417751312,
              -0.27706798911094666,
              -0.23345185816287994,
              -0.19534896314144135,
              -0.32843834161758423,
              -0.08716599643230438,
              -0.2775270342826843,
              -0.2824224829673767,
              -0.6482622027397156,
              -0.3809037506580353,
              -0.4682079255580902,
              -0.27018553018569946,
              -0.3854275345802307,
              -0.43372851610183716,
              0.7367072701454163,
              0.6543103456497192,
              0.2333149015903473,
              -0.1067466139793396,
              0.16310696303844452,
              0.28778842091560364,
              0.07394658774137497,
              0.21926936507225037,
              0.06390619277954102,
              0.13301825523376465,
              -1.0370151996612549,
              -0.8836941719055176,
              -0.4615345895290375,
              -0.5805635452270508,
              -0.018814921379089355,
              -0.09709649533033371,
              -0.07389158010482788,
              -0.4752621054649353,
              -0.32840651273727417,
              0.20274798572063446,
              -0.41060373187065125,
              -0.5784589052200317,
              -0.37078237533569336,
              0.023117415606975555,
              -0.204656720161438,
              -0.07935568690299988,
              0.027606334537267685,
              0.11977207660675049,
              -0.14393587410449982,
              -0.19648073613643646,
              -0.03381412476301193,
              0.3392522931098938,
              0.2845107316970825,
              0.3288230001926422,
              0.012820239178836346,
              -0.053298305720090866,
              -0.2010035365819931,
              -0.3031385838985443,
              -0.31460654735565186,
              0.07256075739860535
          ],
          "bias": 1.0245553255081177
      },
      {
          "id": "NEURON_96815",
          "weights": [
              0.29095688462257385,
              0.49467962980270386,
              -0.8296807408332825,
              0.05509907007217407,
              0.07439784705638885,
              -1.0788520574569702,
              0.6667521595954895,
              -1.8361207246780396,
              0.546130895614624,
              0.36931583285331726,
              -0.12155449390411377,
              0.37197718024253845,
              -0.702058732509613,
              0.13813166320323944,
              -0.05328253656625748,
              -0.3194893002510071,
              0.18694891035556793,
              -0.4737807810306549,
              0.19436131417751312,
              -0.21156364679336548,
              -0.27090659737586975,
              0.3778998553752899,
              -0.40568435192108154,
              -0.05951116979122162,
              0.2021922469139099,
              -0.5667657852172852,
              0.4670923948287964,
              -0.5598786473274231,
              0.31487420201301575,
              -0.12313181906938553,
              0.02185879833996296,
              0.2507442533969879,
              0.437966912984848,
              -0.19884797930717468,
              0.040231525897979736,
              -0.593201220035553,
              0.5467849969863892,
              -0.5179826617240906,
              0.6260502338409424,
              -0.34888172149658203,
              -0.9742613434791565,
              0.32183927297592163,
              0.37290534377098083,
              0.09598660469055176,
              -0.1330825388431549,
              -0.3645198941230774,
              0.3883213996887207,
              0.14161260426044464,
              0.4029608964920044,
              0.3144937753677368,
              -1.2500637769699097,
              0.162456214427948,
              -0.24258272349834442,
              0.7074397206306458,
              0.2901051640510559,
              -0.7420186996459961,
              0.45162442326545715,
              0.1930978000164032,
              0.500141441822052,
              0.0780012309551239,
              -0.9999433159828186,
              0.40527307987213135,
              -0.4508286416530609,
              -0.20661954581737518,
              0.29781195521354675,
              -0.4408879578113556,
              0.044909942895174026,
              0.1915312558412552,
              0.06045347824692726,
              -0.5070793032646179,
              -0.11421247571706772,
              0.2288396656513214,
              -0.8160336017608643,
              -0.23911195993423462,
              -0.13697652518749237,
              -0.42732709646224976,
              0.1396828442811966,
              -0.24251551926136017,
              -0.09995006024837494,
              -0.37298011779785156,
              0.5437927842140198,
              0.26656192541122437,
              -1.2174433469772339,
              -0.4912169575691223,
              -0.15937240421772003,
              0.04010370746254921,
              0.4775446355342865,
              -0.9998046159744263,
              -0.21546676754951477,
              -0.25580620765686035,
              0.3362022936344147,
              0.3860633075237274,
              -0.69144207239151,
              -0.4176722764968872,
              0.2790681719779968,
              -0.22103534638881683,
              0.5280451774597168,
              -0.90188068151474,
              -0.5237336754798889,
              0.5430600047111511
          ],
          "bias": 0.1701156347990036
      },
      {
          "id": "NEURON_45181",
          "weights": [
              0.2487088143825531,
              0.3106215298175812,
              -0.22010664641857147,
              0.14427784085273743,
              0.5802598595619202,
              0.41230136156082153,
              0.3286987245082855,
              0.5820348262786865,
              0.909826397895813,
              0.5829813480377197,
              -0.4495609998703003,
              -0.12025530636310577,
              -0.44120892882347107,
              -0.7248427271842957,
              -0.9966103434562683,
              -0.6682038903236389,
              -1.22579026222229,
              -1.278517723083496,
              -2.0347018241882324,
              -2.1405394077301025,
              -0.058378495275974274,
              -0.04274104908108711,
              0.25500181317329407,
              0.3376152515411377,
              0.3777088224887848,
              0.3571743071079254,
              0.032916199415922165,
              0.22968436777591705,
              0.27004432678222656,
              0.5884026288986206,
              0.1760787069797516,
              0.1385176032781601,
              -0.3406977355480194,
              -0.1216118261218071,
              -0.060978423804044724,
              -0.2218455970287323,
              0.02921842597424984,
              0.1046903133392334,
              -0.23914462327957153,
              -0.20455913245677948,
              -0.1458926498889923,
              0.1703430414199829,
              -0.26014596223831177,
              -0.21136972308158875,
              0.19639204442501068,
              0.12216755747795105,
              0.1132551059126854,
              0.46722254157066345,
              0.6423965692520142,
              0.8102995157241821,
              -0.3491519093513489,
              0.25820446014404297,
              0.5421532988548279,
              0.13595017790794373,
              -0.379940390586853,
              -0.8217481374740601,
              -0.49155595898628235,
              -0.34879863262176514,
              -0.43449661135673523,
              0.07397378236055374,
              -0.3739205002784729,
              -0.2382550984621048,
              -0.25126519799232483,
              0.0369904451072216,
              0.024545378983020782,
              0.07182244956493378,
              -0.20776693522930145,
              -0.2500622272491455,
              -0.05146070569753647,
              -0.11003701388835907,
              0.9500815868377686,
              0.025011960417032242,
              -0.08127234131097794,
              0.01004019659012556,
              -0.30517247319221497,
              0.2763053774833679,
              -0.11482492089271545,
              -0.8046349287033081,
              -0.8191134333610535,
              -0.7000346183776855,
              -0.4702170789241791,
              -0.315851092338562,
              -0.20416498184204102,
              -0.31244221329689026,
              -0.11963600665330887,
              -0.10890817642211914,
              0.004558939952403307,
              0.047860462218523026,
              -0.2854602038860321,
              0.19449014961719513,
              -0.24324572086334229,
              -0.14637446403503418,
              0.24182716012001038,
              0.0057017141953110695,
              0.3220553994178772,
              -0.1228652074933052,
              0.2222689837217331,
              -0.01819378323853016,
              -1.02992582321167,
              -0.48217296600341797
          ],
          "bias": 0.5277338027954102
      },
      {
          "id": "NEURON_28271",
          "weights": [
              -0.16788865625858307,
              -0.2321622520685196,
              -0.17594915628433228,
              -0.309127539396286,
              -0.12554937601089478,
              0.5566033720970154,
              0.08846869319677353,
              0.05466790869832039,
              -0.0700930580496788,
              0.6531164646148682,
              -0.17307637631893158,
              -0.21414239704608917,
              0.20346218347549438,
              -0.3815622329711914,
              0.18138934671878815,
              0.5485687255859375,
              0.12389984726905823,
              0.09654855728149414,
              0.2456788569688797,
              0.6036651134490967,
              0.602540135383606,
              0.30080446600914,
              0.07709379494190216,
              0.14581972360610962,
              0.07232329249382019,
              0.6332629919052124,
              0.2630864977836609,
              0.6090402007102966,
              0.1974714696407318,
              1.0558674335479736,
              0.47081297636032104,
              0.009643042460083961,
              0.43845856189727783,
              0.03452630713582039,
              -0.13300348818302155,
              0.3045368194580078,
              -0.07492534816265106,
              0.8307109475135803,
              0.039947330951690674,
              0.8028397560119629,
              0.4634164869785309,
              -0.010799889452755451,
              0.597374439239502,
              0.08718962967395782,
              -0.29189690947532654,
              0.4387883245944977,
              -0.19782976806163788,
              -0.3090166449546814,
              0.006280045490711927,
              0.03765075281262398,
              -0.218930184841156,
              0.060674939304590225,
              0.4167293906211853,
              -0.305525004863739,
              -0.12305203080177307,
              0.13424211740493774,
              -0.33039847016334534,
              -0.46846166253089905,
              -0.33027660846710205,
              -0.5564027428627014,
              -0.983569860458374,
              -0.18161529302597046,
              -0.2533348500728607,
              -0.12402936816215515,
              -0.07163041085004807,
              0.1931382417678833,
              -0.29081371426582336,
              -0.6616119146347046,
              -0.9538404941558838,
              -0.1787600964307785,
              -1.1982746124267578,
              -0.0336352176964283,
              0.3763817846775055,
              0.22553133964538574,
              -0.24917037785053253,
              0.47042378783226013,
              -0.13469946384429932,
              -0.5499436855316162,
              -0.7346740961074829,
              0.20326390862464905,
              -0.7176468968391418,
              -0.039767973124980927,
              0.08290402591228485,
              -0.3545692265033722,
              -0.16550040245056152,
              0.5200904607772827,
              -1.2488605976104736,
              0.08140496909618378,
              -0.20144516229629517,
              0.09920661896467209,
              -0.5542894601821899,
              0.14438840746879578,
              0.20623911917209625,
              -0.31284961104393005,
              -0.4856807291507721,
              0.12393428385257721,
              -0.784819483757019,
              -0.19193752110004425,
              0.3895553946495056,
              0.18826653063297272
          ],
          "bias": -0.40098899602890015
      },
      {
          "id": "NEURON_89135",
          "weights": [
              0.06367795169353485,
              -0.739048957824707,
              -1.814254879951477,
              -1.0330091714859009,
              -0.7550793886184692,
              -0.5505167245864868,
              0.2973620593547821,
              0.23936377465724945,
              -0.3960466682910919,
              -0.2031175196170807,
              -0.16897405683994293,
              -1.4218312501907349,
              -1.823650598526001,
              -0.4102788269519806,
              0.3415052890777588,
              0.5777844786643982,
              -0.0073487418703734875,
              -0.6223829388618469,
              0.006531116086989641,
              0.3029290437698364,
              -0.18349628150463104,
              -1.0270748138427734,
              -1.1902005672454834,
              -0.2763468623161316,
              0.5641015768051147,
              0.636908233165741,
              0.36000165343284607,
              -0.20550929009914398,
              -0.025277603417634964,
              0.26075148582458496,
              0.0722021758556366,
              -1.1500579118728638,
              -0.3162851631641388,
              -0.16366267204284668,
              0.5198147892951965,
              0.09922736138105392,
              0.6105495095252991,
              0.3593592345714569,
              -0.3349340856075287,
              -0.6406899690628052,
              -0.46043092012405396,
              -0.6580320000648499,
              0.1625804752111435,
              0.11703738570213318,
              -0.10611265152692795,
              0.17035570740699768,
              -0.14740926027297974,
              0.006630836986005306,
              -0.014684295281767845,
              -0.8139796257019043,
              -0.016047433018684387,
              -0.7237011194229126,
              0.269237756729126,
              0.7372902035713196,
              0.22790943086147308,
              0.3516687750816345,
              -0.32875388860702515,
              0.1297428160905838,
              0.5620554089546204,
              0.3315783143043518,
              0.1402008980512619,
              -0.3312918245792389,
              -0.1020972728729248,
              0.27934929728507996,
              0.49162840843200684,
              -0.04089141637086868,
              0.2567337155342102,
              0.03497820720076561,
              0.25583842396736145,
              0.9772096276283264,
              0.6323254704475403,
              0.3189876079559326,
              0.07004842162132263,
              0.054984237998723984,
              0.5743332505226135,
              0.05694108083844185,
              0.24309100210666656,
              -0.3210347890853882,
              -0.2099861204624176,
              0.28611811995506287,
              0.26574602723121643,
              -0.21179284155368805,
              0.6687816977500916,
              0.0011282931081950665,
              0.22078824043273926,
              -0.058655571192502975,
              -0.07794345915317535,
              -0.09738530218601227,
              -0.4510345757007599,
              -0.5566599369049072,
              -0.12632031738758087,
              -0.6947565078735352,
              -0.08400635421276093,
              -0.050859544426202774,
              -0.31662896275520325,
              0.00807132851332426,
              -0.24623528122901917,
              -0.4221833646297455,
              -0.05726877972483635,
              -1.0462144613265991
          ],
          "bias": 0.0968051552772522
      },
      {
          "id": "NEURON_97294",
          "weights": [
              -0.0844360813498497,
              0.07347676903009415,
              0.26922979950904846,
              0.5570029020309448,
              -0.006202684249728918,
              -0.39493614435195923,
              -0.5454525351524353,
              -0.3435480296611786,
              -0.18887749314308167,
              -0.21270638704299927,
              0.09991823136806488,
              0.39558175206184387,
              0.21050122380256653,
              0.6478183269500732,
              -0.03971116617321968,
              -0.4233337640762329,
              -0.5574442148208618,
              -0.23304274678230286,
              -0.12563453614711761,
              -0.7004450559616089,
              0.191465824842453,
              0.41195574402809143,
              0.31953394412994385,
              0.4363538324832916,
              0.38905036449432373,
              -0.6873330473899841,
              -1.050482153892517,
              -0.8059303760528564,
              -0.5733740925788879,
              -0.1528969556093216,
              -0.44275417923927307,
              -0.028931502252817154,
              -0.03198903053998947,
              0.3769626319408417,
              0.42960575222969055,
              -0.4113815128803253,
              -0.4606436789035797,
              -0.5500270128250122,
              0.09909733384847641,
              0.6049388647079468,
              0.25198379158973694,
              0.1646730899810791,
              0.38615521788597107,
              0.6803988218307495,
              0.6357371211051941,
              0.583638608455658,
              0.23858216404914856,
              0.1558988392353058,
              -1.1999561786651611,
              -0.9050282835960388,
              0.33802124857902527,
              0.11037645488977432,
              0.2983124852180481,
              0.6576073169708252,
              0.19268542528152466,
              0.27592897415161133,
              0.3521077632904053,
              0.06855680793523788,
              -0.24008026719093323,
              -1.1465495824813843,
              0.07026933133602142,
              0.35014334321022034,
              0.2667657136917114,
              0.09895558655261993,
              0.39970773458480835,
              0.2960242033004761,
              0.7751198410987854,
              0.3563633859157562,
              0.3068830966949463,
              -0.7810691595077515,
              -0.06654046475887299,
              -0.14301040768623352,
              -0.2173166424036026,
              0.029610395431518555,
              0.3003276288509369,
              0.22223348915576935,
              0.21257391571998596,
              0.2782597243785858,
              0.6719557046890259,
              0.9809741973876953,
              0.09686977416276932,
              -0.21669243276119232,
              -0.2212032973766327,
              0.11671768128871918,
              0.4628485143184662,
              0.37854743003845215,
              0.3458355963230133,
              0.6784719228744507,
              0.5604132413864136,
              1.021745204925537,
              -0.1499360203742981,
              0.17974881827831268,
              0.1381814330816269,
              0.2897242307662964,
              -0.11348610371351242,
              -0.38783249258995056,
              -0.23357678949832916,
              -0.13418707251548767,
              0.22432304918766022,
              0.5391393303871155
          ],
          "bias": -0.21875280141830444
      },
      {
          "id": "NEURON_34002",
          "weights": [
              -1.282145619392395,
              -0.05660112574696541,
              0.40059801936149597,
              -0.2734123468399048,
              -0.2929350435733795,
              -0.1614193469285965,
              -0.30261945724487305,
              0.19501827657222748,
              -0.08026992529630661,
              -0.02956014685332775,
              0.19351379573345184,
              0.1790512502193451,
              0.03823947161436081,
              0.15253959596157074,
              0.22695398330688477,
              0.1855534166097641,
              -0.22046582400798798,
              -0.34955236315727234,
              -0.021748796105384827,
              0.44569504261016846,
              -0.030037134885787964,
              -0.4246421158313751,
              -0.2695060968399048,
              -0.0956716313958168,
              0.8635742664337158,
              0.3600105941295624,
              -0.8391392230987549,
              -0.1611570417881012,
              0.47546038031578064,
              0.32544249296188354,
              -0.8338354825973511,
              -0.7631263136863708,
              -0.6785182952880859,
              0.4577580988407135,
              0.37851977348327637,
              -0.7210862636566162,
              -0.4819492995738983,
              0.4667733907699585,
              0.35294032096862793,
              -0.3694245517253876,
              -0.9876149296760559,
              -0.7521552443504333,
              0.029875265434384346,
              0.1995544284582138,
              -0.4982338845729828,
              -0.4854816198348999,
              -0.28497597575187683,
              0.26447397470474243,
              -0.12485846132040024,
              -0.9025799036026001,
              -0.5780102610588074,
              0.25810882449150085,
              0.6066254377365112,
              0.04172671586275101,
              -0.6800889372825623,
              -0.5276005268096924,
              0.2916867136955261,
              0.4535984694957733,
              -0.3160172402858734,
              -1.1656825542449951,
              -0.7217427492141724,
              0.6995683312416077,
              0.4225420355796814,
              -0.12552496790885925,
              -0.7515261769294739,
              0.23260778188705444,
              0.5693027377128601,
              0.33301839232444763,
              0.08264166116714478,
              -0.2783466577529907,
              0.5996764898300171,
              0.6773780584335327,
              -0.12008607387542725,
              -0.421315461397171,
              0.02360698953270912,
              0.6069499850273132,
              -0.054557621479034424,
              -0.04295652359724045,
              0.11380332708358765,
              -0.11273948103189468,
              0.2935883402824402,
              0.0833926796913147,
              -0.6417755484580994,
              -0.15792888402938843,
              0.3962513208389282,
              0.14949290454387665,
              -0.2457878291606903,
              -0.09817958623170853,
              -0.14928700029850006,
              -0.07457253336906433,
              -0.09541985392570496,
              -1.0807111263275146,
              -1.1454206705093384,
              0.052433669567108154,
              0.6877601742744446,
              -0.4063374698162079,
              -0.05291496962308884,
              -0.4946829378604889,
              0.07187756896018982,
              -0.00931304320693016
          ],
          "bias": 0.8115987181663513
      },
      {
          "id": "NEURON_27965",
          "weights": [
              0.4225045144557953,
              -0.6631762981414795,
              0.3132898211479187,
              -0.32877102494239807,
              -0.0025505784433335066,
              0.14724139869213104,
              0.010691414587199688,
              -0.025609392672777176,
              0.2779785692691803,
              0.5088382363319397,
              0.1602998822927475,
              0.09057153016328812,
              0.6986832022666931,
              0.7366014719009399,
              0.385166198015213,
              0.1749618500471115,
              0.33357474207878113,
              0.222062885761261,
              -0.043670475482940674,
              0.3154609501361847,
              0.3074665367603302,
              -0.18583722412586212,
              0.19398030638694763,
              0.6566029787063599,
              0.6631733775138855,
              0.353369802236557,
              0.20379962027072906,
              -0.020925814285874367,
              -0.05059223249554634,
              -0.10401177406311035,
              0.18447697162628174,
              -0.0381503626704216,
              -0.0002596188278403133,
              0.8437575697898865,
              0.2361469566822052,
              0.4395427703857422,
              -0.03377971053123474,
              -0.37694889307022095,
              0.0719396099448204,
              -0.01831483468413353,
              0.0180484838783741,
              -0.6317130923271179,
              -0.5239881873130798,
              0.37471944093704224,
              -0.11497420817613602,
              -0.08297527581453323,
              0.2560350000858307,
              -0.027719832956790924,
              0.3848556578159332,
              0.22178927063941956,
              0.007356093730777502,
              -0.1957925409078598,
              -0.24638277292251587,
              -0.4038301706314087,
              -0.4891405999660492,
              0.13978230953216553,
              0.6346222162246704,
              0.12454838305711746,
              0.47444629669189453,
              -0.4304583668708801,
              -1.2129571437835693,
              -1.1184895038604736,
              -0.5452057123184204,
              -0.249458909034729,
              -0.6032462120056152,
              0.03488977625966072,
              -0.4847082495689392,
              0.1705847829580307,
              0.23119108378887177,
              -0.2833153009414673,
              -0.6167323589324951,
              -0.0989910140633583,
              -0.22577008605003357,
              -0.6694183945655823,
              -0.7425898909568787,
              -0.23924845457077026,
              -0.12788628041744232,
              -0.13216471672058105,
              0.19653090834617615,
              0.015899373218417168,
              0.2420266568660736,
              -0.2544206380844116,
              -0.39974603056907654,
              -0.68818199634552,
              -0.6754310727119446,
              -0.03643579035997391,
              -0.2060249298810959,
              -0.11023571342229843,
              0.6097357869148254,
              -0.01760471798479557,
              0.6026082634925842,
              0.6619962453842163,
              -0.049956854432821274,
              -0.4464668333530426,
              0.045221514999866486,
              0.7462399005889893,
              -0.22728782892227173,
              -0.1865757405757904,
              0.7220479846000671,
              -0.6230127215385437
          ],
          "bias": -0.07376393675804138
      },
      {
          "id": "NEURON_37546",
          "weights": [
              -0.42890867590904236,
              -0.3293758034706116,
              -0.009625142440199852,
              0.47540268301963806,
              0.3430602252483368,
              0.19650650024414062,
              -0.3577798902988434,
              0.2792244851589203,
              -0.2045930176973343,
              -0.05791984871029854,
              -0.41913220286369324,
              -0.12294755131006241,
              0.3441022038459778,
              0.5789071321487427,
              0.48126187920570374,
              -0.16464747488498688,
              -0.36940789222717285,
              -0.36379554867744446,
              0.05823874846100807,
              0.34660547971725464,
              -0.1374088078737259,
              -0.21244803071022034,
              0.4185813069343567,
              0.22336310148239136,
              0.1415446400642395,
              -0.09100716561079025,
              -0.10262833535671234,
              -0.19221408665180206,
              -0.009143752045929432,
              0.4812154471874237,
              -0.44668683409690857,
              0.44324761629104614,
              0.5312458872795105,
              0.33175691962242126,
              -0.2641482949256897,
              -0.08118724822998047,
              0.18821799755096436,
              0.21124275028705597,
              -0.38821157813072205,
              0.003445400856435299,
              -0.7279723882675171,
              -0.027470244094729424,
              0.5827476978302002,
              0.018795296549797058,
              -0.26738399267196655,
              -0.5458561778068542,
              -0.028079448267817497,
              0.06609109789133072,
              -0.41740986704826355,
              0.08776304125785828,
              -1.43141770362854,
              -0.3138081431388855,
              0.541322648525238,
              0.10430260002613068,
              -0.7554396390914917,
              -0.7181453704833984,
              0.07603062689304352,
              0.08790964633226395,
              0.33267277479171753,
              -0.055561959743499756,
              -1.4457247257232666,
              0.11111708730459213,
              0.6520683169364929,
              0.24166010320186615,
              -0.6084915399551392,
              0.14006656408309937,
              0.3505919873714447,
              0.15294679999351501,
              0.20554381608963013,
              -0.17141832411289215,
              -1.2141485214233398,
              0.24034565687179565,
              0.27210888266563416,
              -0.35509824752807617,
              -0.14763939380645752,
              -0.16433972120285034,
              0.36430487036705017,
              0.23146511614322662,
              0.13206733763217926,
              -0.15378615260124207,
              -1.5656687021255493,
              -0.5426682829856873,
              0.23323601484298706,
              0.16317999362945557,
              0.3389046788215637,
              -0.24055510759353638,
              0.22816462814807892,
              0.38863879442214966,
              0.10491150617599487,
              0.24412894248962402,
              -1.8386722803115845,
              -0.671970784664154,
              0.7412241101264954,
              0.5206437706947327,
              0.385501503944397,
              -0.0822434052824974,
              0.02072189375758171,
              -0.1968865543603897,
              -0.010523620061576366,
              -0.5989550948143005
          ],
          "bias": -0.28288137912750244
      },
      {
          "id": "NEURON_66205",
          "weights": [
              -0.3130836486816406,
              0.18846666812896729,
              0.27036088705062866,
              0.5359264016151428,
              -0.2600986361503601,
              -0.3151187002658844,
              -0.5963998436927795,
              0.1949446201324463,
              0.42077121138572693,
              0.040928903967142105,
              0.6852598190307617,
              0.5847699642181396,
              0.16266869008541107,
              -0.31578829884529114,
              -0.22838854789733887,
              0.1879003345966339,
              0.21879231929779053,
              0.3102126121520996,
              0.4842310845851898,
              0.5585269927978516,
              0.534358024597168,
              0.8667842745780945,
              -0.1302265226840973,
              -0.26327669620513916,
              -0.24313512444496155,
              -0.30278560519218445,
              0.07238221913576126,
              -0.1287127137184143,
              -0.9340483546257019,
              -1.3379764556884766,
              0.9827319383621216,
              0.54892897605896,
              -0.10971616953611374,
              -0.6171075105667114,
              -0.5080413818359375,
              -0.0501997247338295,
              -0.024491097778081894,
              0.31088095903396606,
              0.5082679390907288,
              0.3247469961643219,
              0.813618540763855,
              0.5735568404197693,
              -0.7474852204322815,
              -0.24811814725399017,
              -0.41842377185821533,
              0.06294403225183487,
              0.05161016434431076,
              0.3696111738681793,
              -0.1264074146747589,
              -0.13298377394676208,
              1.242944359779358,
              0.5122248530387878,
              -0.749439537525177,
              -0.36301887035369873,
              0.16821613907814026,
              0.21151721477508545,
              0.7282863259315491,
              0.052963126450777054,
              -0.10275523364543915,
              0.14491982758045197,
              0.8820213675498962,
              0.4066130220890045,
              -0.5290402173995972,
              -0.20855815708637238,
              0.1948043555021286,
              0.6417765617370605,
              0.11419936269521713,
              -0.15658871829509735,
              -0.059786926954984665,
              0.09983845055103302,
              0.71254962682724,
              -0.27218860387802124,
              -0.5096960067749023,
              -0.06866961717605591,
              -0.5674771666526794,
              -0.046196188777685165,
              -0.1898985654115677,
              -0.25218746066093445,
              -0.02710440754890442,
              -0.3527710735797882,
              0.09651342779397964,
              -0.19790320098400116,
              -0.6049669981002808,
              -0.5477157831192017,
              -0.3592981994152069,
              0.2052067667245865,
              -0.19727744162082672,
              -0.4235849976539612,
              -0.150003120303154,
              -0.20885074138641357,
              0.24806451797485352,
              0.13442152738571167,
              0.47620582580566406,
              -0.27431243658065796,
              -0.7953079342842102,
              -0.1826583296060562,
              0.11666715890169144,
              0.17035120725631714,
              -0.2973947525024414,
              -0.003963679540902376
          ],
          "bias": 0.20582419633865356
      },
      {
          "id": "NEURON_48529",
          "weights": [
              -0.47255298495292664,
              -0.4575307369232178,
              -0.35829195380210876,
              -0.18245956301689148,
              0.3020041584968567,
              0.6222892999649048,
              0.6113561391830444,
              0.5023638010025024,
              -0.5923271775245667,
              -0.6296753883361816,
              -0.46273523569107056,
              -0.27727097272872925,
              0.05981507524847984,
              0.21041619777679443,
              0.3490450084209442,
              0.1371198445558548,
              -0.11836410313844681,
              0.043558746576309204,
              -0.6340022087097168,
              -0.2650240957736969,
              -0.7750505805015564,
              -0.4917283058166504,
              -0.08986318111419678,
              0.8106322288513184,
              0.40357303619384766,
              -0.061288319528102875,
              -0.23078742623329163,
              -0.24212056398391724,
              0.058394819498062134,
              0.23050761222839355,
              -0.8085588812828064,
              0.25031983852386475,
              -0.19465574622154236,
              0.8547171354293823,
              0.06362400203943253,
              0.03095034882426262,
              -0.42977774143218994,
              -0.804210364818573,
              0.029892094433307648,
              0.5546064972877502,
              -0.917526125907898,
              0.12031728774309158,
              0.2083134800195694,
              0.01668987050652504,
              -0.24418984353542328,
              -0.34463003277778625,
              0.02557946741580963,
              -0.7352293729782104,
              0.2653420567512512,
              -0.1170109212398529,
              -0.8924500942230225,
              0.3984016180038452,
              0.33141544461250305,
              0.33387455344200134,
              0.0458587147295475,
              0.3980422019958496,
              -0.027050836011767387,
              -0.031884875148534775,
              0.021934794262051582,
              0.30549541115760803,
              0.05493488907814026,
              0.314456969499588,
              0.6470683217048645,
              -0.018404973670840263,
              -0.30599886178970337,
              0.06260344386100769,
              0.16415230929851532,
              0.364044189453125,
              0.025600247085094452,
              0.10131072252988815,
              -0.15440058708190918,
              0.2640845775604248,
              -0.16236759722232819,
              -0.3505433201789856,
              -0.06986868381500244,
              -0.3702757656574249,
              -0.3404836058616638,
              0.4319755434989929,
              0.05451563745737076,
              0.029612494632601738,
              -0.13858935236930847,
              0.3565773665904999,
              -0.038010191172361374,
              -0.043922729790210724,
              -0.45070579648017883,
              -0.40374433994293213,
              -0.3531664311885834,
              0.332881897687912,
              -0.04302670434117317,
              0.0353827103972435,
              -0.006501483265310526,
              0.48816391825675964,
              0.24473494291305542,
              0.24037916958332062,
              0.3836069405078888,
              -0.2568987309932709,
              -0.4373018741607666,
              -0.4701829254627228,
              0.3569447100162506,
              -0.15220080316066742
          ],
          "bias": -0.19950047135353088
      },
      {
          "id": "NEURON_99283",
          "weights": [
              -0.31862732768058777,
              0.46893206238746643,
              0.08207907527685165,
              0.4252960979938507,
              0.0012624887749552727,
              -0.17303964495658875,
              0.4080788791179657,
              0.24671724438667297,
              0.16111494600772858,
              0.2715720236301422,
              0.9093484878540039,
              0.7967953681945801,
              0.2622095048427582,
              0.13221637904644012,
              0.6490048170089722,
              0.4690392017364502,
              0.03670554980635643,
              -0.14152541756629944,
              0.05953870713710785,
              0.569973349571228,
              0.6488394737243652,
              0.5696397423744202,
              0.36875128746032715,
              0.23529839515686035,
              0.8379436731338501,
              0.49454769492149353,
              0.35707104206085205,
              0.22590450942516327,
              -0.08745989948511124,
              0.31751173734664917,
              -0.09186508506536484,
              0.07411796599626541,
              0.03191171959042549,
              0.7083064913749695,
              0.48907169699668884,
              0.3294476568698883,
              0.06935077905654907,
              0.6419361233711243,
              0.44639852643013,
              0.2690197229385376,
              0.3053146302700043,
              0.5039483308792114,
              0.3294711410999298,
              0.5776989459991455,
              -0.2384897619485855,
              -0.4104853570461273,
              0.013212918303906918,
              0.8434299230575562,
              0.43637585639953613,
              0.03572449833154678,
              -0.28267866373062134,
              -0.15247367322444916,
              0.10881316661834717,
              0.3124108910560608,
              -0.4542723596096039,
              -0.9258129596710205,
              0.12616056203842163,
              0.2193470597267151,
              0.23239369690418243,
              0.2091371864080429,
              -0.21625931560993195,
              0.4411487877368927,
              -0.12084189802408218,
              0.14525240659713745,
              -0.28661930561065674,
              -0.10712889581918716,
              0.7098990082740784,
              0.4584197998046875,
              0.06403055787086487,
              0.6423439979553223,
              -0.49672040343284607,
              -0.05876777693629265,
              -0.40608686208724976,
              0.15328370034694672,
              -0.08948241919279099,
              0.43303558230400085,
              0.7061381936073303,
              0.2523820996284485,
              0.23402279615402222,
              0.9345635771751404,
              0.32318350672721863,
              0.018828684464097023,
              -0.1986456662416458,
              0.20811358094215393,
              0.2515735924243927,
              0.2693749964237213,
              0.6405644416809082,
              0.3680902421474457,
              0.17755240201950073,
              0.3185719847679138,
              -0.1741654872894287,
              0.2408396601676941,
              0.14841079711914062,
              0.5642421245574951,
              0.36100447177886963,
              0.3339191973209381,
              0.25749197602272034,
              0.15582183003425598,
              -0.19609367847442627,
              -0.027049342170357704
          ],
          "bias": -0.0847712904214859
      },
      {
          "id": "NEURON_59534",
          "weights": [
              -0.22557997703552246,
              -0.18277950584888458,
              -0.14468447864055634,
              -0.2473195344209671,
              -0.2151150107383728,
              -0.35776287317276,
              -0.5912933945655823,
              0.1767248660326004,
              1.1425232887268066,
              0.5862894654273987,
              -0.23336943984031677,
              -0.06868379563093185,
              0.3397095799446106,
              0.25266098976135254,
              -0.2856534719467163,
              -0.299312025308609,
              0.11077731847763062,
              0.4977352023124695,
              0.1331835836172104,
              -0.5227880477905273,
              0.14076320827007294,
              -0.129700168967247,
              -0.2708284556865692,
              -0.10224699229001999,
              -0.15676771104335785,
              -0.31482282280921936,
              0.35083097219467163,
              0.0237593874335289,
              0.5194699764251709,
              0.4864668846130371,
              -0.13025163114070892,
              -0.05557258799672127,
              0.1435554176568985,
              -0.11748239398002625,
              -0.01946914754807949,
              -0.3609849214553833,
              -0.2201627939939499,
              -0.30796393752098083,
              -0.865069568157196,
              -0.3909406065940857,
              -0.16034285724163055,
              -0.060384638607501984,
              -0.8056167364120483,
              0.0016103475354611874,
              -0.37494826316833496,
              -0.30137696862220764,
              -0.5026764869689941,
              0.04059134051203728,
              -0.3857283890247345,
              0.2585214376449585,
              0.07062794268131256,
              0.06934678554534912,
              -0.387344628572464,
              0.022117726504802704,
              -0.14381760358810425,
              -0.15259680151939392,
              -0.26060545444488525,
              -0.33517053723335266,
              -0.46056225895881653,
              -0.761120617389679,
              0.257771372795105,
              0.12033839523792267,
              -0.1437733918428421,
              -0.2542736828327179,
              -0.0819559246301651,
              0.12991374731063843,
              0.23111021518707275,
              -0.1654992401599884,
              0.11711142957210541,
              0.000269124488113448,
              0.3086319863796234,
              0.4857461452484131,
              0.3650040924549103,
              0.6896690726280212,
              0.6188726425170898,
              0.5059252381324768,
              0.34797146916389465,
              0.5743300318717957,
              0.4342293441295624,
              0.8578622341156006,
              0.23323750495910645,
              0.4258993864059448,
              0.4900740087032318,
              0.38404610753059387,
              0.6604055762290955,
              0.6162968873977661,
              0.5165433287620544,
              0.46932297945022583,
              0.6872933506965637,
              0.7055419683456421,
              -0.30517399311065674,
              -0.06421712040901184,
              0.2402821034193039,
              0.4794609844684601,
              0.5823505520820618,
              0.4410243630409241,
              0.5299254059791565,
              0.5208696126937866,
              0.5812833905220032,
              0.6332955360412598
          ],
          "bias": 0.20107024908065796
      },
      {
          "id": "NEURON_51662",
          "weights": [
              -0.14668826758861542,
              0.0876314789056778,
              -0.2874452769756317,
              0.4571587145328522,
              0.2012759894132614,
              -0.2886059582233429,
              -0.7193184494972229,
              0.6158974766731262,
              0.1364840269088745,
              -0.5047881007194519,
              -0.2144796997308731,
              0.3069412410259247,
              -0.5185402035713196,
              0.2182149440050125,
              -0.1105642095208168,
              -0.2311837375164032,
              0.21683667600154877,
              0.5601656436920166,
              -0.44590362906455994,
              -0.27135947346687317,
              -0.2856541872024536,
              0.4725649356842041,
              -0.48566094040870667,
              0.5064550042152405,
              -0.05060839280486107,
              0.0026667783968150616,
              -0.13315147161483765,
              0.3635963797569275,
              -0.2651081085205078,
              -0.22637857496738434,
              -0.329976350069046,
              0.38123035430908203,
              -0.6182600259780884,
              0.4190044105052948,
              -0.14466916024684906,
              0.07142867892980576,
              -0.6723896265029907,
              0.569834291934967,
              0.013377221301198006,
              0.1672194004058838,
              -0.2100881189107895,
              0.44809582829475403,
              -0.5062231421470642,
              0.35044634342193604,
              -0.11935179680585861,
              -0.07897835969924927,
              -0.6690768003463745,
              0.9582324028015137,
              -0.18844367563724518,
              -0.18022415041923523,
              -0.11061429977416992,
              0.31617140769958496,
              -0.6547331809997559,
              0.7283980846405029,
              -0.04316334426403046,
              -0.08358289301395416,
              -0.31179818511009216,
              0.5714552998542786,
              -0.033253103494644165,
              0.25915655493736267,
              0.2910837233066559,
              -0.23090484738349915,
              -0.6659551858901978,
              0.602583110332489,
              -0.3057697117328644,
              -0.0643295869231224,
              -0.11188396066427231,
              0.37980619072914124,
              -0.17763322591781616,
              -0.4233737587928772,
              0.5155851244926453,
              -0.685262143611908,
              -0.7771004438400269,
              0.5238024592399597,
              -0.12470824271440506,
              -0.02573503367602825,
              -0.6272618770599365,
              0.20763267576694489,
              -0.07820038497447968,
              -0.23509229719638824,
              0.2606510818004608,
              -1.251028299331665,
              -0.14954441785812378,
              0.7376009821891785,
              -0.20814241468906403,
              0.35492995381355286,
              -0.5052568316459656,
              0.7550843358039856,
              -0.39907827973365784,
              -0.37648871541023254,
              -0.028274955227971077,
              -0.41689401865005493,
              -0.46095776557922363,
              0.8176625370979309,
              -0.09486030042171478,
              -0.2567901909351349,
              0.01266892347484827,
              0.584916353225708,
              -0.8410764932632446,
              0.1527969092130661
          ],
          "bias": -0.37791529297828674
      },
      {
          "id": "NEURON_16205",
          "weights": [
              0.0800439640879631,
              -0.3685077726840973,
              0.24935825169086456,
              0.39923518896102905,
              -0.6243429183959961,
              0.18310528993606567,
              0.41918304562568665,
              -0.15956352651119232,
              -0.3669101297855377,
              0.2512424886226654,
              0.34671154618263245,
              -0.40331780910491943,
              0.05142858996987343,
              0.4782649576663971,
              -0.6824373602867126,
              0.13672524690628052,
              0.35402315855026245,
              -0.5219519138336182,
              -0.022312384098768234,
              -0.0071396660059690475,
              0.6342166066169739,
              -0.3923283815383911,
              0.09778286516666412,
              0.6152560710906982,
              -0.31362634897232056,
              -0.43968483805656433,
              0.6868193745613098,
              0.028336353600025177,
              -0.3953538239002228,
              0.6808781623840332,
              0.3712354004383087,
              -0.7768723964691162,
              0.04743414372205734,
              0.2725629210472107,
              -0.061337824910879135,
              -0.043089013546705246,
              0.38736364245414734,
              -0.41231977939605713,
              -0.012884901836514473,
              0.6242905855178833,
              0.4994414448738098,
              -0.46785974502563477,
              -0.49584653973579407,
              0.5215433835983276,
              -0.6649057269096375,
              -0.2948189973831177,
              0.3318174183368683,
              -0.3813716769218445,
              -1.2859987020492554,
              0.8584274649620056,
              0.17636607587337494,
              -0.2520517408847809,
              0.09859389811754227,
              0.40305888652801514,
              -0.9615359902381897,
              0.14481055736541748,
              0.20989835262298584,
              -0.678954005241394,
              -1.1125893592834473,
              0.5816954374313354,
              0.191392183303833,
              -0.20964555442333221,
              0.06814128905534744,
              0.20060937106609344,
              -0.47287076711654663,
              -0.11319134384393692,
              0.3661275804042816,
              -1.1284747123718262,
              -0.5992279648780823,
              0.8559383749961853,
              0.32765814661979675,
              -0.09683375060558319,
              -0.026595324277877808,
              0.2892022430896759,
              -0.21939580142498016,
              0.3284302353858948,
              0.24923427402973175,
              -0.5264995694160461,
              0.18596574664115906,
              0.34398841857910156,
              -0.38625195622444153,
              -0.5467873215675354,
              0.12461089342832565,
              -0.03035999834537506,
              -0.29583027958869934,
              0.3135834038257599,
              0.33754146099090576,
              -0.4336206614971161,
              -0.029089517891407013,
              0.7953800559043884,
              0.4085521101951599,
              -0.06621572375297546,
              0.0837518647313118,
              -0.14231239259243011,
              -0.18753638863563538,
              0.01202003750950098,
              0.1722162663936615,
              -0.5041267275810242,
              0.2805855870246887,
              0.43630704283714294
          ],
          "bias": -0.12707847356796265
      },
      {
          "id": "NEURON_74102",
          "weights": [
              -0.5421701073646545,
              -1.6631674766540527,
              -0.35821807384490967,
              -0.5518986582756042,
              0.018595529720187187,
              -0.7019355893135071,
              -0.7590592503547668,
              -1.7336673736572266,
              -1.2013920545578003,
              -0.4653072953224182,
              0.6030228137969971,
              0.7784543633460999,
              0.1136784479022026,
              -0.2737826406955719,
              -0.05967823788523674,
              -0.11273147165775299,
              0.023735573515295982,
              -0.6931704878807068,
              -0.6039348840713501,
              -0.6123034358024597,
              -0.6237229108810425,
              0.08816583454608917,
              -0.00007930584979476407,
              0.09038017690181732,
              -0.014054778963327408,
              -0.2837926745414734,
              -0.4441013038158417,
              -0.3142053484916687,
              -0.1853264570236206,
              -0.6748343110084534,
              -0.3584626615047455,
              0.004324040375649929,
              -0.16573116183280945,
              0.12286753207445145,
              -0.01800893433392048,
              -0.0692821741104126,
              0.22844503819942474,
              0.08621940016746521,
              -0.5036939978599548,
              -1.4283469915390015,
              0.3627977967262268,
              0.33051133155822754,
              -0.10629407316446304,
              0.017349964007735252,
              0.07604024559259415,
              0.6252616047859192,
              0.9071196913719177,
              0.47549745440483093,
              0.20784467458724976,
              0.05221959948539734,
              0.32754966616630554,
              0.03843527287244797,
              -0.5212476253509521,
              -0.19952867925167084,
              0.006134477909654379,
              0.7376254200935364,
              0.5917802453041077,
              0.3161320686340332,
              0.11059602349996567,
              0.23993055522441864,
              -0.1985284686088562,
              0.06418294459581375,
              -0.5162196755409241,
              -0.5537182688713074,
              0.14704537391662598,
              0.018028659746050835,
              0.035891931504011154,
              -0.4525897800922394,
              0.13178813457489014,
              0.08093379437923431,
              0.03348200395703316,
              -0.33499789237976074,
              -0.44579654932022095,
              0.4820424020290375,
              0.11386658251285553,
              -0.1794755905866623,
              -0.2857174873352051,
              -0.4744074046611786,
              -0.08999291062355042,
              -0.8184625506401062,
              -0.6257882714271545,
              -0.5349118709564209,
              0.6092687249183655,
              0.5049988627433777,
              0.385027676820755,
              -0.11424746364355087,
              -0.03129205480217934,
              -0.0823439508676529,
              0.07254202663898468,
              -0.0018791621550917625,
              -0.9128468036651611,
              0.32593482732772827,
              0.6255857944488525,
              0.5074715614318848,
              0.04984195530414581,
              -0.06204628571867943,
              -0.3400442898273468,
              0.3178362250328064,
              0.46895429491996765,
              0.23154933750629425
          ],
          "bias": 0.32056760787963867
      },
      {
          "id": "NEURON_92492",
          "weights": [
              -0.22905811667442322,
              -0.4393434226512909,
              0.13035789132118225,
              0.44705644249916077,
              -0.24221807718276978,
              -0.18652254343032837,
              0.15478374063968658,
              0.09936019778251648,
              -0.16380298137664795,
              0.11814136803150177,
              -0.26241472363471985,
              -0.8620975017547607,
              0.18460647761821747,
              -0.27024945616722107,
              -0.2945398986339569,
              0.3194257915019989,
              0.3895092010498047,
              -0.38927626609802246,
              -0.18644586205482483,
              0.1874857097864151,
              0.04028882086277008,
              -0.01222839206457138,
              0.4553714096546173,
              -0.19858244061470032,
              -0.35884130001068115,
              -0.12210813909769058,
              -0.19075289368629456,
              -0.2945299744606018,
              -0.5260995626449585,
              -0.3624363839626312,
              -0.3409442603588104,
              -1.2115561962127686,
              -0.2893718183040619,
              0.10403004288673401,
              -0.10990700870752335,
              0.004288839641958475,
              -0.11766918003559113,
              0.061827726662158966,
              0.6525457501411438,
              0.0770009309053421,
              0.3594357967376709,
              0.1545395851135254,
              -0.03116699866950512,
              0.06666258722543716,
              -0.26971670985221863,
              0.13323982059955597,
              0.010280837304890156,
              -0.09728454798460007,
              -0.4109836518764496,
              0.02160472422838211,
              0.35454633831977844,
              0.04692457616329193,
              -0.5886502861976624,
              -0.12373638898134232,
              0.3676506578922272,
              0.08859294652938843,
              0.28738391399383545,
              0.45443248748779297,
              0.23554877936840057,
              0.7944755554199219,
              0.22444425523281097,
              0.5042762756347656,
              0.10927438735961914,
              -0.39072826504707336,
              -1.0818020105361938,
              -0.7022271156311035,
              -0.4657422602176666,
              -0.6419522762298584,
              -0.9243499040603638,
              -0.08773212879896164,
              -0.3390757739543915,
              -0.40263330936431885,
              0.3341543674468994,
              0.8128271102905273,
              0.822141706943512,
              0.41012024879455566,
              0.1520380675792694,
              -0.08993060141801834,
              0.6412150263786316,
              -0.43157991766929626,
              -0.008987615816295147,
              -0.0267151091247797,
              -1.0534754991531372,
              -0.6899366974830627,
              -0.3951151371002197,
              -0.5656551122665405,
              -1.013722538948059,
              -0.6604162454605103,
              -0.867337703704834,
              -0.5343581438064575,
              0.48125001788139343,
              0.06416492909193039,
              -0.08386698365211487,
              -0.13192814588546753,
              0.26964378356933594,
              0.5395109057426453,
              0.265777051448822,
              0.09778442233800888,
              0.37900978326797485,
              0.8212243914604187
          ],
          "bias": 0.3698439598083496
      },
      {
          "id": "NEURON_10586",
          "weights": [
              -0.32927316427230835,
              -0.510905385017395,
              -0.46443256735801697,
              -0.1115335002541542,
              -0.41887977719306946,
              -0.22778861224651337,
              0.02163400687277317,
              0.074888214468956,
              -0.17276960611343384,
              -0.4342306852340698,
              0.13711562752723694,
              0.03890793025493622,
              -0.2639332413673401,
              -0.28626206517219543,
              -0.12126582115888596,
              0.32510724663734436,
              0.46987462043762207,
              -0.07185842096805573,
              -0.6885274052619934,
              -0.38562193512916565,
              -0.13606546819210052,
              0.009341936558485031,
              0.1686682403087616,
              -0.08072348684072495,
              -0.165486142039299,
              0.3737771809101105,
              0.2739032804965973,
              -0.2928794026374817,
              -0.5290558338165283,
              -0.2850263714790344,
              -0.148002490401268,
              -0.2745905816555023,
              -0.4865833520889282,
              0.15180999040603638,
              0.4903649389743805,
              0.5229542255401611,
              -0.30870941281318665,
              -0.2432912290096283,
              0.11422480642795563,
              0.49850839376449585,
              0.5361990928649902,
              -0.11055509746074677,
              -0.7246093153953552,
              0.5880816578865051,
              0.2251238226890564,
              -0.19017572700977325,
              -0.7976553440093994,
              -0.5213565826416016,
              0.324853777885437,
              0.3691195547580719,
              -0.08720297366380692,
              -0.15057365596294403,
              -0.8402096033096313,
              0.40239179134368896,
              0.47950616478919983,
              -0.7524818181991577,
              -1.1135590076446533,
              -0.2784065306186676,
              0.24070124328136444,
              -0.39434611797332764,
              -0.5903919339179993,
              -0.4852270185947418,
              -0.05468756705522537,
              0.7668991684913635,
              0.004725535865873098,
              -0.13946257531642914,
              -0.18403105437755585,
              0.5223115682601929,
              0.12753941118717194,
              -0.03203273564577103,
              -0.7673956155776978,
              -0.11946070194244385,
              0.1530284732580185,
              0.02663874626159668,
              -0.6230854988098145,
              0.04477526247501373,
              0.21046185493469238,
              0.36050063371658325,
              -0.19005610048770905,
              -0.03046577237546444,
              0.20175385475158691,
              0.6269189119338989,
              0.07877546548843384,
              -0.3634478747844696,
              -0.217152401804924,
              0.4745739996433258,
              -0.09419851750135422,
              0.43855807185173035,
              0.35124337673187256,
              -0.13538415729999542,
              0.4864017963409424,
              0.41159704327583313,
              -0.5239484310150146,
              -0.9076349139213562,
              -0.3351348638534546,
              0.3567567765712738,
              0.03064587526023388,
              0.1994105726480484,
              0.08234617114067078,
              -0.30052444338798523
          ],
          "bias": 0.6289244890213013
      },
      {
          "id": "NEURON_23355",
          "weights": [
              -0.013383109122514725,
              -0.29051074385643005,
              -0.3859662413597107,
              -0.4165492355823517,
              -0.3380994200706482,
              -0.3425053060054779,
              -0.20054922997951508,
              0.15120139718055725,
              0.44079020619392395,
              0.15233707427978516,
              -0.727222204208374,
              -0.35416820645332336,
              -0.13065767288208008,
              -0.27953651547431946,
              -0.306259423494339,
              0.36911171674728394,
              -0.2538357973098755,
              0.09338831156492233,
              0.057242438197135925,
              0.2848603129386902,
              -0.9857456088066101,
              -0.146345853805542,
              0.004695429932326078,
              -0.3835579752922058,
              0.1922747790813446,
              0.31712305545806885,
              0.13994371891021729,
              -0.05453149974346161,
              0.37058526277542114,
              0.4301239550113678,
              -1.437078833580017,
              0.18620070815086365,
              0.007350530941039324,
              0.3170859217643738,
              0.45089462399482727,
              0.3033628463745117,
              0.15478527545928955,
              0.17392830550670624,
              0.4710340201854706,
              0.8231282830238342,
              -0.5645202994346619,
              0.04124767705798149,
              0.15896567702293396,
              0.24500715732574463,
              0.31194332242012024,
              0.6074512004852295,
              -0.13119392096996307,
              0.1739734262228012,
              -0.0068057444877922535,
              0.6140250563621521,
              0.13970981538295746,
              0.1933184415102005,
              0.1896156519651413,
              0.3362067937850952,
              0.19863729178905487,
              0.5327069759368896,
              -0.40478500723838806,
              0.378995805978775,
              -0.09448428452014923,
              0.23268041014671326,
              0.4961704611778259,
              0.45802104473114014,
              0.04363807290792465,
              0.338357537984848,
              0.27323463559150696,
              0.11341733485460281,
              -0.34045568108558655,
              0.22645507752895355,
              0.2848970592021942,
              -0.22992955148220062,
              0.6481340527534485,
              0.13375705480575562,
              -0.21031299233436584,
              0.008559704758226871,
              0.4774076044559479,
              0.16854678094387054,
              0.04029349237680435,
              -0.202292799949646,
              -0.07130693644285202,
              -0.2685476243495941,
              0.21646460890769958,
              0.024661673232913017,
              -0.21691356599330902,
              -0.10647399723529816,
              0.5090903043746948,
              0.2738325297832489,
              0.24598070979118347,
              -0.32735562324523926,
              0.354499489068985,
              -0.7250721454620361,
              -0.04399954155087471,
              0.29978248476982117,
              0.038940735161304474,
              0.003797843586653471,
              0.3393911123275757,
              -0.1540576070547104,
              -0.17457470297813416,
              -0.1209765300154686,
              0.012454601004719734,
              -1.0199285745620728
          ],
          "bias": -0.9755763411521912
      },
      {
          "id": "NEURON_98582",
          "weights": [
              0.19953016936779022,
              0.5044538378715515,
              0.6032968759536743,
              0.2555111050605774,
              0.48829612135887146,
              0.06966691464185715,
              0.05956887826323509,
              0.3530493378639221,
              0.7220506072044373,
              -0.20687754452228546,
              0.40988385677337646,
              0.35127052664756775,
              0.7069507837295532,
              -0.0079837990924716,
              0.3771463930606842,
              0.35040536522865295,
              0.4279100298881531,
              0.560813307762146,
              0.41872426867485046,
              0.2868462800979614,
              0.7400487065315247,
              0.7422239184379578,
              0.5954672694206238,
              0.303964227437973,
              0.45572084188461304,
              0.4063541889190674,
              0.19285845756530762,
              0.37992262840270996,
              0.42113229632377625,
              0.04759225249290466,
              0.3976856470108032,
              0.020746273919939995,
              -0.2565680146217346,
              -0.20048746466636658,
              0.3609420359134674,
              0.09194865077733994,
              0.1590459942817688,
              0.18601678311824799,
              0.18066583573818207,
              -0.12088507413864136,
              -1.136839747428894,
              -0.3305455446243286,
              -0.7002983689308167,
              -0.6851096153259277,
              -0.3778440058231354,
              -0.24840416014194489,
              -0.6354445815086365,
              -0.4250437617301941,
              -0.317255437374115,
              -0.39396750926971436,
              -0.54605633020401,
              -0.09914145618677139,
              -0.0012009688653051853,
              -0.4050924479961395,
              -0.2120421677827835,
              -0.7523809671401978,
              -0.4448607861995697,
              -0.42496928572654724,
              -0.1808924823999405,
              -0.44573521614074707,
              0.463474839925766,
              -0.11879472434520721,
              -0.3169027268886566,
              -0.3840794861316681,
              -0.25501835346221924,
              -0.8631097078323364,
              -0.4344940483570099,
              -0.1571314036846161,
              0.18899333477020264,
              -1.1590787172317505,
              0.5027065873146057,
              -0.07594825327396393,
              0.20078454911708832,
              -0.10443709045648575,
              -0.9822668433189392,
              -0.5467318296432495,
              -0.13458141684532166,
              0.27515366673469543,
              0.3424793481826782,
              -1.473536491394043,
              -0.39482977986335754,
              -0.15145890414714813,
              -0.3717489242553711,
              -0.7191731929779053,
              -0.3194650411605835,
              0.17685583233833313,
              0.07834943383932114,
              -0.15379227697849274,
              0.19687844812870026,
              -1.264055848121643,
              -1.1443842649459839,
              -0.3316018283367157,
              0.4223591387271881,
              -0.4765609800815582,
              -0.08605769276618958,
              -0.39047810435295105,
              -0.25928831100463867,
              0.48360610008239746,
              -0.2505820095539093,
              -0.7689161896705627
          ],
          "bias": -0.2525671124458313
      },
      {
          "id": "NEURON_61905",
          "weights": [
              -0.7543232440948486,
              -0.06468624621629715,
              0.22193185985088348,
              -0.05060426518321037,
              -0.28303399682044983,
              -0.29781627655029297,
              0.5322251915931702,
              -0.024416029453277588,
              0.3822955787181854,
              -0.42396968603134155,
              0.03665142133831978,
              0.6084102988243103,
              -0.0439922995865345,
              -0.320556640625,
              0.24158310890197754,
              -0.013893199153244495,
              -0.36385831236839294,
              0.22261539101600647,
              -0.055440519005060196,
              -1.0179288387298584,
              0.47012609243392944,
              0.5165700316429138,
              -0.45547160506248474,
              0.0969623252749443,
              0.3481641411781311,
              0.09644367545843124,
              -0.06004077568650246,
              0.08221731334924698,
              0.3272589147090912,
              -0.639201283454895,
              0.9631630182266235,
              0.4966281056404114,
              -0.0539260134100914,
              0.0886542871594429,
              0.20178040862083435,
              0.2671642005443573,
              0.2351287454366684,
              0.3085583448410034,
              0.10688506066799164,
              -0.9090019464492798,
              0.9351706504821777,
              0.4771982729434967,
              -0.39634591341018677,
              -0.09462939202785492,
              0.3742721974849701,
              0.25432419776916504,
              -0.20478683710098267,
              0.22894443571567535,
              0.1451156735420227,
              -0.3151024580001831,
              0.4889335334300995,
              0.1771191656589508,
              -0.31887754797935486,
              -0.1667349934577942,
              -0.08077836781740189,
              -0.20836614072322845,
              0.1971377432346344,
              0.20877514779567719,
              -0.6016020178794861,
              0.02818930707871914,
              0.2756020128726959,
              0.36805295944213867,
              0.17548388242721558,
              -0.25991055369377136,
              0.08991684764623642,
              0.18968510627746582,
              0.4759221076965332,
              0.28735804557800293,
              -0.3802390694618225,
              -0.8477431535720825,
              0.016076717525720596,
              0.18096761405467987,
              -0.04101388156414032,
              -0.027783969417214394,
              -0.20004716515541077,
              -0.013261732645332813,
              0.43356531858444214,
              -0.08232662081718445,
              -0.40894803404808044,
              -1.2938289642333984,
              0.24689245223999023,
              0.5339526534080505,
              0.43327462673187256,
              -0.6566120982170105,
              -0.31310728192329407,
              -0.05627947300672531,
              0.5767216086387634,
              0.060089319944381714,
              -0.8678122758865356,
              -1.2572592496871948,
              0.3293437361717224,
              -0.026370324194431305,
              -0.40236103534698486,
              -0.4947291612625122,
              0.06563320755958557,
              0.6964836120605469,
              0.24904046952724457,
              -0.9802172183990479,
              -1.3525621891021729,
              -0.6862727403640747
          ],
          "bias": -0.9950145483016968
      },
      {
          "id": "NEURON_38452",
          "weights": [
              0.6474184393882751,
              1.3073012828826904,
              0.5657343864440918,
              0.1833847016096115,
              0.5459319949150085,
              0.07083607465028763,
              0.794061005115509,
              0.37272924184799194,
              -0.2428448647260666,
              0.26145392656326294,
              -0.32606130838394165,
              -0.41277995705604553,
              -0.5123479962348938,
              -0.07822342962026596,
              -0.05837409198284149,
              0.09458611905574799,
              -0.6849838495254517,
              -0.4500192403793335,
              0.17992693185806274,
              -0.686861515045166,
              0.5324969291687012,
              0.32221630215644836,
              0.30636489391326904,
              0.36263933777809143,
              0.3777272701263428,
              0.3330480456352234,
              0.5657323598861694,
              0.5968634486198425,
              0.056679122149944305,
              0.5054454803466797,
              -0.5113295316696167,
              -0.6669904589653015,
              -0.506354033946991,
              -0.06792828440666199,
              -0.3094502091407776,
              -0.06993978470563889,
              0.06617137044668198,
              0.11714056879281998,
              0.20766162872314453,
              0.3780323266983032,
              -0.5251612067222595,
              -0.32899442315101624,
              -0.324869304895401,
              -0.1040535420179367,
              -0.4202655255794525,
              0.020719066262245178,
              -0.5951430201530457,
              -0.39743202924728394,
              -0.1790226846933365,
              -0.31057897210121155,
              -0.05815965309739113,
              0.12301870435476303,
              0.27170735597610474,
              0.49909013509750366,
              0.23378220200538635,
              0.17549875378608704,
              -0.595880389213562,
              -0.01875513233244419,
              0.6612796783447266,
              0.4717915654182434,
              -0.904181182384491,
              -0.9848958253860474,
              -0.676466703414917,
              -0.2120884358882904,
              0.26694661378860474,
              -0.4596121609210968,
              -0.45383304357528687,
              -0.21645303070545197,
              -0.015622895210981369,
              0.2708989083766937,
              0.4770949184894562,
              -0.0397971086204052,
              0.26182931661605835,
              0.4030936062335968,
              -0.07304393500089645,
              -0.20923438668251038,
              -0.02552555315196514,
              0.283534973859787,
              -0.2969263792037964,
              0.016087204217910767,
              -0.9173532128334045,
              0.12628836929798126,
              0.04355725273489952,
              0.23916912078857422,
              -0.08425706624984741,
              0.4050942659378052,
              0.06602536886930466,
              -0.015886470675468445,
              -0.1453709900379181,
              -0.10621725767850876,
              0.6993640661239624,
              0.9862158894538879,
              0.36859211325645447,
              0.11153779178857803,
              0.09624185413122177,
              0.2121577113866806,
              0.4302601218223572,
              0.1757832169532776,
              -0.07224657386541367,
              0.10450980812311172
          ],
          "bias": 0.23118731379508972
      },
      {
          "id": "NEURON_20817",
          "weights": [
              1.1105650663375854,
              0.9488616585731506,
              0.2526306211948395,
              0.21343493461608887,
              0.4957800507545471,
              0.3031245172023773,
              0.19736221432685852,
              0.35461264848709106,
              0.17352379858493805,
              0.2674863934516907,
              -0.6088111996650696,
              -0.6067632436752319,
              0.06435112655162811,
              0.574087917804718,
              0.5796946287155151,
              0.2566900849342346,
              0.2621307969093323,
              0.3752584159374237,
              0.2946391999721527,
              0.2431381493806839,
              0.023121727630496025,
              0.39348065853118896,
              0.3718944787979126,
              0.3218083679676056,
              0.013218309730291367,
              0.35129866003990173,
              0.2673512399196625,
              0.14360424876213074,
              -0.007523521780967712,
              0.6863121390342712,
              -0.6148688793182373,
              -0.8519925475120544,
              -0.511833667755127,
              -0.8847742676734924,
              -0.9188591241836548,
              -0.22933624684810638,
              -0.3154090344905853,
              -0.6191655397415161,
              -0.5358023047447205,
              -0.1370270848274231,
              -0.40244948863983154,
              0.6776732802391052,
              -0.08929890394210815,
              -0.46017858386039734,
              -0.25992345809936523,
              -0.5011945366859436,
              -0.1390344500541687,
              -0.033013585954904556,
              -0.02700497955083847,
              0.054837655276060104,
              -0.7663217186927795,
              0.11626134812831879,
              -0.4032357633113861,
              0.15086936950683594,
              -0.3687109053134918,
              0.06715726852416992,
              0.08097178488969803,
              -0.0004890343407168984,
              -0.21909815073013306,
              0.24224665760993958,
              0.9708585739135742,
              -0.5322693586349487,
              0.6180102825164795,
              0.12851004302501678,
              -0.27356457710266113,
              0.16228081285953522,
              -0.016443682834506035,
              -0.1140844076871872,
              -0.09123311936855316,
              0.13394007086753845,
              -0.43222981691360474,
              0.3149290382862091,
              0.1103924885392189,
              -0.47888901829719543,
              0.1748991459608078,
              0.05549413710832596,
              -0.00027865858282893896,
              0.07462173700332642,
              0.05431830883026123,
              -0.0993000715970993,
              0.2774047255516052,
              0.3357250988483429,
              -0.8559515476226807,
              -0.4070254862308502,
