import {
  ClassificationType,
  NetworkType,
  create_network,
  relu_activation,
  sigmoid_activation,
  softmax_activation,
} from "./network";

// * --------- NETWORK V1 ---------
// Weights of V1 network
const WEIGHTS_V1 = [
  [
    [0.34660286, -0.01123584],
    [-0.16000803, 0.37327516],
    [-0.20330293, -0.285043],
    [0.03866423, 0.00664284],
  ], // First Layer
  [[-0.819887, -0.60944384, -0.60550654, 0.81135994]], // Output Layer
];

// Bias of V1 Network
const BIAS_V1 = [[-1.3854994, -1.2200477, -0.6707291, 2.2454503], [1.962239]];
// The thresholds of each layer that cause neuron to glow (not including input)

// Compiled network
const NETWORK_V1 = [
  [
      {
          "id": "NEURON 1-0",
          "weights": [
              0.34660286,
              -0.01123584
          ],
          "bias": -1.3854994
      },
      {
          "id": "NEURON 1-1",
          "weights": [
              -0.16000803,
              0.37327516
          ],
          "bias": -1.2200477
      },
      {
          "id": "NEURON 1-2",
          "weights": [
              -0.20330293,
              -0.285043
          ],
          "bias": -0.6707291
      },
      {
          "id": "NEURON 1-3",
          "weights": [
              0.03866423,
              0.00664284
          ],
          "bias": 2.2454503
      }
  ],
  [
      {
          "id": "NEURON 2-0",
          "weights": [
              -0.819887,
              -0.60944384,
              -0.60550654,
              0.81135994
          ],
          "bias": 1.962239
      }
  ]
];


// * --------- NETWORK V2 ---------
const WEIGHTS_V2 = [[[-0.3873579800128937, 0.11517631262540817], [0.614243745803833, 0.2951076030731201], [0.11363153159618378, -1.0761053562164307], [0.04073479026556015, 0.399644672870636], [-0.5934334397315979, 1.18208646774292], [0.4379194378852844, -0.35193201899528503]], [[0.5710098147392273, 0.3882921040058136, -0.10278745740652084, -0.10160224139690399, 0.16939763724803925, 0.5367891788482666], [0.13760419189929962, 0.8178669214248657, 0.11588475853204727, -0.8679006099700928, -0.7209622859954834, 0.12186729162931442], [-0.04270659014582634, 0.5553534626960754, -0.8777227401733398, -0.28468871116638184, 0.4816727638244629, -1.0839409828186035], [-0.01781637966632843, -1.1269567012786865, 0.9764573574066162, 0.802203893661499, -0.037776872515678406, -0.40571531653404236]], [[-0.42266058921813965, 1.2347575426101685, -1.5079405307769775, 1.6218386888504028]]]
const BIAS_V2 = [[-0.24653266370296478, -1.276637077331543, 0.0003502338076941669, 2.516817092895508, -0.9684765338897705, -0.2313208132982254], [-0.0631561204791069, -1.3891478776931763, -0.8605103492736816, 1.6320576667785645], [-0.47292324900627136]]

const NETWORK_V2 = [
    [
        {
            "id": "NEURON 1-0",
            "weights": [
                -0.3873579800128937,
                0.11517631262540817
            ],
            "bias": -0.24653266370296478
        },
        {
            "id": "NEURON 1-1",
            "weights": [
                0.614243745803833,
                0.2951076030731201
            ],
            "bias": -1.276637077331543
        },
        {
            "id": "NEURON 1-2",
            "weights": [
                0.11363153159618378,
                -1.0761053562164307
            ],
            "bias": 0.0003502338076941669
        },
        {
            "id": "NEURON 1-3",
            "weights": [
                0.04073479026556015,
                0.399644672870636
            ],
            "bias": 2.516817092895508
        },
        {
            "id": "NEURON 1-4",
            "weights": [
                -0.5934334397315979,
                1.18208646774292
            ],
            "bias": -0.9684765338897705
        },
        {
            "id": "NEURON 1-5",
            "weights": [
                0.4379194378852844,
                -0.35193201899528503
            ],
            "bias": -0.2313208132982254
        }
    ],
    [
        {
            "id": "NEURON 2-0",
            "weights": [
                0.5710098147392273,
                0.3882921040058136,
                -0.10278745740652084,
                -0.10160224139690399,
                0.16939763724803925,
                0.5367891788482666
            ],
            "bias": -0.0631561204791069
        },
        {
            "id": "NEURON 2-1",
            "weights": [
                0.13760419189929962,
                0.8178669214248657,
                0.11588475853204727,
                -0.8679006099700928,
                -0.7209622859954834,
                0.12186729162931442
            ],
            "bias": -1.3891478776931763
        },
        {
            "id": "NEURON 2-2",
            "weights": [
                -0.04270659014582634,
                0.5553534626960754,
                -0.8777227401733398,
                -0.28468871116638184,
                0.4816727638244629,
                -1.0839409828186035
            ],
            "bias": -0.8605103492736816
        },
        {
            "id": "NEURON 2-3",
            "weights": [
                -0.01781637966632843,
                -1.1269567012786865,
                0.9764573574066162,
                0.802203893661499,
                -0.037776872515678406,
                -0.40571531653404236
            ],
            "bias": 1.6320576667785645
        }
    ],
    [
        {
            "id": "NEURON 3-0",
            "weights": [
                -0.42266058921813965,
                1.2347575426101685,
                -1.5079405307769775,
                1.6218386888504028
            ],
            "bias": -0.47292324900627136
        }
    ]
]; 
// const NETWORK_V2 = create_network(WEIGHTS_V2, BIAS_V2);
// console.log(NETWORK_V2);

// ---------------- NETWORk V3 ---------------
const WEIGHTS_V3 = [[[0.5700357556343079, 0.9445970058441162], [0.7704477310180664, -0.5656397342681885], [-0.45849865674972534, -0.43449878692626953], [0.4559835195541382, -0.6493156552314758], [-0.19658440351486206, -0.9794142842292786], [0.7151897549629211, 0.3464324474334717], [0.7683113217353821, -0.12108679860830307]], [[0.23384816944599152, -0.007374068256467581, -0.3804263770580292, 0.6649336218833923, -0.9843891859054565, 0.1991407722234726, 0.02253819815814495], [0.48330432176589966, -0.5530012249946594, 0.09168367087841034, -0.15553081035614014, -0.5118401050567627, -0.13800789415836334, -0.5778377056121826], [-0.08419349789619446, -0.20296929776668549, -0.0029813034925609827, 0.7226585745811462, -0.2637653052806854, -0.7098129987716675, -0.8354832530021667], [-0.20336444675922394, 0.7325741648674011, 1.1324113607406616, 0.19274908304214478, 0.5487991571426392, -0.095516636967659, -0.4284857511520386], [0.17905446887016296, -0.15015748143196106, -0.2818557024002075, -0.09583330899477005, 0.520337700843811, -0.17346589267253876, 0.5799183249473572]], [[0.5744307637214661, 1.0830596685409546, 0.014181721955537796, -0.059662047773599625, -0.7851768136024475], [-0.4644201099872589, 0.9975998401641846, 1.7004321813583374, -0.8017487525939941, 0.6942691206932068], [0.5060252547264099, -0.49310338497161865, -0.9871588349342346, 0.7833588719367981, -0.1955273449420929], [-0.7999966144561768, 0.4967690408229828, 0.1428569257259369, 0.7284736633300781, 0.9750717878341675]], [[-1.013994812965393, -2.145113706588745, -0.8106611371040344, 0.4720994532108307], [-1.3687843084335327, 0.9646176695823669, -1.0595996379852295, -0.40367475152015686], [1.0652271509170532, -0.2199261486530304, 0.7753706574440002, -0.42263558506965637]]]

const BIAS_V3 = [[0.3706751763820648, 0.36215925216674805, -0.9573341012001038, 0.18104976415634155, 0.06287729740142822, -0.8772092461585999, 0.24013663828372955], [-0.9137563109397888, 0.7208973169326782, 1.1586940288543701, -0.35044097900390625, 1.003308653831482], [-0.4662706255912781, 0.8599295020103455, -1.2136473655700684, 0.7672531604766846], [0.5797128081321716, 0.603725790977478, -1.2813533544540405]]


// const NETWORK_V3 = create_network(WEIGHTS_V3, BIAS_V3);
// console.log(NETWORK_V3);

const NETWORK_V3 = [
    [
        {
            "id": "NEURON 1-0",
            "weights": [
                0.5700357556343079,
                0.9445970058441162
            ],
            "bias": 0.3706751763820648
        },
        {
            "id": "NEURON 1-1",
            "weights": [
                0.7704477310180664,
                -0.5656397342681885
            ],
            "bias": 0.36215925216674805
        },
        {
            "id": "NEURON 1-2",
            "weights": [
                -0.45849865674972534,
                -0.43449878692626953
            ],
            "bias": -0.9573341012001038
        },
        {
            "id": "NEURON 1-3",
            "weights": [
                0.4559835195541382,
                -0.6493156552314758
            ],
            "bias": 0.18104976415634155
        },
        {
            "id": "NEURON 1-4",
            "weights": [
                -0.19658440351486206,
                -0.9794142842292786
            ],
            "bias": 0.06287729740142822
        },
        {
            "id": "NEURON 1-5",
            "weights": [
                0.7151897549629211,
                0.3464324474334717
            ],
            "bias": -0.8772092461585999
        },
        {
            "id": "NEURON 1-6",
            "weights": [
                0.7683113217353821,
                -0.12108679860830307
            ],
            "bias": 0.24013663828372955
        }
    ],
    [
        {
            "id": "NEURON 2-0",
            "weights": [
                0.23384816944599152,
                -0.007374068256467581,
                -0.3804263770580292,
                0.6649336218833923,
                -0.9843891859054565,
                0.1991407722234726,
                0.02253819815814495
            ],
            "bias": -0.9137563109397888
        },
        {
            "id": "NEURON 2-1",
            "weights": [
                0.48330432176589966,
                -0.5530012249946594,
                0.09168367087841034,
                -0.15553081035614014,
                -0.5118401050567627,
                -0.13800789415836334,
                -0.5778377056121826
            ],
            "bias": 0.7208973169326782
        },
        {
            "id": "NEURON 2-2",
            "weights": [
                -0.08419349789619446,
                -0.20296929776668549,
                -0.0029813034925609827,
                0.7226585745811462,
                -0.2637653052806854,
                -0.7098129987716675,
                -0.8354832530021667
            ],
            "bias": 1.1586940288543701
        },
        {
            "id": "NEURON 2-3",
            "weights": [
                -0.20336444675922394,
                0.7325741648674011,
                1.1324113607406616,
                0.19274908304214478,
                0.5487991571426392,
                -0.095516636967659,
                -0.4284857511520386
            ],
            "bias": -0.35044097900390625
        },
        {
            "id": "NEURON 2-4",
            "weights": [
                0.17905446887016296,
                -0.15015748143196106,
                -0.2818557024002075,
                -0.09583330899477005,
                0.520337700843811,
                -0.17346589267253876,
                0.5799183249473572
            ],
            "bias": 1.003308653831482
        }
    ],
    [
        {
            "id": "NEURON 3-0",
            "weights": [
                0.5744307637214661,
                1.0830596685409546,
                0.014181721955537796,
                -0.059662047773599625,
                -0.7851768136024475
            ],
            "bias": -0.4662706255912781
        },
        {
            "id": "NEURON 3-1",
            "weights": [
                -0.4644201099872589,
                0.9975998401641846,
                1.7004321813583374,
                -0.8017487525939941,
                0.6942691206932068
            ],
            "bias": 0.8599295020103455
        },
        {
            "id": "NEURON 3-2",
            "weights": [
                0.5060252547264099,
                -0.49310338497161865,
                -0.9871588349342346,
                0.7833588719367981,
                -0.1955273449420929
            ],
            "bias": -1.2136473655700684
        },
        {
            "id": "NEURON 3-3",
            "weights": [
                -0.7999966144561768,
                0.4967690408229828,
                0.1428569257259369,
                0.7284736633300781,
                0.9750717878341675
            ],
            "bias": 0.7672531604766846
        }
    ],
    [
        {
            "id": "NEURON 4-0",
            "weights": [
                -1.013994812965393,
                -2.145113706588745,
                -0.8106611371040344,
                0.4720994532108307
            ],
            "bias": 0.5797128081321716
        },
        {
            "id": "NEURON 4-1",
            "weights": [
                -1.3687843084335327,
                0.9646176695823669,
                -1.0595996379852295,
                -0.40367475152015686
            ],
            "bias": 0.603725790977478
        },
        {
            "id": "NEURON 4-2",
            "weights": [
                1.0652271509170532,
                -0.2199261486530304,
                0.7753706574440002,
                -0.42263558506965637
            ],
            "bias": -1.2813533544540405
        }
    ]
];

// --------------- NETWORK_V4 (HUGE!) --------------
const NETWORK_V4 = [
  [
      {
          "id": "NEURON 1-0",
          "weights": [
              -0.5422964692115784,
              -0.04342937096953392,
              0.11552169919013977,
              -0.1338762640953064,
              -0.12488632649183273,
              0.07562132179737091,
              0.073126420378685,
              0.5532035827636719,
              -0.18813742697238922,
              -0.15209414064884186,
              -0.47404173016548157,
              -0.085218146443367,
              -0.8373698592185974,
              -0.09747986495494843,
              -0.3828314244747162,
              0.03795956075191498,
              0.018869489431381226,
              -0.459013968706131,
              0.27463042736053467,
              -0.03074885532259941,
              -0.1772506982088089,
              -0.0037306309677660465,
              -0.6348580718040466,
              0.19458726048469543,
              -0.08979525417089462,
              -0.24484798312187195,
              0.49705803394317627,
              -0.022153016179800034,
              0.24197769165039062,
              0.5531246066093445,
              0.3130994439125061,
              -0.006287447642534971,
              -0.013777588494122028,
              0.36345016956329346,
              0.2468794584274292,
              0.14640481770038605,
              0.4781142473220825,
              0.11051362752914429,
              0.47063004970550537,
              0.2525881826877594,
              0.896973192691803,
              0.5275408029556274,
              0.32594263553619385,
              0.7663921117782593,
              0.3042387068271637,
              0.613261342048645,
              0.5720828175544739,
              0.06468361616134644,
              0.4970785081386566,
              0.35787487030029297,
              0.7182615399360657,
              0.1246841549873352,
              0.607947051525116,
              0.3781518340110779,
              0.26068243384361267,
              0.3327118456363678,
              -0.05699292942881584,
              0.18956898152828217,
              -0.16039584577083588,
              0.008674505166709423,
              0.6651437282562256,
              0.0287188570946455,
              -0.32978564500808716,
              0.386676549911499,
              -0.1345757395029068,
              0.09016452729701996,
              -0.10668729245662689,
              -0.2333444505929947,
              0.1358879804611206,
              -0.1477186530828476,
              0.2797984182834625,
              0.07436701655387878,
              -0.31773602962493896,
              0.018634667620062828,
              -0.10138717293739319,
              0.21325315535068512,
              -0.0019654531497508287,
              -0.3853115439414978,
              0.18800649046897888,
              0.21229614317417145,
              -0.45908597111701965,
              0.38400572538375854,
              0.12153653055429459,
              -0.2204401046037674,
              0.1832054853439331,
              0.18686504662036896,
              0.017167845740914345,
              0.05059564858675003,
              0.0271442960947752,
              -0.023577606305480003,
              0.0448005348443985,
              0.3435221016407013,
              -0.2159198820590973,
              -0.4571611285209656,
              -0.14259181916713715,
              0.4008411169052124,
              -0.11358815431594849,
              0.3548645079135895,
              -0.381175696849823,
              -0.783310055732727
          ],
          "bias": -2.0656039714813232
      },
      {
          "id": "NEURON 1-1",
          "weights": [
              -0.25096291303634644,
              -1.5456308126449585,
              1.1346386671066284,
              0.6288890242576599,
              0.05806657671928406,
              -0.6808147430419922,
              -1.4739089012145996,
              -0.6699470281600952,
              0.031217044219374657,
              1.0070514678955078,
              -0.062309980392456055,
              -0.6472758650779724,
              1.0867046117782593,
              0.30310460925102234,
              -0.7129020094871521,
              -0.9709334969520569,
              -0.7869362235069275,
              -0.21115891635417938,
              0.5949214100837708,
              0.7343445420265198,
              0.33550402522087097,
              -0.23851381242275238,
              -0.0947420746088028,
              -0.702941358089447,
              -0.43870165944099426,
              -0.8145647644996643,
              0.3693557679653168,
              0.18217745423316956,
              1.0460320711135864,
              0.16263413429260254,
              0.23406539857387543,
              0.021023279055953026,
              -0.626010537147522,
              -1.1093790531158447,
              -0.6924453377723694,
              0.3779095411300659,
              0.007903622463345528,
              0.044237684458494186,
              -0.6258538365364075,
              -0.9959468841552734,
              0.8007016181945801,
              -0.35090142488479614,
              -0.18425706028938293,
              -0.2359953373670578,
              -0.9069913029670715,
              0.09103784710168839,
              0.03415641188621521,
              -0.3084988296031952,
              -1.0250468254089355,
              -0.44256487488746643,
              0.6780890226364136,
              -0.5328733921051025,
              0.06970790773630142,
              -0.381402850151062,
              -0.47153592109680176,
              0.18763591349124908,
              0.00835129152983427,
              -0.8788406848907471,
              -0.6050563454627991,
              0.6039681434631348,
              0.6675940155982971,
              -0.5451346039772034,
              -0.16761675477027893,
              0.5003365874290466,
              0.552772045135498,
              0.36995282769203186,
              0.21634754538536072,
              -0.18407011032104492,
              -0.2768954038619995,
              0.5747707486152649,
              0.15165714919567108,
              -0.11919024586677551,
              -0.20035108923912048,
              0.029885001480579376,
              0.27729204297065735,
              0.24366383254528046,
              -0.2087153047323227,
              0.3590143024921417,
              0.09498612582683563,
              -0.1437104046344757,
              0.5189052224159241,
              -0.4407244920730591,
              -0.8490162491798401,
              0.41219398379325867,
              0.022432886064052582,
              -0.02966187708079815,
              -0.26243335008621216,
              -0.18036136031150818,
              0.7170177102088928,
              -0.020707545801997185,
              0.8059309720993042,
              -0.8220359683036804,
              -0.748383641242981,
              0.12361624836921692,
              -0.34996891021728516,
              -0.2779152989387512,
              0.7012162804603577,
              -0.33167293667793274,
              -0.30573269724845886,
              -0.10995029658079147
          ],
          "bias": -0.2498992532491684
      },
      {
          "id": "NEURON 1-2",
          "weights": [
              0.15561172366142273,
              -0.09092020988464355,
              -0.4775521159172058,
              0.38304778933525085,
              -0.5910149216651917,
              0.28648433089256287,
              -0.28721606731414795,
              0.5011265873908997,
              -1.1400136947631836,
              0.6209739446640015,
              -0.016191786155104637,
              -0.4192509055137634,
              -0.11246919631958008,
              -0.033207617700099945,
              0.15157707035541534,
              0.2758593261241913,
              0.006055665202438831,
              0.7387951612472534,
              -0.27981036901474,
              0.5492868423461914,
              0.0666518360376358,
              -0.5338441729545593,
              -0.47076481580734253,
              0.5442727208137512,
              -0.020643670111894608,
              -0.10798239707946777,
              -0.38728761672973633,
              0.1985190510749817,
              -0.5921986699104309,
              0.3062330484390259,
              -0.1869756132364273,
              -0.2111760824918747,
              0.15999242663383484,
              0.371642142534256,
              -0.13259585201740265,
              0.002278783591464162,
              -0.5712112784385681,
              0.10651347786188126,
              -0.9310346245765686,
              0.08116699010133743,
              0.17231599986553192,
              -0.20994757115840912,
              -0.3470727801322937,
              0.40341517329216003,
              -0.08475073426961899,
              -0.3847176432609558,
              -0.22462543845176697,
              0.25282037258148193,
              -1.102480173110962,
              0.2083883285522461,
              0.057752225548028946,
              -0.0861111655831337,
              -0.3468530774116516,
              0.6589936017990112,
              -0.7888219356536865,
              -0.25087642669677734,
              -0.14281430840492249,
              0.4359041750431061,
              -1.6313962936401367,
              0.8666878342628479,
              -0.5262771248817444,
              -0.186322420835495,
              -0.43521198630332947,
              0.4892762303352356,
              -1.1516021490097046,
              -0.22391538321971893,
              -0.40598809719085693,
              0.02332308515906334,
              -1.0247912406921387,
              0.6115114092826843,
              -0.7157683372497559,
              -0.12472204864025116,
              0.45003408193588257,
              0.18769121170043945,
              -1.2514501810073853,
              -0.09269706904888153,
              -1.213661789894104,
              -0.3728175163269043,
              -0.23031754791736603,
              0.39204880595207214,
              -0.14352329075336456,
              -0.043697699904441833,
              -0.007870297878980637,
              0.23447734117507935,
              -0.39496493339538574,
              -0.4666399359703064,
              0.1233161985874176,
              0.15858741104602814,
              0.2957434356212616,
              0.27028214931488037,
              -0.2456933856010437,
              0.23561511933803558,
              -0.8847089409828186,
              0.364612877368927,
              -1.0298372507095337,
              -0.6994953751564026,
              0.23994140326976776,
              1.2732497453689575,
              -0.9438555240631104,
              0.7132222652435303
          ],
          "bias": -0.15963420271873474
      },
      {
          "id": "NEURON 1-3",
          "weights": [
              0.47342872619628906,
              0.24243700504302979,
              -0.2904016673564911,
              -1.5664438009262085,
              -0.8810392618179321,
              -1.0139206647872925,
              -1.330046534538269,
              0.3125513792037964,
              -0.7411670684814453,
              -0.5897961258888245,
              -1.3049834966659546,
              -0.36524951457977295,
              0.43072766065597534,
              -0.2681077718734741,
              -0.6688905954360962,
              -1.5034252405166626,
              -1.5666868686676025,
              -0.05296192318201065,
              -0.8884238600730896,
              -0.9483147263526917,
              0.6266874074935913,
              0.3468841016292572,
              0.8327646851539612,
              0.5707380771636963,
              0.2205750048160553,
              -0.2520965337753296,
              -0.17758119106292725,
              -0.12376432120800018,
              -0.4485087990760803,
              -0.5828362107276917,
              -0.02717062458395958,
              0.009365931153297424,
              0.638338565826416,
              0.46405738592147827,
              0.642227053642273,
              0.39761993288993835,
              0.27073338627815247,
              0.04159161448478699,
              0.17380504310131073,
              0.3631638288497925,
              -0.024511292576789856,
              -0.9815189242362976,
              -1.1853089332580566,
              -0.3802311420440674,
              0.00005512739880941808,
              0.19728021323680878,
              0.5948179364204407,
              -0.7184836864471436,
              0.5698115229606628,
              0.37126752734184265,
              -2.032222032546997,
              -1.5422497987747192,
              -0.4171513020992279,
              -0.17508439719676971,
              -0.13541476428508759,
              -0.20270711183547974,
              -0.39199385046958923,
              -0.4874964952468872,
              -0.07467087358236313,
              0.07700397074222565,
              -0.3158301115036011,
              -0.17299434542655945,
              0.3603770434856415,
              -0.3423782289028168,
              -0.27274978160858154,
              -0.4902343153953552,
              -0.5338778495788574,
              0.37156596779823303,
              -0.37425097823143005,
              -0.5548294186592102,
              -0.11418870836496353,
              -0.031576402485370636,
              -0.4384685158729553,
              0.1733517348766327,
              0.004943971522152424,
              0.004942738451063633,
              -0.44501087069511414,
              -0.19098475575447083,
              -1.4023631811141968,
              -0.6708247065544128,
              -0.17844624817371368,
              -0.46627500653266907,
              -0.1593017429113388,
              0.0025082766078412533,
              -0.3865180015563965,
              0.08924830704927444,
              -0.15717713534832,
              0.06727274507284164,
              0.015027029439806938,
              -0.13848190009593964,
              0.3260320723056793,
              0.4951477348804474,
              0.07813006639480591,
              -0.15671050548553467,
              -0.08710809051990509,
              0.30409616231918335,
              -0.1908925324678421,
              0.25056812167167664,
              0.06253832578659058,
              0.6245116591453552
          ],
          "bias": 0.639210045337677
      },
      {
          "id": "NEURON 1-4",
          "weights": [
              -0.48077622056007385,
              -0.6256212592124939,
              -1.5715022087097168,
              -1.5062098503112793,
              -1.2208200693130493,
              -0.1308913230895996,
              0.40302857756614685,
              -0.18883711099624634,
              0.05397696793079376,
              0.2950457036495209,
              -0.23442424833774567,
              0.7466157674789429,
              0.3953709006309509,
              -0.1606714427471161,
              0.04609934613108635,
              0.1328478306531906,
              0.22875241935253143,
              -0.23930513858795166,
              0.1371452957391739,
              0.2240104228258133,
              0.1647704392671585,
              0.34071239829063416,
              0.7724205851554871,
              0.8752126097679138,
              0.3669378459453583,
              -0.31189021468162537,
              0.015323013998568058,
              0.07995326071977615,
              -0.17692068219184875,
              0.544619083404541,
              -1.0716017484664917,
              -1.104623556137085,
              -0.9675666093826294,
              -1.3871403932571411,
              -0.7931104302406311,
              -0.419557124376297,
              -0.04316345229744911,
              -0.330352783203125,
              0.03910958394408226,
              -0.3436172902584076,
              0.1365603804588318,
              0.6618322134017944,
              0.17109628021717072,
              -0.10444849729537964,
              -0.13888567686080933,
              -0.47209659218788147,
              -0.07261184602975845,
              0.3946380615234375,
              -0.6024323105812073,
              -0.9981582164764404,
              -0.2291775494813919,
              0.14529357850551605,
              -1.0995148420333862,
              -0.4309597313404083,
              -0.19980333745479584,
              -0.23140938580036163,
              -0.015000579878687859,
              0.1882852017879486,
              -0.0647127777338028,
              -0.41676023602485657,
              -0.22737804055213928,
              -0.4772047996520996,
              0.3305208086967468,
              -0.10227139294147491,
              -0.3670126795768738,
              -0.11384889483451843,
              -0.19759811460971832,
              -0.5867801308631897,
              -1.1713166236877441,
              -0.878545343875885,
              -0.2966274619102478,
              -0.08598677814006805,
              -0.23718929290771484,
              0.5275702476501465,
              -0.021821193397045135,
              0.009614797309041023,
              0.02890298143029213,
              0.5974807143211365,
              0.399456262588501,
              0.2361455261707306,
              -0.3865184485912323,
              0.44143882393836975,
              0.41208070516586304,
              -0.07298465073108673,
              0.31589633226394653,
              0.41645175218582153,
              -0.16779984533786774,
              -0.24558307230472565,
              0.7803562879562378,
              0.8322106003761292,
              -0.24344244599342346,
              -0.09815511852502823,
              -0.32912835478782654,
              -0.013654807582497597,
              -0.12204596400260925,
              -0.08192967623472214,
              -0.03700246289372444,
              0.06042584776878357,
              -0.08541306853294373,
              -0.6674489378929138
          ],
          "bias": 0.6952309608459473
      },
      {
          "id": "NEURON 1-5",
          "weights": [
              -0.31742483377456665,
              -0.2103947103023529,
              0.27241408824920654,
              -0.5745352506637573,
              -0.1873982697725296,
              -0.056749377399683,
              0.27926239371299744,
              0.9768328666687012,
              0.2336488664150238,
              -0.30502578616142273,
              0.749968945980072,
              0.5846105813980103,
              0.6672187447547913,
              0.6164389848709106,
              0.03360971063375473,
              -0.03818817064166069,
              -0.7978641986846924,
              -1.7750165462493896,
              -2.189476251602173,
              -1.3659751415252686,
              0.22506846487522125,
              -1.2428653240203857,
              -1.1701452732086182,
              -0.08189884573221207,
              0.40974220633506775,
              0.38946056365966797,
              0.6047598123550415,
              -0.19870856404304504,
              0.7440288662910461,
              0.8102142214775085,
              -0.2557103633880615,
              -0.4716113805770874,
              0.1726291924715042,
              -0.173441082239151,
              -0.1885100156068802,
              -0.017026638612151146,
              -0.5406959056854248,
              -0.5096224546432495,
              -0.932246744632721,
              -1.6174737215042114,
              -0.7084373235702515,
              -0.057209715247154236,
              0.14258503913879395,
              0.19258949160575867,
              -0.31265202164649963,
              -0.30730709433555603,
              -0.0727933868765831,
              0.11319144070148468,
              0.12987308204174042,
              -0.08383850008249283,
              0.025155585259199142,
              -0.3644961416721344,
              -0.02261032722890377,
              -0.4291985034942627,
              -0.7470312714576721,
              -0.5353551506996155,
              -0.5683220028877258,
              -0.04526668041944504,
              0.45358172059059143,
              0.5304507613182068,
              -0.01855989545583725,
              -0.24245236814022064,
              -0.11382810026407242,
              0.13161665201187134,
              0.2741159498691559,
              0.03570769354701042,
              0.15530891716480255,
              -0.327157199382782,
              -0.19025759398937225,
              -0.2707153558731079,
              -1.3576403856277466,
              -0.7650014758110046,
              -2.108755588531494,
              -1.8685212135314941,
              -0.389295369386673,
              0.13222745060920715,
              0.18861570954322815,
              0.2974318563938141,
              -0.6766031980514526,
              0.07869680225849152,
              -1.0605493783950806,
              -0.4969247877597809,
              0.3345874547958374,
              0.6638092994689941,
              0.37504950165748596,
              -0.2475275993347168,
              0.22664512693881989,
              0.01438288576900959,
              -0.2940101623535156,
              -0.3258422911167145,
              0.8237287402153015,
              -0.45676469802856445,
              -0.048613160848617554,
              0.13526193797588348,
              0.3965340256690979,
              0.37952589988708496,
              0.3728427588939667,
              -0.6011574268341064,
              0.28278839588165283,
              -0.3660866916179657
          ],
          "bias": 0.240935817360878
      },
      {
          "id": "NEURON 1-6",
          "weights": [
              0.0974971130490303,
              -0.9904422760009766,
              0.4578218162059784,
              -0.018196722492575645,
              -0.20446446537971497,
              -0.7992731928825378,
              0.9521363377571106,
              -0.8105342388153076,
              0.5673588514328003,
              -0.0791877880692482,
              0.2156137377023697,
              -1.0585122108459473,
              0.19061747193336487,
              -0.14652486145496368,
              -0.1669379472732544,
              0.06644601374864578,
              0.2895566523075104,
              -0.057660285383462906,
              0.3649832010269165,
              -0.3798479437828064,
              0.2397821992635727,
              -0.459891676902771,
              -0.515861988067627,
              -1.2398500442504883,
              -0.325262188911438,
              -0.866264283657074,
              -0.33985379338264465,
              -0.5260213017463684,
              -0.020072264596819878,
              -0.26133444905281067,
              0.9467478394508362,
              0.5977694392204285,
              0.0964827835559845,
              0.16636037826538086,
              0.25291675329208374,
              -0.1308584213256836,
              -0.06739604473114014,
              -1.0336558818817139,
              -1.0210986137390137,
              -0.9488440752029419,
              -0.27483177185058594,
              0.5643119812011719,
              0.2500320374965668,
              0.22515298426151276,
              0.38157910108566284,
              0.4169273376464844,
              0.2902272939682007,
              -0.084748275578022,
              0.5454948544502258,
              0.35156676173210144,
              -1.0734753608703613,
              -0.9615644812583923,
              -0.379307359457016,
              0.48213860392570496,
              -0.20615653693675995,
              0.163303405046463,
              0.15758582949638367,
              -0.04568089544773102,
              0.44271382689476013,
              0.0772942528128624,
              0.4541260898113251,
              -0.44708722829818726,
              -0.7200353145599365,
              -0.49043163657188416,
              -1.127132534980774,
              0.049986831843853,
              -0.29775702953338623,
              -0.9479156732559204,
              0.10930163413286209,
              -0.5363958477973938,
              -0.9383975267410278,
              0.38698238134384155,
              0.09817760437726974,
              -0.051158368587493896,
              -0.003663092153146863,
              -0.15914393961429596,
              0.318034291267395,
              -0.515668511390686,
              0.41432544589042664,
              -0.00007680343696847558,
              -0.4569271504878998,
              -0.03978535905480385,
              -0.21503619849681854,
              0.10308263450860977,
              -0.3242865204811096,
              -0.20168644189834595,
              0.0009682087693363428,
              -0.5202616453170776,
              0.05237612873315811,
              -0.3989258110523224,
              0.5793689489364624,
              -0.18931443989276886,
              -0.49441105127334595,
              -0.6753031611442566,
              -1.1805466413497925,
              0.13842277228832245,
              0.19597287476062775,
              -0.7144585847854614,
              -0.1464112401008606,
              -0.173197403550148
          ],
          "bias": 0.3246564567089081
      },
      {
          "id": "NEURON 1-7",
          "weights": [
              0.5076560378074646,
              0.14989109337329865,
              -2.680027723312378,
              1.2373974323272705,
              0.04549665376543999,
              -0.7270364761352539,
              -1.3504681587219238,
              0.01974533312022686,
              1.2420302629470825,
              0.3890553116798401,
              0.15233615040779114,
              -0.5396928191184998,
              -0.5295761227607727,
              0.17784884572029114,
              -0.10138702392578125,
              -0.49587345123291016,
              0.11223369836807251,
              0.7017585635185242,
              0.6406007409095764,
              -0.4033178389072418,
              -0.37892964482307434,
              -0.08596465736627579,
              -0.17244671285152435,
              0.23204155266284943,
              0.10392612218856812,
              -0.34535062313079834,
              0.13312040269374847,
              0.4074413776397705,
              -0.8085951805114746,
              -1.5642626285552979,
              -0.5380756258964539,
              0.21452295780181885,
              -0.6654224395751953,
              0.1364302784204483,
              0.15127931535243988,
              0.01857411116361618,
              0.06831693649291992,
              -0.16483032703399658,
              -0.2845749855041504,
              -0.11103161424398422,
              0.011926604434847832,
              -0.431499183177948,
              -0.757056713104248,
              0.5186446309089661,
              -0.08298618346452713,
              -0.5010178685188293,
              -0.7716357707977295,
              0.13094449043273926,
              0.1251460760831833,
              -0.024945644661784172,
              0.648966908454895,
              -0.4766596257686615,
              -1.2037001848220825,
              0.08446460962295532,
              0.2800256609916687,
              -0.13592326641082764,
              -0.28104129433631897,
              -0.3641818165779114,
              -0.2560528516769409,
              -0.17561033368110657,
              1.2937897443771362,
              -0.2468291074037552,
              -1.42814302444458,
              0.29957500100135803,
              0.5920119881629944,
              -0.27837201952934265,
              -0.5166917443275452,
              -0.551467776298523,
              0.17579512298107147,
              0.07470324635505676,
              0.4883113205432892,
              -0.27105438709259033,
              -0.733869731426239,
              0.09787711501121521,
              -0.20822139084339142,
              0.29008737206459045,
              -0.09674162417650223,
              0.16351927816867828,
              -0.10380836576223373,
              0.01632445678114891,
              0.08835505694150925,
              -0.10739962011575699,
              -0.4110756516456604,
              -0.2508072257041931,
              0.22311273217201233,
              -0.08941014111042023,
              -0.08000137656927109,
              -0.3449169993400574,
              0.12208209186792374,
              -0.479732483625412,
              -0.9305338859558105,
              -0.027378376573324203,
              -0.5686255693435669,
              -0.10372674465179443,
              -0.29639190435409546,
              0.11198439449071884,
              -0.029867298901081085,
              0.4171657860279083,
              0.3341907858848572,
              -0.7535557746887207
          ],
          "bias": 0.3198956847190857
      },
      {
          "id": "NEURON 1-8",
          "weights": [
              -0.2808951139450073,
              0.2579765021800995,
              0.6096467971801758,
              0.09916604310274124,
              0.4218997657299042,
              -0.5949975252151489,
              0.008581910282373428,
              -0.2964814305305481,
              -0.3499943017959595,
              -1.5335077047348022,
              0.449000746011734,
              0.1085338145494461,
              -0.39914849400520325,
              -0.08817488700151443,
              -0.5486924648284912,
              0.18786725401878357,
              0.24702446162700653,
              0.034680213779211044,
              0.8784334063529968,
              -0.27233514189720154,
              -0.028713352978229523,
              -0.07332009822130203,
              0.46985945105552673,
              0.5293548703193665,
              -0.18380919098854065,
              0.16023772954940796,
              -0.47533732652664185,
              -0.15268510580062866,
              -0.29184362292289734,
              0.1317063271999359,
              0.2638775408267975,
              0.083243727684021,
              0.11509931087493896,
              0.24491643905639648,
              -0.218696728348732,
              -0.0016318479320034385,
              0.17668724060058594,
              0.6063922643661499,
              0.47064247727394104,
              0.5588232278823853,
              -0.16468530893325806,
              -0.3353719115257263,
              0.12002308666706085,
              0.2150554209947586,
              0.4287997782230377,
              0.6256043314933777,
              0.13804911077022552,
              -0.12934860587120056,
              -0.24368694424629211,
              -0.0777626633644104,
              0.03565404936671257,
              0.2534502148628235,
              0.3367520868778229,
              0.07115886360406876,
              0.06747423112392426,
              -0.2163003832101822,
              0.18738427758216858,
              0.022805500775575638,
              0.5686931014060974,
              0.13209380209445953,
              0.2907608449459076,
              -0.2744830250740051,
              0.11744684725999832,
              0.24523919820785522,
              0.32410964369773865,
              0.4441227316856384,
              -0.28046706318855286,
              0.08964197337627411,
              0.16771309077739716,
              0.2846510112285614,
              0.5103034973144531,
              0.5293073654174805,
              0.058971237391233444,
              0.07203414291143417,
              -0.12280356884002686,
              0.006172610446810722,
              -0.07331229746341705,
              0.5236579179763794,
              0.5533222556114197,
              0.3523930311203003,
              0.5677632093429565,
              0.03599729761481285,
              -0.10330675542354584,
              0.29227104783058167,
              0.4752766788005829,
              0.18813997507095337,
              0.28847700357437134,
              0.301037460565567,
              -0.04154352843761444,
              0.37112095952033997,
              0.049982525408267975,
              0.6320967078208923,
              0.41783788800239563,
              0.09053489565849304,
              0.33329901099205017,
              0.06287912279367447,
              0.6801553964614868,
              0.5975244641304016,
              0.12850350141525269,
              -0.019466735422611237
          ],
          "bias": -1.7880860567092896
      },
      {
          "id": "NEURON 1-9",
          "weights": [
              -0.2550240159034729,
              -0.2961575388908386,
              0.05106458067893982,
              -0.08324798941612244,
              -0.05578857660293579,
              -0.047369334846735,
              0.41176679730415344,
              0.23974432051181793,
              0.380134642124176,
              1.0338361263275146,
              0.23419182002544403,
              0.12275253236293793,
              0.04827004298567772,
              0.12427785992622375,
              0.13929492235183716,
              -0.3373817801475525,
              -0.5499739050865173,
              -2.0363614559173584,
              -2.6124231815338135,
              -2.4351446628570557,
              -0.16950723528862,
              -0.3487735986709595,
              -0.12327385693788528,
              -0.15087926387786865,
              0.1982584446668625,
              -0.07775528728961945,
              -0.07827769964933395,
              0.22408625483512878,
              -0.18976590037345886,
              0.22180570662021637,
              -0.24532392621040344,
              -0.04805121198296547,
              0.2252964973449707,
              -0.0074934628792107105,
              0.25788208842277527,
              0.19971446692943573,
              0.26117077469825745,
              -0.13733476400375366,
              0.2385675609111786,
              0.39624181389808655,
              -0.0029430342838168144,
              -0.4881017506122589,
              -1.0820361375808716,
              -1.0593607425689697,
              -1.7322039604187012,
              -1.6675348281860352,
              -1.824364423751831,
              -1.461824893951416,
              -1.2369083166122437,
              -1.2638972997665405,
              0.06941647082567215,
              0.2666757106781006,
              0.3626607060432434,
              0.16644537448883057,
              0.17460113763809204,
              0.09668799489736557,
              0.2543894350528717,
              0.3861202001571655,
              0.1956923007965088,
              0.1275884062051773,
              -0.40519821643829346,
              -0.15389563143253326,
              -0.12648166716098785,
              0.04423670098185539,
              0.08420857042074203,
              0.15454591810703278,
              0.14371217787265778,
              0.17535802721977234,
              -0.023109203204512596,
              0.23308318853378296,
              0.5166269540786743,
              0.30207574367523193,
              0.1295074224472046,
              0.04919871687889099,
              -0.004989000502973795,
              0.10869133472442627,
              0.3123798370361328,
              0.07049760222434998,
              0.05073559656739235,
              -0.13423442840576172,
              -0.06869093328714371,
              -0.4547572433948517,
              -0.14992789924144745,
              -0.055707897990942,
              -0.06891977787017822,
              0.12180356681346893,
              0.1044672429561615,
              0.05071886256337166,
              0.027789102867245674,
              -0.039157524704933167,
              -0.26822295784950256,
              0.03760614991188049,
              0.0017419172218069434,
              -0.09376844018697739,
              -0.23257510364055634,
              -0.16694675385951996,
              0.22298277914524078,
              -0.06678830832242966,
              -0.1631212830543518,
              0.39218831062316895
          ],
          "bias": 0.9192671179771423
      },
      {
          "id": "NEURON 1-10",
          "weights": [
              -0.2911224365234375,
              0.2988841235637665,
              -1.5345278978347778,
              0.4231647253036499,
              -0.9461429715156555,
              -1.6750789880752563,
              1.1378941535949707,
              -1.9471805095672607,
              -0.6590139269828796,
              0.35931289196014404,
              0.5685130953788757,
              -0.11161171644926071,
              -1.0370779037475586,
              -0.06122417747974396,
              -0.8971560001373291,
              -0.6020672917366028,
              0.7556833028793335,
              -1.403087854385376,
              -0.40924015641212463,
              -0.16788139939308167,
              0.22717437148094177,
              0.0012232898734509945,
              -1.2545802593231201,
              0.10852901637554169,
              0.41681984066963196,
              -1.418462872505188,
              0.4081493616104126,
              -0.1898168921470642,
              -0.33027732372283936,
              0.0846175029873848,
              0.2220466285943985,
              -0.20956836640834808,
              -1.2726987600326538,
              0.02095165103673935,
              -0.00907932035624981,
              -1.0560383796691895,
              0.21245601773262024,
              0.25941187143325806,
              0.09872962534427643,
              0.008471526205539703,
              -0.27057355642318726,
              -0.182331383228302,
              -0.620351254940033,
              -0.0910910815000534,
              0.18772776424884796,
              -0.6734542846679688,
              0.4200606942176819,
              -0.0215006060898304,
              0.3612660765647888,
              0.09547305107116699,
              -0.3042808473110199,
              0.2134426087141037,
              -0.11156964302062988,
              0.6478014588356018,
              -0.02871972694993019,
              -0.4287347197532654,
              0.44865554571151733,
              -0.4795933663845062,
              -0.058144811540842056,
              -0.2645207345485687,
              -0.8457274436950684,
              0.3698614835739136,
              -0.08199065923690796,
              0.678869366645813,
              0.14610806107521057,
              -0.41620489954948425,
              -0.4196762144565582,
              -0.11236349493265152,
              -0.30952465534210205,
              -0.0396277941763401,
              -1.0778393745422363,
              0.2974551320075989,
              -0.4056825041770935,
              -0.24173837900161743,
              0.12020114809274673,
              -0.5728033185005188,
              -0.01965411566197872,
              0.36249351501464844,
              -0.5820818543434143,
              -0.440199077129364,
              -0.49792325496673584,
              0.09888673573732376,
              -0.7119060158729553,
              -0.30186811089515686,
              -0.19279856979846954,
              -0.15849658846855164,
              -0.002673378447070718,
              -0.0901666209101677,
              0.1595011204481125,
              -0.29642871022224426,
              -0.005196599755436182,
              0.005598819814622402,
              -1.3932898044586182,
              -0.2885569930076599,
              0.18539871275424957,
              -0.3398185968399048,
              0.17992433905601501,
              -0.1952400803565979,
              0.6338557600975037,
              -1.3971909284591675
          ],
          "bias": 0.6826393008232117
      },
      {
          "id": "NEURON 1-11",
          "weights": [
              0.32502126693725586,
              0.4344448447227478,
              -0.2741650640964508,
              -0.03461268171668053,
              0.18571259081363678,
              0.757219135761261,
              0.4213961064815521,
              0.020350486040115356,
              -0.08951366692781448,
              -0.21322111785411835,
              -1.0066622495651245,
              0.5869448184967041,
              0.18660569190979004,
              0.08870267868041992,
              0.4280743896961212,
              0.3817235827445984,
              0.1497533619403839,
              0.3845265209674835,
              0.18248072266578674,
              0.23166801035404205,
              0.44713595509529114,
              0.10031770914793015,
              -0.16143372654914856,
              -0.0050944434478878975,
              0.314001202583313,
              0.12505415081977844,
              0.18680228292942047,
              -0.03881840780377388,
              0.622766375541687,
              0.6483772397041321,
              0.7419449090957642,
              0.38748738169670105,
              0.3369905650615692,
              0.4355321228504181,
              0.2991812527179718,
              0.23997481167316437,
              -0.22039510309696198,
              -0.018587708473205566,
              0.16577957570552826,
              0.6348376870155334,
              -0.6009519696235657,
              -0.4041987359523773,
              -0.5982781648635864,
              -0.6229782104492188,
              -0.8043500185012817,
              -0.88596111536026,
              -0.8274922370910645,
              -0.5945091247558594,
              0.04831068962812424,
              -0.3526225984096527,
              -0.8142871260643005,
              -1.0861644744873047,
              -0.26443377137184143,
              -0.766754150390625,
              -0.6811040639877319,
              -0.6244112849235535,
              -0.7637893557548523,
              -0.42702677845954895,
              0.24523712694644928,
              -0.3411361575126648,
              -1.3856650590896606,
              -0.09124143421649933,
              0.622046172618866,
              0.0943840816617012,
              -0.7695847153663635,
              -0.6243364810943604,
              -0.4329264461994171,
              -0.1331740915775299,
              0.22273467481136322,
              0.07953841239213943,
              0.3275928497314453,
              0.9065086245536804,
              0.5947585701942444,
              -0.7121770977973938,
              -1.1525076627731323,
              -0.4689156711101532,
              -0.4238743185997009,
              -0.12817910313606262,
              0.07678782194852829,
              -0.30988651514053345,
              -0.038460299372673035,
              0.8733707070350647,
              0.1381852924823761,
              -1.4510759115219116,
              -0.11213068664073944,
              0.11329513788223267,
              0.011195024475455284,
              0.049158647656440735,
              0.41991668939590454,
              -0.13595318794250488,
              0.8693596720695496,
              0.07984446734189987,
              -0.026315825060009956,
              -1.3404656648635864,
              -0.552959680557251,
              0.3436726927757263,
              0.494426429271698,
              0.03515985235571861,
              -0.24517743289470673,
              -0.0401550829410553
          ],
          "bias": -0.08380698412656784
      },
      {
          "id": "NEURON 1-12",
          "weights": [
              0.5601845979690552,
              -0.1897159218788147,
              0.449352890253067,
              0.22694574296474457,
              0.3080517053604126,
              0.19895371794700623,
              0.4986308515071869,
              0.4319949448108673,
              0.5074082612991333,
              0.12429025769233704,
              -0.21600015461444855,
              -0.07503417879343033,
              -0.12111428380012512,
              0.2239675223827362,
              0.2640422284603119,
              -0.2053012102842331,
              0.48982250690460205,
              0.48800528049468994,
              -0.8294734954833984,
              -1.019811987876892,
              -1.2690247297286987,
              0.03555316478013992,
              -0.7699411511421204,
              -0.43236106634140015,
              -0.37560227513313293,
              -0.09613855928182602,
              -0.4430646002292633,
              -0.8497346639633179,
              -0.7616873383522034,
              -0.4599011242389679,
              -0.5913382172584534,
              -0.050069235265254974,
              -0.8917794823646545,
              -0.8607001900672913,
              -0.6631637811660767,
              -0.29245099425315857,
              -0.037102457135915756,
              -0.18998181819915771,
              -0.18002468347549438,
              -0.1375805288553238,
              0.9521601796150208,
              0.48272624611854553,
              0.7064084410667419,
              0.5364915132522583,
              0.16621872782707214,
              0.07936593890190125,
              0.15733925998210907,
              -0.19809190928936005,
              0.44452905654907227,
              -0.01591712236404419,
              0.6187238693237305,
              -0.17093895375728607,
              -0.18292155861854553,
              -0.30664771795272827,
              -0.45381224155426025,
              -0.12355415523052216,
              -0.14343544840812683,
              0.30090296268463135,
              0.36744561791419983,
              -0.16336224973201752,
              -1.8712421655654907,
              -1.5560187101364136,
              -1.106567621231079,
              -1.006024956703186,
              -0.8407890796661377,
              -0.6217839121818542,
              -1.0063871145248413,
              -0.4850037395954132,
              0.35557737946510315,
              0.5568348169326782,
              0.7088209986686707,
              0.27623724937438965,
              0.4636880159378052,
              0.20218218863010406,
              0.2768522799015045,
              -0.016860563308000565,
              0.1398000866174698,
              0.0007370126550085843,
              0.012062138877809048,
              -0.054023634642362595,
              -0.8737999796867371,
              -0.6586713194847107,
              -0.8871080875396729,
              -0.3384605348110199,
              0.05277577042579651,
              -0.05423144996166229,
              0.16423925757408142,
              0.022537223994731903,
              -0.10377521067857742,
              -0.04280735179781914,
              0.6460562944412231,
              0.002567966002970934,
              0.06592422723770142,
              0.5582535862922668,
              0.38692349195480347,
              0.05288155376911163,
              0.037588994950056076,
              -0.5097838640213013,
              -0.6995965242385864,
              -0.09426707774400711
          ],
          "bias": 0.7728469967842102
      },
      {
          "id": "NEURON 1-13",
          "weights": [
              -0.5880049467086792,
              0.4518514573574066,
              0.5418728590011597,
              0.249498650431633,
              0.7090534567832947,
              -0.2601805329322815,
              -0.04675363749265671,
              -0.23037268221378326,
              -0.3536819815635681,
              0.09466507285833359,
              -0.04599635675549507,
              0.0012491915840655565,
              0.09975551068782806,
              0.4701195955276489,
              -0.08214199542999268,
              0.3419762849807739,
              -0.32911595702171326,
              0.23108968138694763,
              0.306333988904953,
              0.11517636477947235,
              -0.035552978515625,
              -0.3312687575817108,
              -0.2602463662624359,
              -0.3629416227340698,
              -0.6294049024581909,
              -0.5904991030693054,
              -0.05698876827955246,
              -0.12249273806810379,
              0.2730059325695038,
              0.18059541285037994,
              -0.24628795683383942,
              -0.4016207158565521,
              -0.04186490178108215,
              -0.12902799248695374,
              -0.3769233226776123,
              -0.15074199438095093,
              0.31671276688575745,
              0.2706947326660156,
              0.5547699332237244,
              -0.04079660400748253,
              -0.1357354074716568,
              -0.14128874242305756,
              -0.09619355946779251,
              -0.10011820495128632,
              0.007014528848230839,
              -0.37633073329925537,
              -0.20950351655483246,
              -0.5178804993629456,
              -0.495352178812027,
              -0.43010085821151733,
              -0.3477485477924347,
              0.5713451504707336,
              0.08846200257539749,
              0.06230601668357849,
              -0.09025627374649048,
              -0.351748526096344,
              -0.1543659120798111,
              -0.0011367216939106584,
              -0.2066071480512619,
              -0.2871796786785126,
              0.7993689179420471,
              0.566296398639679,
              0.5177139639854431,
              0.7428927421569824,
              0.5544506311416626,
              0.8080057501792908,
              0.12950429320335388,
              -0.2704823911190033,
              -0.1453193575143814,
              -0.4579145312309265,
              0.3593252897262573,
              0.4863527715206146,
              0.47458416223526,
              0.46504855155944824,
              0.3959707021713257,
              0.8105674386024475,
              0.8750810623168945,
              0.9059433341026306,
              0.7040432691574097,
              0.859298586845398,
              0.4418307840824127,
              0.06524723023176193,
              -0.11435592174530029,
              0.16928771138191223,
              0.04945656284689903,
              0.1698719561100006,
              0.47064724564552307,
              0.5390395522117615,
              0.22034890949726105,
              0.8536102175712585,
              -0.7848467826843262,
              -0.3558606207370758,
              -0.10904598236083984,
              -0.2674277126789093,
              -0.06357578933238983,
              -0.03690608590841293,
              -0.22220319509506226,
              -0.25986894965171814,
              -0.004779658745974302,
              0.38126635551452637
          ],
          "bias": -1.2645422220230103
      },
      {
          "id": "NEURON 1-14",
          "weights": [
              1.0852383375167847,
              1.284822702407837,
              1.495673656463623,
              0.46465668082237244,
              0.35338714718818665,
              0.30970290303230286,
              0.6171577572822571,
              0.6185436248779297,
              0.25389787554740906,
              0.14248448610305786,
              -1.1054307222366333,
              -1.8349213600158691,
              -1.177537441253662,
              -0.7285531759262085,
              -1.112744927406311,
              -1.0801663398742676,
              -1.0661405324935913,
              -0.6893120408058167,
              -0.3554324209690094,
              0.18559697270393372,
              -1.1950953006744385,
              -0.43565550446510315,
              -0.3540889620780945,
              -0.10445582866668701,
              0.22450287640094757,
              0.2706899046897888,
              0.27395954728126526,
              -0.08730928599834442,
              0.34032294154167175,
              0.2987043261528015,
              -0.5514679551124573,
              -0.27643394470214844,
              -0.4097523093223572,
              -0.1481693983078003,
              -0.20078827440738678,
              -0.3159082531929016,
              -0.3974071443080902,
              -0.03069642372429371,
              -0.7692484855651855,
              -0.9745991230010986,
              -0.34486183524131775,
              0.24377982318401337,
              0.13469699025154114,
              0.12636351585388184,
              0.23812830448150635,
              0.025640593841671944,
              0.1577649563550949,
              0.1548660844564438,
              0.22970914840698242,
              -0.2317768633365631,
              0.04339784383773804,
              -0.35738494992256165,
              -0.106381356716156,
              -0.12992584705352783,
              -0.13716460764408112,
              -0.13487792015075684,
              -0.34725335240364075,
              -0.6525142192840576,
              -0.7139374017715454,
              -0.06454182416200638,
              -0.4054669737815857,
              0.03517533838748932,
              -0.29463446140289307,
              -0.2489328533411026,
              -0.1235777735710144,
              0.11207952350378036,
              0.08380237221717834,
              0.08536410331726074,
              0.09071160107851028,
              0.07469223439693451,
              -0.3624002933502197,
              0.014984538778662682,
              -0.30810779333114624,
              -0.27260786294937134,
              -0.9283500909805298,
              -0.8334966897964478,
              -0.5500388145446777,
              -0.17358852922916412,
              -0.3449326455593109,
              -0.07043099403381348,
              0.9275122880935669,
              0.011556756682693958,
              -0.2744329571723938,
              0.47068265080451965,
              -0.4926253855228424,
              0.39156705141067505,
              0.2212558537721634,
              -0.16752897202968597,
              0.26789945363998413,
              -0.282980740070343,
              -0.7100411057472229,
              -0.6375816464424133,
              -0.4669463634490967,
              -0.42549455165863037,
              -0.5639899373054504,
              -0.08934774249792099,
              -0.23530545830726624,
              0.16151650249958038,
              -0.33024340867996216,
              0.09817072749137878
          ],
          "bias": 0.38996076583862305
      },
      {
          "id": "NEURON 1-15",
          "weights": [
              -0.03635808825492859,
              -0.9779804348945618,
              -0.6356038451194763,
              -1.5214847326278687,
              -0.8708531260490417,
              -0.5333415269851685,
              0.01825375109910965,
              -1.0270177125930786,
              -1.205614686012268,
              0.0029241410084068775,
              -0.43324944376945496,
              -0.9907355904579163,
              -0.9181240797042847,
              -0.06966070830821991,
              0.037412505596876144,
              -0.33482038974761963,
              -0.4063661992549896,
              -1.4432017803192139,
              0.09416094422340393,
              -0.020714381709694862,
              -0.4060955047607422,
              -1.3705804347991943,
              -0.2622837722301483,
              -0.23899422585964203,
              -0.09425457566976547,
              -0.7626965045928955,
              -0.3095102608203888,
              -1.5699461698532104,
              -0.5284175872802734,
              -0.5818805694580078,
              0.569372296333313,
              0.014782994985580444,
              0.3921019732952118,
              -0.5011986494064331,
              -0.15942050516605377,
              -0.89952152967453,
              -0.3704416751861572,
              -0.9933924674987793,
              -0.029768843203783035,
              -0.4800622761249542,
              0.6611492037773132,
              0.15030309557914734,
              0.43797585368156433,
              0.2769327163696289,
              -0.10692628473043442,
              -0.18317879736423492,
              0.46348196268081665,
              0.5770624876022339,
              0.3083880543708801,
              0.1127706989645958,
              0.6520423889160156,
              0.1417643427848816,
              0.28870296478271484,
              0.7857311367988586,
              0.6414326429367065,
              0.5900134444236755,
              0.2578160762786865,
              0.5890514850616455,
              0.5449193120002747,
              0.6634958386421204,
              -0.3490161597728729,
              0.12837323546409607,
              0.6663174629211426,
              0.32563021779060364,
              0.6572244763374329,
              0.39096349477767944,
              0.49196749925613403,
              0.2893200218677521,
              0.049941714853048325,
              0.2891645133495331,
              -0.8304752111434937,
              -0.17595568299293518,
              -0.1558055281639099,
              0.008098041638731956,
              -0.1053042933344841,
              0.0683671161532402,
              -0.2949545979499817,
              -0.03990791365504265,
              0.26899752020835876,
              0.10811033099889755,
              0.02744416892528534,
              -0.8999801278114319,
              -0.7939810752868652,
              -0.4188249707221985,
              -0.2112196683883667,
              -0.30197834968566895,
              -0.1511124223470688,
              -0.32611775398254395,
              -0.3083566129207611,
              -0.2169075608253479,
              -1.0429118871688843,
              -0.2867058217525482,
              -0.25927209854125977,
              0.19598978757858276,
              0.0762375071644783,
              0.09959464520215988,
              -0.08267061412334442,
              -0.6706000566482544,
              -0.0744778960943222,
              0.14250341057777405
          ],
          "bias": -0.7643954753875732
      },
      {
          "id": "NEURON 1-16",
          "weights": [
              0.008729410357773304,
              0.5571123957633972,
              0.0504138246178627,
              0.10027161985635757,
              0.2598205804824829,
              -0.3929417133331299,
              0.1769154667854309,
              0.14779004454612732,
              -1.7149417400360107,
              0.3923889696598053,
              -0.13508503139019012,
              -0.1604699045419693,
              0.16446813941001892,
              0.48175248503685,
              0.38107725977897644,
              -0.12673941254615784,
              0.25587087869644165,
              0.18279321491718292,
              -0.5590292811393738,
              0.1711779534816742,
              0.9657090306282043,
              0.23541229963302612,
              0.09844116121530533,
              0.21220871806144714,
              0.08369674533605576,
              0.004451642278581858,
              0.36107635498046875,
              0.01056434866040945,
              0.32470133900642395,
              0.7501894235610962,
              -0.46026411652565,
              0.36492446064949036,
              -0.22893941402435303,
              -0.2537982761859894,
              -0.0747462660074234,
              -0.677977979183197,
              -0.014680982567369938,
              -0.18209388852119446,
              0.2689814865589142,
              0.348177969455719,
              -0.7245805859565735,
              -0.45734989643096924,
              -0.4773347079753876,
              -0.2395123541355133,
              -0.4372793138027191,
              -0.6207937598228455,
              0.18917790055274963,
              0.049899037927389145,
              -0.7001669406890869,
              -0.3394591808319092,
              -0.48251256346702576,
              0.0506025031208992,
              0.06157376989722252,
              -0.641766369342804,
              -0.1355217546224594,
              -0.3582674264907837,
              0.39434075355529785,
              0.21086716651916504,
              -1.1675419807434082,
              0.18991057574748993,
              0.28954070806503296,
              -0.3481983244419098,
              -0.11425339430570602,
              -0.3609617054462433,
              0.2536688446998596,
              -0.37266987562179565,
              0.20705312490463257,
              -0.1326446533203125,
              -1.065354585647583,
              0.08049256354570389,
              0.3084881901741028,
              -0.1839890480041504,
              0.0879131406545639,
              -0.7669804692268372,
              -0.05382777005434036,
              0.03112981654703617,
              0.12320399284362793,
              -0.2954418957233429,
              -1.02326238155365,
              -0.01648990996181965,
              0.018661152571439743,
              -0.6792799234390259,
              -0.6748881936073303,
              -0.17280131578445435,
              0.6197426319122314,
              -0.09488629549741745,
              0.27607929706573486,
              0.15517142415046692,
              -1.548122763633728,
              0.3075535297393799,
              -0.32262253761291504,
              -1.3236830234527588,
              -0.039488572627305984,
              -0.02610202506184578,
              1.02065110206604,
              -1.917051911354065,
              1.0433993339538574,
              -1.2806439399719238,
              -1.4022668600082397,
              0.7108024954795837
          ],
          "bias": 0.35457441210746765
      },
      {
          "id": "NEURON 1-17",
          "weights": [
              -0.12437563389539719,
              -1.0898876190185547,
              -1.413693904876709,
              0.03473414480686188,
              0.035071615129709244,
              0.41530749201774597,
              1.011602759361267,
              -0.38942214846611023,
              0.3268691301345825,
              -0.74160236120224,
              -0.8022945523262024,
              -0.9810097813606262,
              -0.3495594561100006,
              0.8119925856590271,
              0.4182112216949463,
              0.0725216194987297,
              -0.4512822926044464,
              0.359613835811615,
              0.2982819080352783,
              0.2941856384277344,
              -0.14217324554920197,
              -0.42118996381759644,
              0.2946086823940277,
              0.2931096851825714,
              0.7198140025138855,
              0.17813463509082794,
              0.12306053936481476,
              0.32443955540657043,
              0.16210201382637024,
              -1.277441382408142,
              -1.1649484634399414,
              -0.03486890345811844,
              0.295850545167923,
              0.19996851682662964,
              -0.3589862883090973,
              -0.9009854793548584,
              -0.9590311646461487,
              -1.867386817932129,
              -2.5870752334594727,
              -0.9601632952690125,
              -0.46620166301727295,
              -0.23333802819252014,
              -0.2201332300901413,
              0.14602701365947723,
              0.14272692799568176,
              0.41986826062202454,
              0.22979524731636047,
              -0.9884461760520935,
              -0.4499727487564087,
              -0.4558762013912201,
              -0.22772064805030823,
              0.12587758898735046,
              -0.03514567017555237,
              0.0461980476975441,
              -0.42840397357940674,
              -0.8661255836486816,
              -0.770988404750824,
              0.02445463091135025,
              0.3370107412338257,
              -0.640616238117218,
              0.42070677876472473,
              0.2816137969493866,
              0.2360442578792572,
              0.1762959212064743,
              0.1756943166255951,
              0.04609996825456619,
              -0.2979818880558014,
              -0.3018309473991394,
              0.4150716960430145,
              -0.0969202071428299,
              0.477873831987381,
              0.11794224381446838,
              0.49975723028182983,
              0.16536197066307068,
              0.04082730412483215,
              0.044560857117176056,
              -0.3601571023464203,
              -0.34209299087524414,
              -0.6100344657897949,
              0.3886924088001251,
              -0.12691640853881836,
              0.26972705125808716,
              -0.20971086621284485,
              -0.19975142180919647,
              0.18336831033229828,
              0.07450311630964279,
              0.5876446962356567,
              1.0990660190582275,
              0.3352314829826355,
              1.427015781402588,
              -0.1781272441148758,
              -0.24667780101299286,
              -0.09050464630126953,
              -0.11677547544240952,
              0.05320021137595177,
              0.5431450605392456,
              0.08434712141752243,
              -0.24882398545742035,
              -0.00562156829982996,
              0.8261004090309143
          ],
          "bias": -0.5790835022926331
      },
      {
          "id": "NEURON 1-18",
          "weights": [
              0.09643439203500748,
              -0.05285580828785896,
              0.10207235813140869,
              0.6780334115028381,
              0.43451356887817383,
              0.3390234708786011,
              0.7678699493408203,
              0.6079185009002686,
              0.5370894074440002,
              0.7765135169029236,
              -0.07533249258995056,
              -0.02152509056031704,
              -0.8702727556228638,
              -1.2796759605407715,
              -1.605183482170105,
              -1.749267578125,
              -2.4880340099334717,
              -2.3957972526550293,
              -1.5053083896636963,
              -2.0146102905273438,
              0.22812317311763763,
              0.1751621961593628,
              0.27602219581604004,
              -0.07370419055223465,
              0.2429807335138321,
              0.2060832530260086,
              0.21025191247463226,
              0.20673616230487823,
              -0.8432632684707642,
              -1.755187749862671,
              -0.22756589949131012,
              -0.21751560270786285,
              -0.03644544258713722,
              0.21098801493644714,
              0.17453688383102417,
              -0.119865283370018,
              0.21040856838226318,
              0.014330524019896984,
              0.39183980226516724,
              0.756539523601532,
              -0.37130770087242126,
              -0.21721017360687256,
              -0.08046281337738037,
              -0.42976757884025574,
              -0.41278138756752014,
              -0.16107815504074097,
              -0.2944079339504242,
              -0.32778799533843994,
              -0.3835742175579071,
              -0.14036118984222412,
              0.3406139612197876,
              0.2457142472267151,
              -0.3001534640789032,
              -0.01346987672150135,
              0.05407170206308365,
              -0.09355667978525162,
              0.16326716542243958,
              -0.0460888035595417,
              -0.19654257595539093,
              0.403646856546402,
              0.06118537858128548,
              0.3160138726234436,
              -0.5136851072311401,
              -0.263511598110199,
              -0.16827362775802612,
              0.06142570823431015,
              -0.10549739003181458,
              -0.14538778364658356,
              -0.26548081636428833,
              -0.22542834281921387,
              -2.603480100631714,
              -2.243440866470337,
              -0.35938727855682373,
              -0.008028900250792503,
              -0.12662392854690552,
              0.15220481157302856,
              -0.07143709063529968,
              0.41619426012039185,
              -0.036976952105760574,
              -0.6231867671012878,
              0.5050031542778015,
              0.8309561610221863,
              0.03052130714058876,
              -0.03723672404885292,
              0.1261589676141739,
              0.05731787160038948,
              -0.12223143875598907,
              -0.037660323083400726,
              -0.7473626136779785,
              -0.3835904002189636,
              0.11898814141750336,
              0.3524545729160309,
              0.11483801156282425,
              -0.0924714207649231,
              0.14740437269210815,
              -0.039670590311288834,
              -0.10446427017450333,
              0.25457867980003357,
              0.011213830672204494,
              -0.1831861287355423
          ],
          "bias": 0.7038425803184509
      },
      {
          "id": "NEURON 1-19",
          "weights": [
              0.18970543146133423,
              0.335412859916687,
              0.6298538446426392,
              0.30821096897125244,
              0.21785083413124084,
              -0.21923349797725677,
              -0.3487744927406311,
              -0.9622116088867188,
              -2.405221700668335,
              -1.0430190563201904,
              0.40955856442451477,
              0.8705565929412842,
              0.38869747519493103,
              0.8306164145469666,
              0.8704705834388733,
              0.8535748720169067,
              0.7554243803024292,
              0.6294348835945129,
              -0.40499505400657654,
              -0.7638580203056335,
              0.7074931859970093,
              -0.14810983836650848,
              -0.03484388813376427,
              0.45614221692085266,
              0.18780769407749176,
              0.68034428358078,
              0.508674681186676,
              0.973190188407898,
              0.5811050534248352,
              0.16199545562267303,
              -0.2845837473869324,
              -0.31068122386932373,
              -0.29334551095962524,
              0.08455969393253326,
              0.2806684970855713,
              0.09101634472608566,
              0.15934063494205475,
              0.3144780993461609,
              0.7802035808563232,
              1.0252031087875366,
              -0.35433050990104675,
              -0.3331814110279083,
              -0.3364483118057251,
              -0.184122234582901,
              -0.36918482184410095,
              -0.23541255295276642,
              -0.1266126185655594,
              -0.29532936215400696,
              0.08333022147417068,
              0.3168235421180725,
              -0.06788742542266846,
              -0.14015060663223267,
              -0.09425924718379974,
              -0.2563893795013428,
              -0.5092291831970215,
              -0.14454370737075806,
              -0.5017625093460083,
              0.06238542124629021,
              -0.005195131991058588,
              0.06364359706640244,
              0.24288523197174072,
              0.44949227571487427,
              -0.14248023927211761,
              -0.16912922263145447,
              0.09349846839904785,
              0.07176616042852402,
              -0.12893159687519073,
              -0.09035278111696243,
              -0.2528511881828308,
              -0.5157328844070435,
              0.37995263934135437,
              -0.05363617092370987,
              0.057281527668237686,
              0.34073320031166077,
              0.04363754019141197,
              0.4379286468029022,
              0.02641316130757332,
              0.18153221905231476,
              0.07859905809164047,
              -0.31797856092453003,
              -0.22118835151195526,
              -0.41235828399658203,
              0.06579796224832535,
              0.19991149008274078,
              -0.0692693367600441,
              0.0954669788479805,
              0.08723346889019012,
              -0.08673473447561264,
              0.22952179610729218,
              0.11873709410429001,
              -0.8623377680778503,
              0.23897461593151093,
              0.16578586399555206,
              -0.07973423600196838,
              -0.41294971108436584,
              -0.3070206046104431,
              -0.5440608859062195,
              0.10793951898813248,
              0.24462783336639404,
              -0.5197268128395081
          ],
          "bias": -1.287090539932251
      },
      {
          "id": "NEURON 1-20",
          "weights": [
              -0.3206395208835602,
              0.023096922785043716,
              -0.20400774478912354,
              0.2172008752822876,
              0.03573111817240715,
              0.21111811697483063,
              0.4138656258583069,
              0.37376338243484497,
              0.4266297519207001,
              0.2269841730594635,
              -0.1434103548526764,
              -0.35148191452026367,
              0.29711487889289856,
              0.11332807689905167,
              0.2526479959487915,
              0.3866875171661377,
              0.7032068967819214,
              0.2867918610572815,
              0.406937837600708,
              0.49907535314559937,
              0.5585102438926697,
              0.016325077041983604,
              -0.02621847577393055,
              0.676295280456543,
              0.569443941116333,
              0.9297195076942444,
              0.6848859190940857,
              0.07941271364688873,
              0.616043746471405,
              0.30307266116142273,
              0.7837629318237305,
              0.6690267324447632,
              0.7065206170082092,
              0.4708629250526428,
              0.22924871742725372,
              0.3092828094959259,
              -0.05145814269781113,
              0.1439855396747589,
              0.40510377287864685,
              0.07644744962453842,
              0.540610134601593,
              0.2770668864250183,
              0.49142080545425415,
              0.10811285674571991,
              0.3671654760837555,
              0.296489953994751,
              -0.020131073892116547,
              0.07017192244529724,
              -0.2525041103363037,
              -0.5190222263336182,
              -0.34723255038261414,
              0.2996397018432617,
              -0.21352775394916534,
              -0.16301104426383972,
              -0.37237587571144104,
              -0.7919472455978394,
              -0.49331536889076233,
              -0.4661445617675781,
              -0.2722039818763733,
              -0.07367439568042755,
              -0.06883653253316879,
              -1.0989079475402832,
              -0.414497435092926,
              -0.42811286449432373,
              -0.5748591423034668,
              -0.26781272888183594,
              -0.46284589171409607,
              -0.4758222997188568,
              -0.11588398367166519,
              -0.7609665393829346,
              -0.20321784913539886,
              -0.828809916973114,
              0.13239967823028564,
              -0.043578069657087326,
              -0.23156704008579254,
              0.11146093159914017,
              -0.22099362313747406,
              -0.24172581732273102,
              0.09966816008090973,
              -0.25261422991752625,
              0.08944551646709442,
              -0.09474902600049973,
              0.2408129721879959,
              0.0051909638568758965,
              0.28808215260505676,
              -0.34086230397224426,
              -0.5219190716743469,
              0.33088070154190063,
              -0.5983572006225586,
              -0.5630630850791931,
              -0.7075797319412231,
              -0.20393548905849457,
              -0.4706648290157318,
              -0.23186731338500977,
              0.1627351939678192,
              -0.8159053921699524,
              -0.2352716028690338,
              -0.10254275798797607,
              0.013337227515876293,
              -0.5287894606590271
          ],
          "bias": -1.435589075088501
      },
      {
          "id": "NEURON 1-21",
          "weights": [
              -0.08863438665866852,
              -0.058321308344602585,
              -0.48571494221687317,
              -1.0851032733917236,
              -0.7362013459205627,
              -0.184730663895607,
              -0.07179294526576996,
              -0.3249470889568329,
              0.004517459776252508,
              -0.48505932092666626,
              1.033551573753357,
              0.9899289011955261,
              0.2526935338973999,
              0.07340657711029053,
              0.16048100590705872,
              -0.35702234506607056,
              0.31397610902786255,
              0.06980082392692566,
              -0.05627419054508209,
              0.0016708222683519125,
              0.7659547924995422,
              -0.05290578678250313,
              0.47167158126831055,
              0.5223294496536255,
              0.11377191543579102,
              0.1606052815914154,
              -0.1762753427028656,
              -0.5155156254768372,
              -0.7430984377861023,
              -1.023417592048645,
              -0.7629820704460144,
              0.24578943848609924,
              0.3060232996940613,
              0.43205952644348145,
              0.12266886234283447,
              0.3493785858154297,
              -0.058994442224502563,
              0.4052143394947052,
              0.3151143789291382,
              0.192437082529068,
              -0.2098540961742401,
              -0.9991297721862793,
              -0.5324695110321045,
              0.3487330973148346,
              0.5904954075813293,
              0.8197238445281982,
              0.4944051504135132,
              0.453560471534729,
              -0.059776321053504944,
              -0.15285058319568634,
              -0.9805855751037598,
              -0.7225930690765381,
              -0.183924600481987,
              0.1296384334564209,
              0.20502600073814392,
              0.07919776439666748,
              -0.20176132023334503,
              0.12086275219917297,
              0.6250720024108887,
              0.5668054223060608,
              0.08098770678043365,
              -0.07334956526756287,
              0.22239115834236145,
              -0.5738908648490906,
              -1.004920482635498,
              -0.7166640162467957,
              -0.6012992262840271,
              -0.26699134707450867,
              -0.1518200784921646,
              0.6230334639549255,
              -1.7096675634384155,
              -1.8205866813659668,
              -2.1001133918762207,
              -1.1789625883102417,
              0.13452379405498505,
              0.06404553353786469,
              0.10971894860267639,
              -0.14257751405239105,
              0.07465790212154388,
              -0.30688753724098206,
              0.362934410572052,
              0.6741613149642944,
              0.685873806476593,
              0.5297600030899048,
              -0.29816320538520813,
              -0.18917803466320038,
              -0.31291574239730835,
              -0.45310115814208984,
              -0.5573176741600037,
              0.17577619850635529,
              0.7169417142868042,
              0.48487481474876404,
              0.30974167585372925,
              0.071641705930233,
              -0.24905291199684143,
              -0.39863842725753784,
              -0.8375608921051025,
              -0.26442936062812805,
              0.01004400197416544,
              -0.5622859001159668
          ],
          "bias": -0.33799752593040466
      },
      {
          "id": "NEURON 1-22",
          "weights": [
              -0.25363218784332275,
              0.21643595397472382,
              0.013180356472730637,
              0.6690639853477478,
              1.463000774383545,
              0.8493879437446594,
              0.18857905268669128,
              -0.006661676801741123,
              -0.25567448139190674,
              0.004348489921540022,
              -0.27735966444015503,
              0.030794484540820122,
              0.02733800932765007,
              -0.3381606638431549,
              -1.5642338991165161,
              -0.3580467998981476,
              0.3173515200614929,
              -0.143364816904068,
              0.06795831769704819,
              -0.2838086485862732,
              -0.5681437849998474,
              -0.8217583298683167,
              -1.3518311977386475,
              -2.0640203952789307,
              -0.14175717532634735,
              -0.23727446794509888,
              -0.34140801429748535,
              0.14554786682128906,
              0.3030329644680023,
              -0.35419195890426636,
              -0.02780999429523945,
              -0.4015587270259857,
              -0.7787994146347046,
              -0.2796672582626343,
              -0.05458495393395424,
              -0.38314133882522583,
              0.23326553404331207,
              0.3717794418334961,
              0.2819359302520752,
              0.13984546065330505,
              -0.6719695925712585,
              -1.0460033416748047,
              -0.48999589681625366,
              -0.3128720819950104,
              -0.2276829332113266,
              0.1275731474161148,
              -0.22885707020759583,
              -0.4607781171798706,
              -0.5361647605895996,
              0.014420662075281143,
              -0.5807051658630371,
              -1.5632097721099854,
              -0.1273956298828125,
              0.11794298887252808,
              -0.06137862801551819,
              -0.2666725218296051,
              -0.14524996280670166,
              -0.1568949669599533,
              -0.20467998087406158,
              -0.6618067026138306,
              0.14193160831928253,
              0.6075053215026855,
              -0.27817481756210327,
              -0.33363282680511475,
              -0.04581943154335022,
              -0.2082993984222412,
              -0.24703368544578552,
              -0.09626072645187378,
              0.09477684646844864,
              0.2790474593639374,
              0.40885648131370544,
              0.2378869652748108,
              -0.19853390753269196,
              -0.29634958505630493,
              0.32791683077812195,
              0.2244127243757248,
              -0.2552807033061981,
              0.4927724599838257,
              -0.1526002436876297,
              0.19215357303619385,
              0.48290616273880005,
              -0.3070667088031769,
              -0.549238920211792,
              0.6620749235153198,
              0.5976728796958923,
              -0.488381952047348,
              -0.44047847390174866,
              -0.9489105343818665,
              -0.2880871593952179,
              0.332534521818161,
              -0.2928623557090759,
              -0.9699388146400452,
              0.0009740220266394317,
              0.26482388377189636,
              -0.7837585210800171,
              -0.42613860964775085,
              -0.4206182360649109,
              -0.5278984904289246,
              -0.3325470983982086,
              -0.018782388418912888
          ],
          "bias": -0.20445963740348816
      },
      {
          "id": "NEURON 1-23",
          "weights": [
              -0.19580543041229248,
              0.5848744511604309,
              -0.13875184953212738,
              0.34034860134124756,
              0.6199941039085388,
              0.11080591380596161,
              0.7990111112594604,
              -1.0311294794082642,
              -1.1194010972976685,
              -1.125023603439331,
              0.15198202431201935,
              0.9701868891716003,
              -0.10939837247133255,
              0.29497915506362915,
              -0.14365771412849426,
              0.1079012006521225,
              -0.7918015718460083,
              -1.8246222734451294,
              -1.0943044424057007,
              0.12259279936552048,
              0.4802234470844269,
              0.9421327710151672,
              -0.4821215867996216,
              -0.0034257243387401104,
              -0.5333925485610962,
              -1.179376244544983,
              -0.9946989417076111,
              0.05089987814426422,
              0.4729729890823364,
              0.4903367757797241,
              0.5515249371528625,
              0.479878693819046,
              -0.12263993173837662,
              -0.16292957961559296,
              -0.0736236572265625,
              -0.6945431232452393,
              0.11124245077371597,
              0.2436031699180603,
              1.0170531272888184,
              1.170121192932129,
              0.3235352635383606,
              0.03443627431988716,
              -0.1004398986697197,
              0.13656006753444672,
              -0.09376408159732819,
              -0.4273923933506012,
              -0.023738764226436615,
              0.06288696080446243,
              -0.682761013507843,
              -2.7194395065307617,
              0.35973596572875977,
              0.0027392390184104443,
              -0.06057640537619591,
              0.1011587455868721,
              0.10725928843021393,
              0.31932762265205383,
              0.3452566862106323,
              -0.19851210713386536,
              -0.29761430621147156,
              0.036552056670188904,
              0.12539735436439514,
              0.10352902114391327,
              -0.12561573088169098,
              0.05629943683743477,
              0.18988925218582153,
              -0.28401023149490356,
              0.5902756452560425,
              -0.2664991319179535,
              -0.10872791707515717,
              -0.4889134466648102,
              0.2186567485332489,
              0.1567690670490265,
              0.013851664960384369,
              -0.24626381695270538,
              -0.5774946808815002,
              -0.06080342456698418,
              0.47443780303001404,
              0.0493672639131546,
              0.26332226395606995,
              0.6431988477706909,
              0.6212392449378967,
              0.0016207131557166576,
