import {
  ClassificationType,
  NetworkType,
  create_network,
  relu_activation,
  sigmoid_activation,
  softmax_activation,
} from "./network";

// * --------- NETWORK V1 ---------
// Weights of V1 network
const WEIGHTS_V1 = [[[-0.4062458276748657, -0.27913016080856323], [-0.14246341586112976, 0.5944157838821411], [0.7275742888450623, -0.1283557116985321], [0.016319969668984413, 0.09264891594648361]], [[-1.2106497287750244, -1.280030608177185, -0.7134338617324829, 1.8822617530822754]]];

// Bias of V1 Network
const BIAS_V1 = [[-2.5740807056427, -1.4413264989852905, -1.564166784286499, 3.7522456645965576], [2.8565621376037598]];
// The thresholds of each layer that cause neuron to glow (not including input)

// const NETWORK_V1 = create_network(WEIGHTS_V1, BIAS_V1);
// Compiled network
const NETWORK_V1 = [
    [
        {
            "id": "NEURON 1-0",
            "weights": [
                -0.4062458276748657,
                -0.27913016080856323
            ],
            "bias": -2.5740807056427
        },
        {
            "id": "NEURON 1-1",
            "weights": [
                -0.14246341586112976,
                0.5944157838821411
            ],
            "bias": -1.4413264989852905
        },
        {
            "id": "NEURON 1-2",
            "weights": [
                0.7275742888450623,
                -0.1283557116985321
            ],
            "bias": -1.564166784286499
        },
        {
            "id": "NEURON 1-3",
            "weights": [
                0.016319969668984413,
                0.09264891594648361
            ],
            "bias": 3.7522456645965576
        }
    ],
    [
        {
            "id": "NEURON 2-0",
            "weights": [
                -1.2106497287750244,
                -1.280030608177185,
                -0.7134338617324829,
                1.8822617530822754
            ],
            "bias": 2.8565621376037598
        }
    ]
];


// * --------- NETWORK V2 ---------
const WEIGHTS_V2 = [[[-0.3873579800128937, 0.11517631262540817], [0.614243745803833, 0.2951076030731201], [0.11363153159618378, -1.0761053562164307], [0.04073479026556015, 0.399644672870636], [-0.5934334397315979, 1.18208646774292], [0.4379194378852844, -0.35193201899528503]], [[0.5710098147392273, 0.3882921040058136, -0.10278745740652084, -0.10160224139690399, 0.16939763724803925, 0.5367891788482666], [0.13760419189929962, 0.8178669214248657, 0.11588475853204727, -0.8679006099700928, -0.7209622859954834, 0.12186729162931442], [-0.04270659014582634, 0.5553534626960754, -0.8777227401733398, -0.28468871116638184, 0.4816727638244629, -1.0839409828186035], [-0.01781637966632843, -1.1269567012786865, 0.9764573574066162, 0.802203893661499, -0.037776872515678406, -0.40571531653404236]], [[-0.42266058921813965, 1.2347575426101685, -1.5079405307769775, 1.6218386888504028]]]
const BIAS_V2 = [[-0.24653266370296478, -1.276637077331543, 0.0003502338076941669, 2.516817092895508, -0.9684765338897705, -0.2313208132982254], [-0.0631561204791069, -1.3891478776931763, -0.8605103492736816, 1.6320576667785645], [-0.47292324900627136]]

const NETWORK_V2 = [
    [
        {
            "id": "NEURON 1-0",
            "weights": [
                -0.3873579800128937,
                0.11517631262540817
            ],
            "bias": -0.24653266370296478
        },
        {
            "id": "NEURON 1-1",
            "weights": [
                0.614243745803833,
                0.2951076030731201
            ],
            "bias": -1.276637077331543
        },
        {
            "id": "NEURON 1-2",
            "weights": [
                0.11363153159618378,
                -1.0761053562164307
            ],
            "bias": 0.0003502338076941669
        },
        {
            "id": "NEURON 1-3",
            "weights": [
                0.04073479026556015,
                0.399644672870636
            ],
            "bias": 2.516817092895508
        },
        {
            "id": "NEURON 1-4",
            "weights": [
                -0.5934334397315979,
                1.18208646774292
            ],
            "bias": -0.9684765338897705
        },
        {
            "id": "NEURON 1-5",
            "weights": [
                0.4379194378852844,
                -0.35193201899528503
            ],
            "bias": -0.2313208132982254
        }
    ],
    [
        {
            "id": "NEURON 2-0",
            "weights": [
                0.5710098147392273,
                0.3882921040058136,
                -0.10278745740652084,
                -0.10160224139690399,
                0.16939763724803925,
                0.5367891788482666
            ],
            "bias": -0.0631561204791069
        },
        {
            "id": "NEURON 2-1",
            "weights": [
                0.13760419189929962,
                0.8178669214248657,
                0.11588475853204727,
                -0.8679006099700928,
                -0.7209622859954834,
                0.12186729162931442
            ],
            "bias": -1.3891478776931763
        },
        {
            "id": "NEURON 2-2",
            "weights": [
                -0.04270659014582634,
                0.5553534626960754,
                -0.8777227401733398,
                -0.28468871116638184,
                0.4816727638244629,
                -1.0839409828186035
            ],
            "bias": -0.8605103492736816
        },
        {
            "id": "NEURON 2-3",
            "weights": [
                -0.01781637966632843,
                -1.1269567012786865,
                0.9764573574066162,
                0.802203893661499,
                -0.037776872515678406,
                -0.40571531653404236
            ],
            "bias": 1.6320576667785645
        }
    ],
    [
        {
            "id": "NEURON 3-0",
            "weights": [
                -0.42266058921813965,
                1.2347575426101685,
                -1.5079405307769775,
                1.6218386888504028
            ],
            "bias": -0.47292324900627136
        }
    ]
]; 
// const NETWORK_V2 = create_network(WEIGHTS_V2, BIAS_V2);
// console.log(NETWORK_V2);

// ---------------- NETWORk V3 ---------------
const WEIGHTS_V3 = [[[0.5700357556343079, 0.9445970058441162], [0.7704477310180664, -0.5656397342681885], [-0.45849865674972534, -0.43449878692626953], [0.4559835195541382, -0.6493156552314758], [-0.19658440351486206, -0.9794142842292786], [0.7151897549629211, 0.3464324474334717], [0.7683113217353821, -0.12108679860830307]], [[0.23384816944599152, -0.007374068256467581, -0.3804263770580292, 0.6649336218833923, -0.9843891859054565, 0.1991407722234726, 0.02253819815814495], [0.48330432176589966, -0.5530012249946594, 0.09168367087841034, -0.15553081035614014, -0.5118401050567627, -0.13800789415836334, -0.5778377056121826], [-0.08419349789619446, -0.20296929776668549, -0.0029813034925609827, 0.7226585745811462, -0.2637653052806854, -0.7098129987716675, -0.8354832530021667], [-0.20336444675922394, 0.7325741648674011, 1.1324113607406616, 0.19274908304214478, 0.5487991571426392, -0.095516636967659, -0.4284857511520386], [0.17905446887016296, -0.15015748143196106, -0.2818557024002075, -0.09583330899477005, 0.520337700843811, -0.17346589267253876, 0.5799183249473572]], [[0.5744307637214661, 1.0830596685409546, 0.014181721955537796, -0.059662047773599625, -0.7851768136024475], [-0.4644201099872589, 0.9975998401641846, 1.7004321813583374, -0.8017487525939941, 0.6942691206932068], [0.5060252547264099, -0.49310338497161865, -0.9871588349342346, 0.7833588719367981, -0.1955273449420929], [-0.7999966144561768, 0.4967690408229828, 0.1428569257259369, 0.7284736633300781, 0.9750717878341675]], [[-1.013994812965393, -2.145113706588745, -0.8106611371040344, 0.4720994532108307], [-1.3687843084335327, 0.9646176695823669, -1.0595996379852295, -0.40367475152015686], [1.0652271509170532, -0.2199261486530304, 0.7753706574440002, -0.42263558506965637]]]

const BIAS_V3 = [[0.3706751763820648, 0.36215925216674805, -0.9573341012001038, 0.18104976415634155, 0.06287729740142822, -0.8772092461585999, 0.24013663828372955], [-0.9137563109397888, 0.7208973169326782, 1.1586940288543701, -0.35044097900390625, 1.003308653831482], [-0.4662706255912781, 0.8599295020103455, -1.2136473655700684, 0.7672531604766846], [0.5797128081321716, 0.603725790977478, -1.2813533544540405]]


// const NETWORK_V3 = create_network(WEIGHTS_V3, BIAS_V3);
// console.log(NETWORK_V3);

const NETWORK_V3 = [
    [
        {
            "id": "NEURON 1-0",
            "weights": [
                0.5700357556343079,
                0.9445970058441162
            ],
            "bias": 0.3706751763820648
        },
        {
            "id": "NEURON 1-1",
            "weights": [
                0.7704477310180664,
                -0.5656397342681885
            ],
            "bias": 0.36215925216674805
        },
        {
            "id": "NEURON 1-2",
            "weights": [
                -0.45849865674972534,
                -0.43449878692626953
            ],
            "bias": -0.9573341012001038
        },
        {
            "id": "NEURON 1-3",
            "weights": [
                0.4559835195541382,
                -0.6493156552314758
            ],
            "bias": 0.18104976415634155
        },
        {
            "id": "NEURON 1-4",
            "weights": [
                -0.19658440351486206,
                -0.9794142842292786
            ],
            "bias": 0.06287729740142822
        },
        {
            "id": "NEURON 1-5",
            "weights": [
                0.7151897549629211,
                0.3464324474334717
            ],
            "bias": -0.8772092461585999
        },
        {
            "id": "NEURON 1-6",
            "weights": [
                0.7683113217353821,
                -0.12108679860830307
            ],
            "bias": 0.24013663828372955
        }
    ],
    [
        {
            "id": "NEURON 2-0",
            "weights": [
                0.23384816944599152,
                -0.007374068256467581,
                -0.3804263770580292,
                0.6649336218833923,
                -0.9843891859054565,
                0.1991407722234726,
                0.02253819815814495
            ],
            "bias": -0.9137563109397888
        },
        {
            "id": "NEURON 2-1",
            "weights": [
                0.48330432176589966,
                -0.5530012249946594,
                0.09168367087841034,
                -0.15553081035614014,
                -0.5118401050567627,
                -0.13800789415836334,
                -0.5778377056121826
            ],
            "bias": 0.7208973169326782
        },
        {
            "id": "NEURON 2-2",
            "weights": [
                -0.08419349789619446,
                -0.20296929776668549,
                -0.0029813034925609827,
                0.7226585745811462,
                -0.2637653052806854,
                -0.7098129987716675,
                -0.8354832530021667
            ],
            "bias": 1.1586940288543701
        },
        {
            "id": "NEURON 2-3",
            "weights": [
                -0.20336444675922394,
                0.7325741648674011,
                1.1324113607406616,
                0.19274908304214478,
                0.5487991571426392,
                -0.095516636967659,
                -0.4284857511520386
            ],
            "bias": -0.35044097900390625
        },
        {
            "id": "NEURON 2-4",
            "weights": [
                0.17905446887016296,
                -0.15015748143196106,
                -0.2818557024002075,
                -0.09583330899477005,
                0.520337700843811,
                -0.17346589267253876,
                0.5799183249473572
            ],
            "bias": 1.003308653831482
        }
    ],
    [
        {
            "id": "NEURON 3-0",
            "weights": [
                0.5744307637214661,
                1.0830596685409546,
                0.014181721955537796,
                -0.059662047773599625,
                -0.7851768136024475
            ],
            "bias": -0.4662706255912781
        },
        {
            "id": "NEURON 3-1",
            "weights": [
                -0.4644201099872589,
                0.9975998401641846,
                1.7004321813583374,
                -0.8017487525939941,
                0.6942691206932068
            ],
            "bias": 0.8599295020103455
        },
        {
            "id": "NEURON 3-2",
            "weights": [
                0.5060252547264099,
                -0.49310338497161865,
                -0.9871588349342346,
                0.7833588719367981,
                -0.1955273449420929
            ],
            "bias": -1.2136473655700684
        },
        {
            "id": "NEURON 3-3",
            "weights": [
                -0.7999966144561768,
                0.4967690408229828,
                0.1428569257259369,
                0.7284736633300781,
                0.9750717878341675
            ],
            "bias": 0.7672531604766846
        }
    ],
    [
        {
            "id": "NEURON 4-0",
            "weights": [
                -1.013994812965393,
                -2.145113706588745,
                -0.8106611371040344,
                0.4720994532108307
            ],
            "bias": 0.5797128081321716
        },
        {
            "id": "NEURON 4-1",
            "weights": [
                -1.3687843084335327,
                0.9646176695823669,
                -1.0595996379852295,
                -0.40367475152015686
            ],
            "bias": 0.603725790977478
        },
        {
            "id": "NEURON 4-2",
            "weights": [
                1.0652271509170532,
                -0.2199261486530304,
                0.7753706574440002,
                -0.42263558506965637
            ],
            "bias": -1.2813533544540405
        }
    ]
];

// --------------- NETWORK_V4 (HUGE!) --------------
// const NETWORK_V4 = create_network(WEIGHTS_V4, BIAS_V4);
// console.log(NETWORK_V4);

const NETWORK_V4 = [
    [
        {
            "id": "NEURON 1-0",
            "weights": [
                -0.2558897137641907,
                0.43245670199394226,
                1.2453473806381226,
                0.8695501685142517,
                -0.4021644592285156,
                -0.9722431898117065,
                0.09743507951498032,
                -0.17728276550769806,
                0.2198495864868164,
                0.7987562417984009,
                -0.17359398305416107,
                0.5465002059936523,
                1.0718746185302734,
                -0.2422129511833191,
                -0.7699331045150757,
                -0.3232366144657135,
                0.5104596614837646,
                0.7657939791679382,
                0.7178654074668884,
                -0.3518575429916382,
                0.19772478938102722,
                0.4367317259311676,
                0.8011128902435303,
                -0.4700411558151245,
                -0.44062915444374084,
                0.027547361329197884,
                0.29942551255226135,
                0.08934903144836426,
                0.2996978759765625,
                -0.30360332131385803,
                0.5387120246887207,
                0.6033251285552979,
                0.4869726002216339,
                -0.7702638506889343,
                -0.5476942658424377,
                -0.09693095088005066,
                1.3014545440673828,
                0.43134167790412903,
                0.14500759541988373,
                -0.9715149998664856,
                0.1848166435956955,
                0.506028413772583,
                0.5628994107246399,
                -0.6075042486190796,
                -0.08440277725458145,
                -0.03361128270626068,
                -0.019824154675006866,
                -0.35032540559768677,
                -0.7759765386581421,
                -0.6534591913223267,
                0.2752903997898102,
                0.12369228899478912,
                0.1366489976644516,
                -0.6752665638923645,
                -0.24936407804489136,
                -0.4237316846847534,
                -0.3286527395248413,
                0.3558870255947113,
                -0.4949460029602051,
                -0.38060301542282104,
                0.1976555734872818,
                0.8627384305000305,
                -0.2290092408657074,
                -0.4347617030143738,
                -0.13681569695472717,
                0.3217023015022278,
                -0.4188660979270935,
                -1.0531734228134155,
                -0.7975350618362427,
                -0.6335545778274536,
                0.29185473918914795,
                0.7085477113723755,
                -0.3915245234966278,
                -0.07615069299936295,
                -0.21507541835308075,
                0.5658400058746338,
                0.8563467860221863,
                0.40152105689048767,
                0.00699702138081193,
                0.4854840934276581,
                0.42548584938049316,
                1.2541673183441162,
                -0.4097762405872345,
                0.37571102380752563,
                0.3471888303756714,
                0.5579668283462524,
                0.655412495136261,
                0.9818583726882935,
                0.5625894665718079,
                0.9122321605682373,
                0.2888735234737396,
                0.5875893235206604,
                -0.31300607323646545,
                0.23328754305839539,
                0.23480798304080963,
                0.35776853561401367,
                0.3405023515224457,
                0.9620958566665649,
                1.0628526210784912,
                1.8355722427368164
            ],
            "bias": -0.18368756771087646
        },
        {
            "id": "NEURON 1-1",
            "weights": [
                0.29692575335502625,
                -1.6505151987075806,
                1.7371037006378174,
                -0.5209288597106934,
                -0.4749751389026642,
                0.7265730500221252,
                -1.3137073516845703,
                1.153684139251709,
                -0.5594664216041565,
                0.47460511326789856,
                0.11294560879468918,
                -1.674168586730957,
                1.6127976179122925,
                -1.097876787185669,
                0.06455639004707336,
                0.09818197041749954,
                -0.4745323956012726,
                0.8658850789070129,
                -0.2330506592988968,
                0.5679655075073242,
                0.48240602016448975,
                -1.4791934490203857,
                1.0724445581436157,
                -0.7856526374816895,
                -0.7053847908973694,
                0.725029468536377,
                -0.22296634316444397,
                0.7818818688392639,
                -0.8927131295204163,
                0.6019773483276367,
                0.15292809903621674,
                -0.22681646049022675,
                0.7834566831588745,
                -0.7537658214569092,
                -0.1948062926530838,
                0.5428558588027954,
                -0.4172992706298828,
                0.7604842782020569,
                -0.19252273440361023,
                0.28366467356681824,
                0.9620492458343506,
                -0.8808857798576355,
                0.30664512515068054,
                -0.773926317691803,
                0.31087765097618103,
                0.6648260951042175,
                0.07672484219074249,
                0.638271689414978,
                -0.5570454597473145,
                0.3884599506855011,
                0.8468568325042725,
                -0.821748673915863,
                0.5378682017326355,
                -0.49010351300239563,
                -0.06951341032981873,
                -0.18916839361190796,
                -0.2873503267765045,
                0.02640024945139885,
                -0.06995861232280731,
                0.701997697353363,
                1.3364418745040894,
                -1.112694263458252,
                0.4071202576160431,
                -0.3635825216770172,
                0.20888186991214752,
                -0.03493744879961014,
                -0.6168931722640991,
                -0.6164093017578125,
                -0.28926441073417664,
                -0.09286370873451233,
                1.4468783140182495,
                -0.8835291862487793,
                0.5959012508392334,
                -0.03451037034392357,
                0.743941068649292,
                0.23454973101615906,
                -0.552031934261322,
                -0.07103674113750458,
                -0.3639304041862488,
                -0.24472063779830933,
                0.7236433625221252,
                -0.07433853298425674,
                0.07437998056411743,
                0.04308050870895386,
                0.49359405040740967,
                -0.023351358249783516,
                0.16304519772529602,
                0.5083317160606384,
                -0.08788874745368958,
                -0.16415908932685852,
                0.36655741930007935,
                0.393155962228775,
                -0.3015293776988983,
                -0.1792203187942505,
                -0.07106833904981613,
                0.29970067739486694,
                0.7712672352790833,
                0.1977924406528473,
                -0.04748469591140747,
                0.3557150959968567
            ],
            "bias": -0.18429706990718842
        },
        {
            "id": "NEURON 1-2",
            "weights": [
                -0.44548162817955017,
                0.25937190651893616,
                0.6112554669380188,
                0.785907506942749,
                0.4907977283000946,
                0.10397377610206604,
                0.25260496139526367,
                0.8128786087036133,
                -0.06673254072666168,
                1.028702974319458,
                -0.7601189613342285,
                -0.8495199680328369,
                0.4892575740814209,
                1.0433894395828247,
                -0.2326676845550537,
                -0.4038955867290497,
                0.2963580787181854,
                1.1621123552322388,
                -0.3443237841129303,
                0.5683581829071045,
                0.09214557707309723,
                0.19858916103839874,
                0.025604812428355217,
                0.23523278534412384,
                -0.34579193592071533,
                -0.538510799407959,
                0.5506938695907593,
                0.7949149012565613,
                -0.6182287335395813,
                -1.2829521894454956,
                -0.20023176074028015,
                0.08722470700740814,
                0.05722330883145332,
                -0.054754409939050674,
                -1.0463104248046875,
                -0.48177555203437805,
                0.35840412974357605,
                0.7789324522018433,
                -1.2999451160430908,
                -1.7656170129776,
                -0.7826425433158875,
                -0.12814871966838837,
                0.31884679198265076,
                -0.04104502126574516,
                -1.468044638633728,
                -1.5294671058654785,
                0.46415945887565613,
                1.0905332565307617,
                -1.040457010269165,
                -1.1668184995651245,
                -0.7308127284049988,
                0.6251582503318787,
                -0.1350443810224533,
                0.262543261051178,
                -1.4719566106796265,
                -0.8772575855255127,
                0.5736821889877319,
                1.355160117149353,
                -0.738043487071991,
                -1.043651819229126,
                -0.8090866208076477,
                0.4446151852607727,
                0.3087507486343384,
                0.3345654606819153,
                -1.6297680139541626,
                -0.4912087321281433,
                0.2510587275028229,
                0.4520912170410156,
                -0.6963514685630798,
                -1.5653836727142334,
                -0.47359710931777954,
                0.4342639744281769,
                -0.01848169043660164,
                -0.1648842841386795,
                -0.5940579771995544,
                0.4190232455730438,
                0.43095678091049194,
                0.2661907970905304,
                -1.4693942070007324,
                -0.24723504483699799,
                0.16506627202033997,
                0.07630741596221924,
                0.4622417390346527,
                0.06711481511592865,
                0.1969956010580063,
                -0.13818621635437012,
                0.6373148560523987,
                0.315364807844162,
                -1.220940113067627,
                0.565861165523529,
                0.4053804874420166,
                -0.0067015476524829865,
                -0.6695351004600525,
                0.06479421257972717,
                0.376636803150177,
                0.7662309408187866,
                0.0587523989379406,
                0.3311043381690979,
                -1.1942884922027588,
                -0.026471255347132683
            ],
            "bias": 0.6432644128799438
        },
        {
            "id": "NEURON 1-3",
            "weights": [
                0.6700916886329651,
                0.4481646716594696,
                0.16830183565616608,
                -0.0010964502580463886,
                -0.22412075102329254,
                0.010550064034759998,
                0.20852506160736084,
                -0.23057404160499573,
                0.0939280241727829,
                0.27317315340042114,
                0.823403537273407,
                0.46952924132347107,
                0.7350403070449829,
                0.5664142370223999,
                -0.05066850781440735,
                0.11950469017028809,
                0.035817261785268784,
                0.6135485768318176,
                0.38658571243286133,
                0.4284874200820923,
                0.8563826084136963,
                0.8982728719711304,
                0.5171558856964111,
                0.26018550992012024,
                0.4005349576473236,
                0.4494651257991791,
                0.02716667391359806,
                0.2800033390522003,
                -0.49893468618392944,
                -0.620472252368927,
                -0.23245978355407715,
                0.7063020467758179,
                0.8331048488616943,
                0.6411365270614624,
                0.5001443028450012,
                0.04658724367618561,
                0.10284886509180069,
                0.09362894296646118,
                0.1425703912973404,
                0.05595332756638527,
                -1.1525079011917114,
                -0.7557035684585571,
                0.45303988456726074,
                0.8536690473556519,
                0.63965904712677,
                0.5672094821929932,
                0.12018871307373047,
                0.18359103798866272,
                -0.03280668333172798,
                0.05286251753568649,
                -0.4545539617538452,
                -1.1819716691970825,
                -0.8549684286117554,
                -0.9133422374725342,
                -0.09302946925163269,
                0.7716230750083923,
                0.6846168041229248,
                0.3249504864215851,
                0.376322865486145,
                -0.029526561498641968,
                -0.5595696568489075,
                -0.5725278258323669,
                -0.26544681191444397,
                -0.45882242918014526,
                -0.4879181385040283,
                -1.0494332313537598,
                -0.19925709068775177,
                -0.21255244314670563,
                -0.015304574742913246,
                0.19028626382350922,
                -0.11091580241918564,
                0.34600526094436646,
                0.20764164626598358,
                -0.38182932138442993,
                -0.25532323122024536,
                -0.6153510212898254,
                -0.06671945750713348,
                0.14686302840709686,
                0.4669719338417053,
                0.2577332854270935,
                0.3993973433971405,
                -0.3716801404953003,
                -0.20519477128982544,
                -0.38980594277381897,
                -0.1302272379398346,
                -0.4358105957508087,
                -0.2699728310108185,
                -0.18468236923217773,
                0.5167564749717712,
                0.25885382294654846,
                -0.16834662854671478,
                -0.5888466238975525,
                -0.6965273022651672,
                -0.4795699119567871,
                -0.007304508704692125,
                -0.11058460175991058,
                -0.32279109954833984,
                0.0010170075111091137,
                0.44310060143470764,
                0.26861846446990967
            ],
            "bias": -0.33565542101860046
        },
        {
            "id": "NEURON 1-4",
            "weights": [
                1.7555102109909058,
                1.2567600011825562,
                1.1219797134399414,
                0.676516056060791,
                0.5497152209281921,
                0.6264346837997437,
                0.7451774477958679,
                0.10596060752868652,
                0.11600592732429504,
                -0.04729999974370003,
                -0.782386839389801,
                -0.3076268136501312,
                0.4567613899707794,
                0.04216272756457329,
                0.4677778482437134,
                -0.26266056299209595,
                -0.11419492959976196,
                0.2613290548324585,
                0.15477143228054047,
                0.005439648870378733,
                -0.4023558497428894,
                0.10954415053129196,
                -1.0911812782287598,
                -0.9497112035751343,
                -0.402788907289505,
                -0.11472230404615402,
                -0.3708425462245941,
                -0.17230075597763062,
                0.12279799580574036,
                0.12832216918468475,
                0.45090943574905396,
                0.3911989629268646,
                0.4152803421020508,
                -1.0539666414260864,
                -0.06946361064910889,
                -0.11908596009016037,
                0.300752192735672,
                0.35774922370910645,
                0.15290318429470062,
                -0.08833498507738113,
                -0.39240729808807373,
                -1.000938057899475,
                -0.9997360706329346,
                -0.19094058871269226,
                0.12947237491607666,
                0.6080703735351562,
                -0.05630369111895561,
                -0.708587110042572,
                -0.16649404168128967,
                0.007722804322838783,
                0.3348802626132965,
                -0.7481967806816101,
                -0.05731009691953659,
                0.6944769620895386,
                0.17794212698936462,
                0.03224457427859306,
                0.01738123968243599,
                0.23269599676132202,
                0.06902729719877243,
                -0.09643465280532837,
                -0.123570516705513,
                -0.16618643701076508,
                -0.13843296468257904,
                0.14232373237609863,
                0.35701364278793335,
                -0.16497235000133514,
                -0.3943299949169159,
                -1.0133779048919678,
                -0.435637891292572,
                0.7240015864372253,
                -0.2418324500322342,
                -0.27592554688453674,
                0.7223506569862366,
                0.31566062569618225,
                0.21111313998699188,
                -0.1622581034898758,
                -0.7164216637611389,
                -0.3972219228744507,
                0.7092142701148987,
                0.5533897280693054,
                -0.1695929318666458,
                1.0422147512435913,
                1.9293421506881714,
                1.0297956466674805,
                -0.9652233719825745,
                -1.2153897285461426,
                0.0034303520806133747,
                0.6932279467582703,
                -0.23851226270198822,
                -0.06192154437303543,
                2.1064841747283936,
                0.9240365624427795,
                -0.9519221782684326,
                -2.751008987426758,
                -1.29644775390625,
                0.18896549940109253,
                1.391165852546692,
                0.3136623203754425,
                -0.7500964999198914,
                -0.036796219646930695
            ],
            "bias": -0.006133607123047113
        },
        {
            "id": "NEURON 1-5",
            "weights": [
                0.628960132598877,
                0.6850476861000061,
                -0.055291056632995605,
                -0.7519321441650391,
                -0.5951406955718994,
                -0.032450608909130096,
                0.35908347368240356,
                0.6080453395843506,
                0.5380183458328247,
                1.1307555437088013,
                0.641191303730011,
                0.3702383041381836,
                0.5131005644798279,
                0.625682532787323,
                0.20975041389465332,
                0.09256718307733536,
                -0.4520619809627533,
                -0.1964455395936966,
                -0.4660596549510956,
                -0.3000505268573761,
                0.16767831146717072,
                0.6767997741699219,
                0.8100868463516235,
                1.1820608377456665,
                0.33153679966926575,
                0.5814007520675659,
                0.8201096057891846,
                0.5417516231536865,
                0.6984800696372986,
                0.6290995478630066,
                -1.3383216857910156,
                -0.6008837819099426,
                -1.7007707357406616,
                -1.4830273389816284,
                -1.4637008905410767,
                -1.529241919517517,
                -1.832218050956726,
                -0.9164915680885315,
                -0.6465670466423035,
                -1.5175312757492065,
                -0.11175120621919632,
                0.10199368000030518,
                0.20374734699726105,
                0.4444718062877655,
                -0.39027461409568787,
                -0.2777476906776428,
                0.4533802270889282,
                -0.1400938332080841,
                0.015788188204169273,
                0.46023544669151306,
                1.2336667776107788,
                1.2027775049209595,
                -0.02688237465918064,
                0.35740718245506287,
                0.28885671496391296,
                0.9299503564834595,
                0.23332563042640686,
                0.14508800208568573,
                0.3835696876049042,
                0.4037388861179352,
                -3.131582021713257,
                -1.9006736278533936,
                -0.22835952043533325,
                -0.7028772234916687,
                -0.1891174465417862,
                -0.4455651044845581,
                -0.5565885305404663,
                -0.4846591651439667,
                -0.029544314369559288,
                -0.5928945541381836,
                -1.7680565118789673,
                -1.8573107719421387,
                -0.6555944681167603,
                -0.277126282453537,
                -0.2375611960887909,
                0.3572462797164917,
                0.20177648961544037,
                0.40863215923309326,
                0.26814964413642883,
                -0.1905769258737564,
                0.6485409140586853,
                0.9147573709487915,
                0.9453514814376831,
                0.5557037591934204,
                0.8184828162193298,
                0.03728550300002098,
                0.33075034618377686,
                -0.4493209719657898,
                0.10155179351568222,
                -0.06841010600328445,
                -0.8415641784667969,
                -0.24671345949172974,
                0.40478765964508057,
                -0.3317910432815552,
                0.10587912052869797,
                0.363476037979126,
                0.40189263224601746,
                -0.5922003984451294,
                0.5315573811531067,
                0.5266745090484619
            ],
            "bias": 0.2115483582019806
        },
        {
            "id": "NEURON 1-6",
            "weights": [
                -0.36800625920295715,
                0.7885697484016418,
                0.17706198990345,
                -0.24059437215328217,
                0.6543029546737671,
                0.014830296859145164,
                -0.39607754349708557,
                0.521216630935669,
                0.547063946723938,
                -0.3606225252151489,
                -0.4769420027732849,
                0.24493113160133362,
                0.20738685131072998,
                -0.10205528140068054,
                -0.4913581907749176,
                -0.22178101539611816,
                -0.14226660132408142,
                0.29768645763397217,
                0.11683391034603119,
                0.006546772550791502,
                -0.5807938575744629,
                0.14576521515846252,
                0.21325336396694183,
                0.4499358534812927,
                -0.07903259992599487,
                -0.08892742544412613,
                -0.24585901200771332,
                0.37970128655433655,
                0.4579656422138214,
                0.31124430894851685,
                -0.1312958151102066,
                0.3946276605129242,
                -0.28179672360420227,
                0.16991055011749268,
                0.27431097626686096,
                0.22204948961734772,
                -0.07928085327148438,
                0.09376203268766403,
                0.3490249216556549,
                0.07108796387910843,
                0.1126910150051117,
                0.36488834023475647,
                -0.16752943396568298,
                0.632361114025116,
                0.23320136964321136,
                -0.2580769956111908,
                -0.2695784866809845,
                -0.39458727836608887,
                0.3098013699054718,
                0.2198491245508194,
                0.4110206067562103,
                -0.029580386355519295,
                0.32947060465812683,
                0.08918736129999161,
                0.41482874751091003,
                0.3090871572494507,
                0.17075838148593903,
                -0.008870229125022888,
                -0.4159948229789734,
                -0.1801721155643463,
                0.32983168959617615,
                0.262330025434494,
                0.104609414935112,
                -0.3170529305934906,
                0.04345729202032089,
                0.6401498317718506,
                0.23551370203495026,
                -0.0019588801078498363,
                0.10620960593223572,
                0.21336093544960022,
                0.3597422242164612,
                0.001551107270643115,
                0.321228563785553,
                0.10808706283569336,
                -0.5520097017288208,
                0.2476973980665207,
                0.7065040469169617,
                0.7115237712860107,
                0.08414079993963242,
                -0.06518637388944626,
                0.282006174325943,
                0.11549612134695053,
                -0.24067546427249908,
                0.45458468794822693,
                -0.5486255884170532,
                -0.07737545669078827,
                0.29781776666641235,
                0.4725489020347595,
                0.31488603353500366,
                0.07737532258033752,
                0.10595396161079407,
                -0.06713812798261642,
                0.2447773814201355,
                0.15130411088466644,
                -0.24059295654296875,
                -0.8996121883392334,
                0.06473156809806824,
                0.1284349411725998,
                -0.012403254397213459,
                -0.06375159323215485
            ],
            "bias": -1.122943639755249
        },
        {
            "id": "NEURON 1-7",
            "weights": [
                -0.8176468014717102,
                -0.7507087588310242,
                -0.22325262427330017,
                -0.26934438943862915,
                -0.005295077804476023,
                0.21153216063976288,
                0.16835346817970276,
                0.5115951299667358,
                0.6736209392547607,
                0.14376890659332275,
                1.1708403825759888,
                0.9489737153053284,
                0.4517636299133301,
                0.5812469124794006,
                0.24401071667671204,
                0.370736300945282,
                -0.18703891336917877,
                -1.1701329946517944,
                -0.3290303647518158,
                -0.16444526612758636,
                -0.49890395998954773,
                -0.4040169417858124,
                -0.47508367896080017,
                -0.6160522699356079,
                -0.08093411475419998,
                -0.47494956851005554,
                0.49648207426071167,
                1.2265933752059937,
                0.40002089738845825,
                0.20888058841228485,
                0.826368510723114,
                0.6849022507667542,
                0.2228175401687622,
                0.1862824410200119,
                0.4161420166492462,
                0.5620184540748596,
                -0.3188253343105316,
                -0.9607580900192261,
                -0.8042158484458923,
                -0.15027739107608795,
                -0.5921536087989807,
                -0.5087531805038452,
                -0.8595235347747803,
                -0.3228245973587036,
                -1.0392283201217651,
                -0.9608160853385925,
                0.5199481248855591,
                0.8962490558624268,
                1.0264859199523926,
                0.1386665403842926,
                0.4348618686199188,
                0.6321287751197815,
                1.0874390602111816,
                0.4610723555088043,
                1.251426339149475,
                1.2914303541183472,
                -0.35658061504364014,
                -0.8919700384140015,
                -1.6840927600860596,
                -0.27828800678253174,
                -0.4788016378879547,
                -0.983888566493988,
                -1.1645920276641846,
                -0.7828845381736755,
                -1.3409851789474487,
                -1.0016610622406006,
                0.2137119621038437,
                0.7326781749725342,
                1.4670932292938232,
                0.38131821155548096,
                -0.22480590641498566,
                0.07372020930051804,
                0.7650406360626221,
                0.704184889793396,
                0.8705108761787415,
                0.8890177011489868,
                0.288044273853302,
                -0.622245728969574,
                -1.5682110786437988,
                -0.23989559710025787,
                0.0827752873301506,
                -0.2631373405456543,
                -0.5563680529594421,
                -0.6506306529045105,
                -0.5633407831192017,
                -0.7947184443473816,
                0.215908020734787,
                0.8517657518386841,
                1.670199990272522,
                0.2838907241821289,
                1.0034048557281494,
                0.5478161573410034,
                1.1699281930923462,
                1.0152647495269775,
                0.8046571612358093,
                0.5188072919845581,
                -0.3720402419567108,
                -0.8961498141288757,
                -1.4709299802780151,
                -0.18231280148029327
            ],
            "bias": -0.3051021099090576
        },
        {
            "id": "NEURON 1-8",
            "weights": [
                0.43909206986427307,
                -0.31749168038368225,
                0.04022229090332985,
                -0.1330898404121399,
                -0.8836022615432739,
                -1.189229130744934,
                -0.477521687746048,
                -0.8383434414863586,
                -1.2209272384643555,
                1.0289855003356934,
                0.33730384707450867,
                0.035453956574201584,
                0.36528536677360535,
                -0.22107377648353577,
                0.010211208835244179,
                -0.3419894576072693,
                0.14208517968654633,
                -0.811398983001709,
                -1.7609529495239258,
                1.118163824081421,
                0.43638989329338074,
                0.6800171136856079,
                0.02051577903330326,
                -0.24218317866325378,
                -0.18572379648685455,
                -0.05414601415395737,
                0.10713426768779755,
                -0.5542948246002197,
                -2.2535595893859863,
                1.4330425262451172,
                0.2935810089111328,
                0.5850225687026978,
                -0.22190572321414948,
                -0.7548788785934448,
                -0.08069285750389099,
                0.5621282458305359,
                -0.003919769078493118,
                -0.20136350393295288,
                -1.7829302549362183,
                1.7001557350158691,
                -0.602130651473999,
                0.2382061779499054,
                -0.10945369303226471,
                -1.1027225255966187,
                0.08992621302604675,
                0.56540447473526,
                0.2951170802116394,
                -0.11110801249742508,
                -1.1266188621520996,
                1.1337238550186157,
                -0.3397327661514282,
                0.39119380712509155,
                0.07969484478235245,
                -0.5810559391975403,
                0.7074730396270752,
                0.6012726426124573,
                0.9843202233314514,
                -0.20008456707000732,
                -0.40862324833869934,
                1.1477128267288208,
                -0.413832426071167,
                0.1290365606546402,
                0.10171949863433838,
                -1.0481587648391724,
                0.4989830553531647,
                0.6442709565162659,
                0.26412585377693176,
                -0.25909149646759033,
                -0.364097535610199,
                0.75208580493927,
                -0.13229171931743622,
                -0.2485126405954361,
                0.062218718230724335,
                -0.7665885090827942,
                0.5409831404685974,
                0.33605456352233887,
                -0.1887064278125763,
                0.05370395630598068,
                -0.7729098796844482,
                -0.13576149940490723,
                0.4917866289615631,
                0.1669689565896988,
                -0.2641279101371765,
                -0.4745754897594452,
                0.5036129355430603,
                0.2082313895225525,
                -0.48878154158592224,
                0.24953478574752808,
                -0.45860159397125244,
                -0.10346060246229172,
                0.39173439145088196,
                -0.007594685070216656,
                0.32823091745376587,
                -0.09567809104919434,
                0.937237024307251,
                -0.19311897456645966,
                -0.38487544655799866,
                0.2914651036262512,
                -1.1061179637908936,
                0.6165780425071716
            ],
            "bias": 1.0368056297302246
        },
        {
            "id": "NEURON 1-9",
            "weights": [
                0.1873457282781601,
                0.17997056245803833,
                0.13168342411518097,
                0.13749362528324127,
                -0.040324971079826355,
                -0.12563112378120422,
                0.4101645052433014,
                0.4412740170955658,
                0.1735471785068512,
                -0.06721407175064087,
                0.22043341398239136,
                -0.022975172847509384,
                -0.4706595242023468,
                0.07572922855615616,
                0.3469860553741455,
                0.12127707898616791,
                0.22911587357521057,
                -0.23050683736801147,
                0.3128204345703125,
                -0.1994292438030243,
                0.707807719707489,
                0.19649654626846313,
                -0.1712009310722351,
                0.18003548681735992,
                -0.1485486477613449,
                0.06350935995578766,
                0.4936923086643219,
                0.12260562181472778,
                0.06775874644517899,
                0.09367024153470993,
                0.4341314435005188,
                0.017032252624630928,
                0.2965465486049652,
                0.18575496971607208,
                0.003101873444393277,
                0.1997489333152771,
                0.1564178764820099,
                -0.11795918643474579,
                -0.20598949491977692,
                -0.29834821820259094,
                0.437419593334198,
                0.07918713241815567,
                0.38950714468955994,
                0.4921433627605438,
                0.07155373692512512,
                0.04966222122311592,
                0.253018856048584,
                -0.05111290514469147,
                0.30700886249542236,
                0.24188843369483948,
                0.23191027343273163,
                0.03041965514421463,
                0.024797288700938225,
                0.07142443209886551,
                -0.21019123494625092,
                0.16950644552707672,
                -0.11047082394361496,
                0.39509662985801697,
                -0.19276852905750275,
                0.12311053276062012,
                -0.05055949464440346,
                0.011423460207879543,
                0.0573309026658535,
                -0.054298967123031616,
                0.22760465741157532,
                0.23905959725379944,
                0.3302616775035858,
                0.016874536871910095,
                -0.4565349221229553,
                -0.11334799975156784,
                -0.031063178554177284,
                -0.16165339946746826,
                0.12349247932434082,
                -0.1499311327934265,
                -0.12032078206539154,
                -0.1742793470621109,
                0.08717042952775955,
                0.31755441427230835,
                0.3890492618083954,
                -0.41738831996917725,
                0.010044949129223824,
                0.7791144847869873,
                0.28384464979171753,
                0.24610552191734314,
                0.029479261487722397,
                0.11121204495429993,
                -0.13757498562335968,
                0.36428454518318176,
                0.5865156650543213,
                0.06069030985236168,
                -0.05869313329458237,
                0.22413583099842072,
                0.15743587911128998,
                0.18433618545532227,
                0.10531994700431824,
                0.38465845584869385,
                -0.14743982255458832,
                -0.0237196646630764,
                0.16218484938144684,
                0.5696529746055603
            ],
            "bias": -1.1750919818878174
        },
        {
            "id": "NEURON 1-10",
            "weights": [
                0.11549746245145798,
                0.40443792939186096,
                0.3949052095413208,
                0.03855077177286148,
                -0.08702626079320908,
                0.22424036264419556,
                0.5519601106643677,
                0.31449487805366516,
                0.003481549909338355,
                -0.5620260834693909,
                0.4496053159236908,
                0.028138572350144386,
                -0.28345662355422974,
                0.37738826870918274,
                0.3074026107788086,
                0.2709507346153259,
                -0.311544805765152,
                -0.6572301387786865,
                -0.3804543912410736,
                -0.10936087369918823,
                0.44765937328338623,
                -0.13603651523590088,
                0.053193967789411545,
                -0.11321064829826355,
                0.04398742690682411,
                0.33881667256355286,
                -0.19983278214931488,
                -0.7856281995773315,
                -0.15804517269134521,
                0.14462192356586456,
                0.35053208470344543,
                0.09487950801849365,
                0.10170774161815643,
                -0.17899692058563232,
                0.4565099775791168,
                0.24775606393814087,
                0.6114506125450134,
                0.013194641098380089,
                -0.20726726949214935,
                0.23140686750411987,
                0.0029548057354986668,
                0.6672675013542175,
                0.6437796950340271,
                0.5992055535316467,
                0.5663019418716431,
                0.4179095923900604,
                0.47134876251220703,
                0.22130663692951202,
                -0.4300868809223175,
                -0.7879984378814697,
                -0.5321004986763,
                -0.1061052605509758,
                0.3335525095462799,
                0.2630390226840973,
                -0.11366648226976395,
                0.22746777534484863,
                0.29257866740226746,
                1.3351728916168213,
                0.04154611751437187,
                -0.2377864271402359,
                0.0669902041554451,
                -0.1533297449350357,
                0.7313328385353088,
                0.6541181802749634,
                0.48947209119796753,
                0.3529372215270996,
                0.014461877755820751,
                0.1426338404417038,
                -0.03852846845984459,
                -0.4760834276676178,
                -0.4743689000606537,
                -0.7151751518249512,
                -0.012233367189764977,
                0.08187069743871689,
                0.09602685272693634,
                0.047624267637729645,
                -0.010960955172777176,
                0.20147617161273956,
                0.7427460551261902,
                0.37183046340942383,
                0.3223070800304413,
                0.7158774733543396,
                -0.2687067687511444,
                -0.13872219622135162,
                -0.5488333106040955,
                0.16780076920986176,
                0.036184996366500854,
                0.08699402213096619,
                0.3027559518814087,
                1.137088418006897,
                0.17064715921878815,
                -0.07043969631195068,
                -0.07805882394313812,
                -0.10282056033611298,
                -0.20697712898254395,
                0.31940290331840515,
                0.3811696171760559,
                0.004671894945204258,
                0.2271699458360672,
                0.9295934438705444
            ],
            "bias": -0.8480343222618103
        },
        {
            "id": "NEURON 1-11",
            "weights": [
                0.6620870232582092,
                0.28563886880874634,
                0.6136453747749329,
                0.5000061988830566,
                0.8498475551605225,
                1.034258484840393,
                1.0528844594955444,
                0.866523802280426,
                1.5029810667037964,
                0.4652959108352661,
                0.30076515674591064,
                -0.21909458935260773,
                -0.2898448407649994,
                -0.1393270343542099,
                -1.1439433097839355,
                -1.6823270320892334,
                -1.3478803634643555,
                -1.298007607460022,
                -3.088592767715454,
                -3.337427854537964,
                0.10644228011369705,
                -0.12231485545635223,
                0.27181506156921387,
                0.09814755618572235,
                0.019103694707155228,
                0.23387877643108368,
                0.5810434818267822,
                0.6177900433540344,
                1.8441637754440308,
                1.7419862747192383,
                0.03298351541161537,
                -0.14336316287517548,
                -0.26920026540756226,
                -0.29011985659599304,
                -0.14409442245960236,
                -0.13902099430561066,
                -0.327796995639801,
                -0.5515823364257812,
                -0.5530573725700378,
                -0.9904313087463379,
                -0.3111741542816162,
                0.3145718276500702,
                0.41547173261642456,
                0.15107126533985138,
                0.20042729377746582,
                0.21263186633586884,
                0.08173754811286926,
                0.6653933525085449,
                0.4132421016693115,
                1.2618393898010254,
                0.3115162253379822,
                -0.19719795882701874,
                0.21704763174057007,
                0.2212289571762085,
                -0.19560416042804718,
                -0.2670226991176605,
                0.09505360573530197,
                -0.32636478543281555,
                -0.5685725212097168,
                -0.5215639472007751,
                0.17902064323425293,
                -0.004763719160109758,
                -0.3034238815307617,
                0.25487378239631653,
                0.7536361217498779,
                -0.47582298517227173,
                0.07600576430559158,
                -0.055941421538591385,
                0.7155073285102844,
                0.16231757402420044,
                -0.12043696641921997,
                0.07619905471801758,
                -0.4006235599517822,
                -0.2779826521873474,
                0.05900018289685249,
                0.1932447999715805,
                -0.4291020631790161,
                -0.16459119319915771,
                -0.5466368198394775,
                0.594480574131012,
                -0.11982179433107376,
                0.3508460223674774,
                0.4512648284435272,
                0.3684554696083069,
                -0.2798263728618622,
                0.7240626811981201,
                0.3132229149341583,
                -0.020909087732434273,
                0.5003991723060608,
                0.24753612279891968,
                0.5417075753211975,
                0.3675062954425812,
                -0.291440486907959,
                0.04478738456964493,
                0.06221732124686241,
                0.3794040083885193,
                0.01853109709918499,
                -0.10151355713605881,
                -0.9174572229385376,
                -0.27956196665763855
            ],
            "bias": -0.31658002734184265
        },
        {
            "id": "NEURON 1-12",
            "weights": [
                0.37339308857917786,
                0.40906816720962524,
                -0.3037818968296051,
                -0.1732802540063858,
                -0.3408600687980652,
                0.26138991117477417,
                0.8710997700691223,
                0.28362733125686646,
                -1.2381519079208374,
                -0.24581043422222137,
                -0.23805521428585052,
                0.3592577278614044,
                -0.18789042532444,
                0.3468666672706604,
                -0.2632274031639099,
                -0.4876210391521454,
                -0.16436249017715454,
                1.1109883785247803,
                -0.04513737931847572,
                -0.6369417309761047,
                0.37510108947753906,
                0.6068711876869202,
                0.30674293637275696,
                -0.00005105193122290075,
                -0.20143093168735504,
                -0.31586524844169617,
                -0.45772308111190796,
                0.26911690831184387,
                0.2452087104320526,
                0.04254879802465439,
                0.5545057058334351,
                0.38284939527511597,
                -0.16414940357208252,
                -0.2081109881401062,
                -0.08430890738964081,
                0.07101785391569138,
                -0.3001512587070465,
                0.2723151445388794,
                -0.4030374586582184,
                0.06679856032133102,
                1.1519429683685303,
                -0.23651394248008728,
                -0.24781271815299988,
                -0.1858898550271988,
                -0.41944149136543274,
                -0.18701742589473724,
                -0.917610764503479,
                -0.6330781579017639,
                0.30683133006095886,
                0.37254273891448975,
                0.6860568523406982,
                -0.33669617772102356,
                -0.7916364073753357,
                -0.8016645312309265,
                -0.14968076348304749,
                0.2065027356147766,
                -0.1230354979634285,
                -0.964223325252533,
                -0.16227415204048157,
                0.07009405642747879,
                1.1221086978912354,
                0.27168676257133484,
                -0.3121466040611267,
                -0.8715637922286987,
                0.45098167657852173,
                0.4071495831012726,
                0.5636976957321167,
                -0.4623265862464905,
                -0.6308086514472961,
                -0.4123598039150238,
                0.8250958323478699,
                0.6746001839637756,
                0.3379788398742676,
                0.12572571635246277,
                0.09915957599878311,
                0.10204276442527771,
                0.9220420718193054,
                1.390272855758667,
                0.8027496933937073,
                0.927768349647522,
                0.40400293469429016,
                0.44633224606513977,
                0.6112762093544006,
                0.6896435618400574,
                0.511204719543457,
                0.657340407371521,
                0.4691542685031891,
                0.9284389019012451,
                0.7767546772956848,
                0.6774917244911194,
                -0.2768383324146271,
                0.06993889808654785,
                -0.05716019496321678,
                0.5676679015159607,
                0.5004884600639343,
                0.32829898595809937,
                0.30969709157943726,
                0.17341995239257812,
                0.4275682270526886,
                0.23585431277751923
            ],
            "bias": -0.10966216027736664
        },
        {
            "id": "NEURON 1-13",
            "weights": [
                1.7965623140335083,
                -1.1665889024734497,
                -0.0793941393494606,
                0.551777720451355,
                -0.0989086925983429,
                0.65156489610672,
                -0.20160624384880066,
                0.7470277547836304,
                0.1427500993013382,
                -0.18794699013233185,
                1.6714140176773071,
                -1.7690259218215942,
                0.14684534072875977,
                0.8746181726455688,
                -0.19713151454925537,
                -0.7078289985656738,
                -0.4467822015285492,
                -0.030762942507863045,
                -1.271958351135254,
                -0.5694159865379333,
                1.2906274795532227,
                -1.0225903987884521,
                -0.9764336347579956,
                0.5889485478401184,
                -0.4559926688671112,
                -0.37913307547569275,
                -0.30007630586624146,
                -0.8508813381195068,
                0.12893688678741455,
                0.4866328835487366,
                0.7948369979858398,
                -1.2553569078445435,
                -0.0074461111798882484,
                0.48982927203178406,
                -0.8919810652732849,
                -0.07359138131141663,
                -0.7302519083023071,
                -0.7987703084945679,
                -0.11737465858459473,
                -1.6548057794570923,
                0.7545729875564575,
                -0.3777276873588562,
                0.20671777427196503,
                0.7081235647201538,
                -0.3445768654346466,
                0.7680266499519348,
                0.5231143236160278,
                0.25942158699035645,
                0.4317372441291809,
                0.2955704927444458,
                0.3832460641860962,
                0.36052238941192627,
                0.29751843214035034,
                -0.128983736038208,
                0.10912879556417465,
                0.7926996350288391,
                0.5986219644546509,
                0.7079384326934814,
                -0.33732616901397705,
                0.2702381908893585,
                -0.4204578995704651,
                0.6160898804664612,
                -0.04532938823103905,
                -0.5587926506996155,
                -0.2788049280643463,
                0.21156764030456543,
                -0.14304018020629883,
                0.7537921071052551,
                0.5382723808288574,
                0.023910215124487877,
                -0.9922050833702087,
                0.45305752754211426,
                -0.027057670056819916,
                -0.5497956275939941,
                -0.36735519766807556,
                0.17722201347351074,
                0.02396511659026146,
                0.7656562924385071,
                0.3435925543308258,
                0.48772135376930237,
                -1.4577484130859375,
                0.10979894548654556,
                0.27695122361183167,
                0.10157524049282074,
                -0.10341059416532516,
                -0.8665573000907898,
                -0.3773093521595001,
                0.6888764500617981,
                -0.026439649984240532,
                0.35276952385902405,
                -1.0562195777893066,
                -0.8864652514457703,
                0.5680691003799438,
                0.9413414597511292,
                -0.5463981628417969,
                -0.506184995174408,
                -0.33091577887535095,
                -0.010566199198365211,
                -0.32956475019454956,
                0.5297437906265259
            ],
            "bias": 0.017893711104989052
        },
        {
            "id": "NEURON 1-14",
            "weights": [
                0.44885414838790894,
                -0.6313048005104065,
                0.18440300226211548,
                0.5835425853729248,
                -0.7514070272445679,
                -0.7556052803993225,
                1.4250741004943848,
                -1.1420111656188965,
                -0.48813197016716003,
                0.48671314120292664,
                0.7060048580169678,
                -0.097053162753582,
                0.12520043551921844,
                0.4167676866054535,
                0.13012975454330444,
                -0.20554785430431366,
                1.0035245418548584,
                -1.282744288444519,
                -0.2229914516210556,
                0.29049739241600037,
                0.37032249569892883,
                0.23149578273296356,
                -0.21461226046085358,
                0.40829160809516907,
                -0.22895555198192596,
                0.025989430025219917,
                0.5796292424201965,
                -1.033603549003601,
                -0.5782305002212524,
                0.06834109127521515,
                -0.12485753744840622,
                -1.1001094579696655,
                0.6203272342681885,
                -0.0004267451586201787,
                -0.7631846070289612,
                0.028655296191573143,
                0.4491589665412903,
                -1.040113091468811,
                -0.17688609659671783,
                0.5353459715843201,
                0.2909161150455475,
                -0.18486307561397552,
                -0.29328814148902893,
                0.4095877707004547,
                -0.24636907875537872,
                -0.9065834879875183,
                0.9442424178123474,
                -0.7170223593711853,
                -0.29096636176109314,
                0.8791633248329163,
                0.22136148810386658,
                0.1138942539691925,
                0.20844720304012299,
                0.7173022627830505,
                -1.0775916576385498,
                -0.1282789707183838,
                0.7685933113098145,
                -0.9319186210632324,
                0.44852450489997864,
                0.4085877537727356,
                -0.040764037519693375,
                -0.6620413064956665,
                0.05888579785823822,
                -0.0661567747592926,
                -0.6076708436012268,
                -0.22108374536037445,
                0.21739919483661652,
                -1.1613798141479492,
                0.6386934518814087,
                -0.4606087803840637,
                -0.8132864832878113,
                -0.22560328245162964,
                0.4482865333557129,
                0.3442418873310089,
                -0.4786841571331024,
                -0.48742738366127014,
                0.8298870921134949,
                -0.28337356448173523,
                0.7480121850967407,
                0.3140382170677185,
                -0.5981717109680176,
                -0.20374993979930878,
                1.2420680522918701,
                -0.0453663244843483,
                -1.2498464584350586,
                0.7314155101776123,
                0.7283598780632019,
                -0.08197184652090073,
                -0.5530966520309448,
                0.27003517746925354,
                -0.3139713406562805,
                -0.7234615087509155,
                -0.14747223258018494,
                0.4582618176937103,
                -0.919402003288269,
                -0.29742297530174255,
                1.256105661392212,
                -1.1601040363311768,
                -1.0260591506958008,
                0.7410853505134583
            ],
            "bias": -0.21523401141166687
        },
        {
            "id": "NEURON 1-15",
            "weights": [
                0.4179600179195404,
                -0.6163918972015381,
                -1.307555079460144,
                -1.12367844581604,
                -1.241658091545105,
                -0.8797206878662109,
                0.1753167062997818,
                -0.2911894619464874,
                -0.4077235460281372,
                0.6118746399879456,
                0.7371962070465088,
                -0.21826599538326263,
                0.6201807260513306,
                -0.08414425700902939,
                -0.18857355415821075,
                0.6048406958580017,
                1.0093330144882202,
                0.26186367869377136,
                0.40118107199668884,
                1.1911699771881104,
                0.010027410462498665,
                0.18619447946548462,
                -0.2185811847448349,
                -0.6248893737792969,
                -0.2645500898361206,
                0.3154497742652893,
                -0.9323517084121704,
                -0.7878768444061279,
                0.21829695999622345,
                -0.5962862372398376,
                0.1759936809539795,
                0.5681967735290527,
                0.9057316780090332,
                -0.46223828196525574,
                -0.6311007142066956,
                0.1362997144460678,
                -0.37837883830070496,
                -0.22442889213562012,
                0.03492676466703415,
                -0.02377704158425331,
                0.4629043638706207,
                0.3343643248081207,
                0.7082450985908508,
                0.3493775427341461,
                -0.15776284039020538,
                0.23114000260829926,
                -0.45245063304901123,
                -0.5136324763298035,
                0.6384562849998474,
                1.0949550867080688,
                0.03594455122947693,
                -0.0006997619057074189,
                0.6257935166358948,
                0.6649987101554871,
                -0.29941025376319885,
                -1.0506234169006348,
                -0.8804556131362915,
                -0.42959269881248474,
                -0.3082447648048401,
                0.7045994400978088,
                -0.2919777035713196,
                0.6644418239593506,
                0.7713075876235962,
                0.17993375658988953,
                0.8374712467193604,
                -0.6321860551834106,
                0.12898708879947662,
                -0.6887036561965942,
                -0.28046414256095886,
                0.5442978143692017,
                -0.3420156240463257,
                -0.22783635556697845,
                -0.14981688559055328,
                0.14792372286319733,
                0.36507749557495117,
                0.202964648604393,
                -0.004450657404959202,
                -1.5598052740097046,
                -0.1439187377691269,
                0.8957619667053223,
                0.1936097890138626,
                -0.5358593463897705,
                -0.6234659552574158,
                0.05878249928355217,
                0.061525143682956696,
                0.2558155655860901,
                -0.5491911768913269,
                -1.0215342044830322,
                -1.6398541927337646,
                1.7451475858688354,
                -0.773402214050293,
                -0.32012876868247986,
                0.2704406678676605,
                0.2015337347984314,
                0.06360325962305069,
                -0.0016885510412976146,
                0.07428610324859619,
                -1.1054819822311401,
                -0.5654216408729553,
                1.7019602060317993
            ],
            "bias": 0.4098770022392273
        },
        {
            "id": "NEURON 1-16",
            "weights": [
                -0.02263454534113407,
                0.533056914806366,
                -0.1299610435962677,
                0.21018058061599731,
                -0.711675226688385,
                1.2020721435546875,
                -1.1563910245895386,
                0.26937705278396606,
                0.32516607642173767,
                -0.7272171378135681,
                0.38761717081069946,
                0.4491347372531891,
                -0.50127112865448,
                -0.8600220680236816,
                0.1379418522119522,
                0.38316288590431213,
                -0.8799521327018738,
                0.5605653524398804,
                0.40906035900115967,
                0.12783126533031464,
                -0.04942186549305916,
                0.9816237688064575,
                -1.135528564453125,
                0.39766111969947815,
                -0.7932302355766296,
                0.8391750454902649,
                -0.5271136164665222,
                -0.8574809432029724,
                0.24476435780525208,
                -0.3804881274700165,
                0.07349132001399994,
                0.7511395215988159,
                -0.8476382493972778,
                -0.9804373979568481,
                -0.34557658433914185,
                0.2953121066093445,
                -0.755817711353302,
                -0.8111273050308228,
                0.207970529794693,
                -0.5127823948860168,
                -0.14838197827339172,
                -0.3791326880455017,
                -0.49032217264175415,
                -0.5179746150970459,
                -0.9109384417533875,
                1.1785924434661865,
                0.1638742983341217,
                -0.8326374292373657,
                0.8439744710922241,
                -0.31122177839279175,
                0.7786626219749451,
                0.37248438596725464,
                -0.873051643371582,
                0.3063860237598419,
                -0.3162519037723541,
                1.8964357376098633,
                -0.047076933085918427,
                0.5741089582443237,
                0.3776610493659973,
                -0.0496772862970829,
                0.8900082111358643,
                0.28199923038482666,
                -0.8143735527992249,
                0.11501450836658478,
                -0.1305730938911438,
                1.2078160047531128,
                0.46245047450065613,
                -0.9202886819839478,
                0.48097261786460876,
                -0.16352728009223938,
                0.7017034888267517,
                0.11546596884727478,
                -0.4972383975982666,
                0.43357402086257935,
                -1.596214771270752,
                0.8055267333984375,
                0.29615840315818787,
                -1.7171616554260254,
                0.4084755480289459,
                -1.0907648801803589,
                0.056743074208498,
                0.30078426003456116,
                0.689802348613739,
                -0.4171540141105652,
                -0.4527091681957245,
                -0.44139569997787476,
                -0.3590368628501892,
                -0.4049113988876343,
                0.6975488066673279,
                -1.6351211071014404,
                0.16282311081886292,
                0.5563120245933533,
                0.3219259977340698,
                0.8636114597320557,
                -0.16093292832374573,
                0.08376964181661606,
                -1.0525321960449219,
                -1.8707733154296875,
                1.194360613822937,
                -1.4761842489242554
            ],
            "bias": -0.029145799577236176
        },
        {
            "id": "NEURON 1-17",
            "weights": [
                -0.28817248344421387,
                1.0479342937469482,
                -0.4034738838672638,
                -1.2074596881866455,
                -0.22857391834259033,
                0.14706598222255707,
                -0.11704584956169128,
                -2.0684876441955566,
                0.7871458530426025,
                0.28350257873535156,
                0.5091843605041504,
                0.8405779600143433,
                0.13061712682247162,
                -0.055283255875110626,
                0.07922054827213287,
                0.1460704654455185,
                -0.15969547629356384,
                -2.2559621334075928,
                0.9293224215507507,
                -0.17914853990077972,
                0.5826878547668457,
                0.5903621912002563,
                -0.23434235155582428,
                -0.26164114475250244,
                0.44338515400886536,
                -0.2236613631248474,
                0.0929165780544281,
                -0.8776029944419861,
                0.7048665285110474,
                -0.4872119128704071,
                -0.1991318315267563,
                0.6145908832550049,
                -0.5964736342430115,
                0.3511331081390381,
                -0.035857900977134705,
                -0.2653566300868988,
                0.1625422090291977,
                0.293964147567749,
                0.28592321276664734,
                -0.034643806517124176,
                -0.5735310912132263,
                -0.31248411536216736,
                0.6566706299781799,
                1.0464763641357422,
                -0.023813607171177864,
                0.7369581460952759,
                0.5470840334892273,
                -0.12473372370004654,
                0.8645771145820618,
                0.447802871465683,
                -2.133389949798584,
                -0.004291994031518698,
                0.33071351051330566,
                -0.16745351254940033,
                -0.35880768299102783,
                0.958720862865448,
                0.020986409857869148,
                -0.13704359531402588,
                0.652630627155304,
                0.28104168176651,
                -1.434163212776184,
                0.5810975432395935,
                0.3904217779636383,
                -2.5004115104675293,
                -0.255192369222641,
                0.28689825534820557,
                0.10225777328014374,
                0.2964535653591156,
                -0.7220596075057983,
                0.3648747503757477,
                -0.29518696665763855,
                0.6620559096336365,
                -0.13508790731430054,
                -2.455772638320923,
                -0.011892778798937798,
                0.08782321214675903,
                0.04770437628030777,
                -0.4979366958141327,
                0.12034781277179718,
                0.06532381474971771,
                0.1695854812860489,
                0.3022039532661438,
                -1.505339503288269,
                -1.9874470233917236,
                0.1514328420162201,
                0.6157082319259644,
                -0.005078089889138937,
                -1.6402145624160767,
                -0.04175591841340065,
                0.10159152001142502,
                0.18372805416584015,
                0.36956167221069336,
                -0.6023390293121338,
                -0.8675633072853088,
                -0.21692895889282227,
                0.3771454691886902,
                -0.4970983564853668,
                -1.742107629776001,
                -0.03706995025277138,
                0.12202922999858856
            ],
            "bias": 0.10771484673023224
        },
        {
            "id": "NEURON 1-18",
            "weights": [
                -1.0795881748199463,
                1.2344834804534912,
                -0.7409462928771973,
                -1.2502070665359497,
                1.5682449340820312,
                -0.9430972933769226,
                0.10352303087711334,
                0.7200390696525574,
                -0.41175583004951477,
                0.00029783404897898436,
                -2.3962631225585938,
                1.135204792022705,
                -0.8670672178268433,
                0.21067243814468384,
                1.0630937814712524,
                -0.3461987376213074,
                0.21666213870048523,
                -0.4827529489994049,
                -1.7370034456253052,
                -1.6902705430984497,
                -2.460886240005493,
                -0.03666099160909653,
                -0.003379269503057003,
                -0.8237645030021667,
                0.4067389667034149,
                -0.6078551411628723,
                0.32432788610458374,
                -0.6541637778282166,
                -0.5397661924362183,
                0.3592708706855774,
                -3.069539785385132,
                0.7617324590682983,
                0.7361031174659729,
                -0.3917699456214905,
                0.05988617241382599,
                -0.10100637376308441,
                0.19693522155284882,
                0.009587465785443783,
                0.6607287526130676,
                0.8958786725997925,
                -2.717167377471924,
                1.3719112873077393,
                0.21107423305511475,
                -1.1078574657440186,
                0.34333720803260803,
                -0.7255687117576599,
                0.43571871519088745,
                0.6039735078811646,
                0.968016505241394,
                -0.25122249126434326,
                -1.2327384948730469,
                1.2493953704833984,
                0.23705269396305084,
                -0.6525238156318665,
                0.43872857093811035,
                -1.319169521331787,
                -0.01575121097266674,
                -0.3690422475337982,
                0.25791269540786743,
                -0.07182034105062485,
                -0.23713161051273346,
                0.6188178658485413,
                0.6664551496505737,
                -0.3500297963619232,
                0.5620197653770447,
                -0.2481411099433899,
                -0.10086815804243088,
                -0.8609331250190735,
                -0.9961041212081909,
                -0.2483849674463272,
                -0.619814395904541,
                -0.022633669897913933,
                0.3753960430622101,
                0.22102144360542297,
                0.4530017375946045,
                0.003234102390706539,
                0.45223701000213623,
                -1.0436615943908691,
                -0.03700306639075279,
                0.052387069910764694,
                -0.6341970562934875,
                0.06000557169318199,
                0.09842053055763245,
                0.650536298751831,
                0.03582790866494179,
                0.53826904296875,
                0.1744765192270279,
                0.10567515343427658,
                0.20576827228069305,
                -0.513799250125885,
                -0.47276943922042847,
                0.06187698245048523,
                -0.26776009798049927,
                0.10625018924474716,
                -0.15663401782512665,
                0.29072144627571106,
                0.7567476034164429,
                0.8992701172828674,
                0.3545374572277069,
                -0.4360983669757843
            ],
            "bias": 0.3095497488975525
        },
        {
            "id": "NEURON 1-19",
            "weights": [
                1.6628247499465942,
                1.7726925611495972,
                1.6176629066467285,
                1.3499202728271484,
                1.1113402843475342,
                0.38455942273139954,
                0.058076195418834686,
                -0.3688325881958008,
                -1.2463562488555908,
                -0.4322132170200348,
                -1.8732062578201294,
                -1.6907215118408203,
                -1.2359240055084229,
                -0.08558595180511475,
                0.23252835869789124,
                0.4566015303134918,
                0.278445303440094,
                0.32562971115112305,
                -0.19074955582618713,
                -0.822917103767395,
                0.5368626713752747,
                -0.2449096143245697,
                -0.4935120642185211,
                -0.4189642667770386,
                -0.0925900787115097,
                0.285315603017807,
                0.45753026008605957,
                0.39276736974716187,
                0.32660695910453796,
                -0.2317829430103302,
                -0.7701624035835266,
                -0.5246766209602356,
                -1.0132492780685425,
                -1.2524381875991821,
                -0.6613284349441528,
                -1.09354567527771,
                -0.4012977182865143,
                -0.8335445523262024,
                -0.16318181157112122,
                0.32941314578056335,
                0.383534699678421,
                0.7891503572463989,
                1.016116738319397,
                0.4577808082103729,
                0.06742507219314575,
                0.253490149974823,
                0.07835070788860321,
                -0.17797133326530457,
                -0.34495431184768677,
                0.06870980560779572,
                0.47530806064605713,
                0.2727843225002289,
                -0.5224359631538391,
                -0.6882404685020447,
                -0.4249630868434906,
                0.1513521522283554,
                0.4204324781894684,
                0.05619056895375252,
                0.18490394949913025,
                -0.367505818605423,
                -0.20133459568023682,
                -0.10181223601102829,
                -0.523085355758667,
                -0.07463531941175461,
                -0.2742699384689331,
                0.047322385013103485,
                -0.06784815341234207,
                0.14731034636497498,
                0.12766821682453156,
                0.45393842458724976,
                0.7922583818435669,
                0.5618196129798889,
                0.04082920402288437,
                0.24873609840869904,
                -0.10186507552862167,
                -0.19506336748600006,
                -0.039500243961811066,
                0.2835364043712616,
                0.2684708833694458,
                -0.45738741755485535,
                -1.4069334268569946,
                -0.7288835048675537,
                -1.2426098585128784,
                -0.6225269436836243,
                -0.006467258092015982,
                0.17643257975578308,
                0.09310778230428696,
                -0.6874771118164062,
                -0.3076540529727936,
                -0.24548348784446716,
                0.598305344581604,
                0.35332950949668884,
                0.17976894974708557,
                0.8130183815956116,
                0.09455115348100662,
                0.28452423214912415,
                0.036492060869932175,
                0.19325144588947296,
                0.4069599509239197,
                -0.3281201422214508
            ],
            "bias": 0.5214324593544006
        },
        {
            "id": "NEURON 1-20",
            "weights": [
                -0.44839444756507874,
                -0.4311456084251404,
                0.26370877027511597,
                0.2489449679851532,
                0.6850118637084961,
                0.5309262871742249,
                0.43753260374069214,
                0.5634569525718689,
                -0.1369093507528305,
                -0.24167513847351074,
                0.24425476789474487,
                0.7879733443260193,
                0.5416967272758484,
                0.19932116568088531,
                -0.21661759912967682,
                -0.19735287129878998,
                0.010199774987995625,
                0.13688282668590546,
                0.01796741411089897,
                -0.1676693856716156,
                -0.040546175092458725,
                0.012993884272873402,
                -0.024788590148091316,
                0.26655712723731995,
                0.3844519555568695,
                0.37114763259887695,
                0.2062542587518692,
                0.13881437480449677,
                0.06875035911798477,
                -0.0380486361682415,
                0.7517989277839661,
                -0.3764154613018036,
                -0.23463784158229828,
                0.354118674993515,
                -0.02898430824279785,
                -0.33378610014915466,
                -0.37726157903671265,
                0.16256961226463318,
                0.23322555422782898,
                0.45904669165611267,
                -0.42327165603637695,
                0.5899026989936829,
                -0.05119192972779274,
                -0.0432821623980999,
                -0.16420482099056244,
                -0.35696911811828613,
                -0.12267913669347763,
                -0.14444603025913239,
                0.6600135564804077,
                0.036989837884902954,
                0.722466230392456,
                -0.7543861865997314,
                -1.2153408527374268,
                0.01976807601749897,
                0.5797895193099976,
                0.3309272229671478,
                0.10597270727157593,
                -0.28935882449150085,
                0.5174500942230225,
                0.19444510340690613,
                -1.790895700454712,
                -0.3334380090236664,
                0.2850414514541626,
                0.0531386137008667,
                0.18698574602603912,
                -0.010847935453057289,
                0.3281629681587219,
                -0.3087262809276581,
                0.29538312554359436,
                -0.08767449855804443,
                1.3812220096588135,
                0.18282754719257355,
                -0.2121317833662033,
                0.30392876267433167,
                0.393853098154068,
                0.23170435428619385,
                -0.45254236459732056,
                -0.6993967890739441,
                -0.23245444893836975,
                0.56273353099823,
                0.3637186288833618,
                -0.07200590521097183,
                0.45934247970581055,
                0.2672926187515259,
                0.640322208404541,
                0.7611749172210693,
                0.7885600328445435,
                0.2551754117012024,
                0.40438997745513916,
                -0.08266372978687286,
                -0.8675378561019897,
                -0.12904071807861328,
                0.6529874801635742,
                0.28396934270858765,
                -0.3238013684749603,
                -0.7922156453132629,
                -0.4612286388874054,
                -0.6871880888938904,
                -0.4579443633556366,
                -0.010810105130076408
            ],
            "bias": -0.8003013730049133
        },
        {
            "id": "NEURON 1-21",
            "weights": [
                0.8451659679412842,
                0.21901436150074005,
                0.833866536617279,
                0.40529078245162964,
                0.7883058786392212,
                0.44039103388786316,
                0.7536814212799072,
                0.31305885314941406,
                -0.04195081815123558,
                0.3412746787071228,
                -2.86869478225708,
                -4.096685409545898,
                -1.57753324508667,
                -0.7413197755813599,
                0.6657400727272034,
                0.2232629954814911,
                0.30756112933158875,
                0.5958882570266724,
                0.021367110311985016,
                0.49238651990890503,
                -1.230519413948059,
                -0.6464559435844421,
                -0.10170743614435196,
                -1.2709568738937378,
                -0.7942472696304321,
                -1.0032960176467896,
                -0.8374680280685425,
                -0.5439034700393677,
                -0.5289223194122314,
                -0.2137821614742279,
                1.3995850086212158,
                0.6069057583808899,
                0.6986297369003296,
                0.2290893942117691,
                -0.10648632049560547,
                -0.600156843662262,
                -0.018520481884479523,
                -0.16053858399391174,
                -0.7456092238426208,
                -0.8968411684036255,
                0.21197478473186493,
                0.45394518971443176,
                1.0463906526565552,
                0.8687605261802673,
                0.4801359176635742,
                0.24126140773296356,
                0.4471275210380554,
                0.4283057749271393,
                -0.06709474325180054,
                0.20146319270133972,
                -0.2283274084329605,
                0.16199080646038055,
                0.37570998072624207,
                -0.012149195186793804,
                0.44197267293930054,
                0.915054202079773,
                0.0476800762116909,
                0.2815646529197693,
                0.3780422508716583,
                0.3935847580432892,
                -0.3442983627319336,
                -1.662352442741394,
                -2.093942165374756,
                -1.8871986865997314,
                -0.7495629191398621,
                -0.4719817638397217,
                -0.831981897354126,
                -0.6323640942573547,
                0.37573325634002686,
                0.8616001605987549,
                0.3759719431400299,
                0.14062312245368958,
                -0.5965881943702698,
                -0.21743327379226685,
                -0.46245718002319336,
                -0.44931572675704956,
                -0.9298751950263977,
                -0.07315105199813843,
                -0.6658156514167786,
                -0.8888096213340759,
                0.2792201340198517,
                0.626216471195221,
                0.6003722548484802,
                0.12517589330673218,
                -1.3800272941589355,
                -1.3062107563018799,
                0.16169017553329468,
                0.11724570393562317,
                -1.1287060976028442,
                -1.9809600114822388,
                -0.38543981313705444,
                0.4913250505924225,
                0.6517877578735352,
                1.2236590385437012,
                1.146479606628418,
                0.34498530626296997,
                0.31267258524894714,
                0.9007531404495239,
                0.4456588923931122,
                1.184566617012024
            ],
            "bias": 0.6229026913642883
        },
        {
            "id": "NEURON 1-22",
            "weights": [
                0.9335814714431763,
                0.24582074582576752,
                -1.1701909303665161,
                -3.125206232070923,
                -1.9203287363052368,
                -0.8500166535377502,
                0.9603961110115051,
                0.9073866009712219,
                0.9020161628723145,
                0.8264225125312805,
                0.8263216614723206,
                0.2162221223115921,
                0.7622257471084595,
                0.39002928137779236,
                -0.691815972328186,
                -1.965524435043335,
                -2.4225218296051025,
                -0.6857893466949463,
                -0.5751757621765137,
                0.7318746447563171,
                1.170314073562622,
                0.5134624242782593,
                1.620632529258728,
                1.0713697671890259,
                0.6597025394439697,
                0.5792601108551025,
                0.15861205756664276,
                -0.21697326004505157,
                -0.3827277719974518,
                -0.9802426695823669,
                -0.3634837567806244,
                -1.15565824508667,
                0.16945160925388336,
                0.05974680557847023,
                0.001444034744054079,
                0.05390471965074539,
                0.08024026453495026,
                0.3452126383781433,
                0.6079081296920776,
                -0.7164405584335327,
                0.06230716407299042,
                0.643191397190094,
                -0.6114631295204163,
                -0.14484666287899017,
                -0.2779569625854492,
                -0.2731938064098358,
                0.8449516296386719,
                0.5184813737869263,
