// For hydration purposes (Next JS)
// export const network_v1 = create_network(WEIGHTS, BIAS);

import {
  ClassificationType,
  create_network,
  NetworkType,
  relu_activation,
  sigmoid_activation,
  softmax_activation,
} from "./network";

// * --------- NETWORK V1 ---------
// Weights of V1 network
const WEIGHTS_V1 = [
  [
    [0.34660286, -0.01123584],
    [-0.16000803, 0.37327516],
    [-0.20330293, -0.285043],
    [0.03866423, 0.00664284],
  ], // First Layer
  [[-0.819887, -0.60944384, -0.60550654, 0.81135994]], // Output Layer
];

// Bias of V1 Network
const BIAS_V1 = [[-1.3854994, -1.2200477, -0.6707291, 2.2454503], [1.962239]];
// The thresholds of each layer that cause neuron to glow (not including input)
export const ACTIVATION_THRESHOLDS_V1 = [0, 0.5];
// Activation function of each layer
export const ACTIVATIONS_V1 = [relu_activation, sigmoid_activation];

// Compiled network
const NETWORK_V1 = [
  [
    {
      id: "NEURON_75921",
      weights: [0.34660286, -0.01123584],
      bias: -1.3854994,
    },
    {
      id: "NEURON_79786",
      weights: [-0.16000803, 0.37327516],
      bias: -1.2200477,
    },
    {
      id: "NEURON_96141",
      weights: [-0.20330293, -0.285043],
      bias: -0.6707291,
    },
    {
      id: "NEURON_65776",
      weights: [0.03866423, 0.00664284],
      bias: 2.2454503,
    },
  ],
  [
    {
      id: "NEURON_82556",
      weights: [-0.819887, -0.60944384, -0.60550654, 0.81135994],
      bias: 1.962239,
    },
  ],
];

// * --------- NETWORK V2 ---------
const WEIGHTS_V2 = [
  [
    [-0.34477118, -1.6760575],
    [0.31985378, 0.05698782],
    [0.9938797, 0.37092927],
    [0.5316709, 0.05891604],
    [-0.3936875, 0.2678236],
    [-0.6676354, -0.23336759],
  ],
  [
    [1.7718524, 0.1253783, 0.05593611, 0.8161352, -0.5778513, -0.32674235],
    [-0.387093, 0.11015438, -0.6425315, 0.01890373, -0.12255807, -0.67158157],
    [0.12292493, -2.2577233, 0.04268863, -0.23945038, 0.824801, 0.16089681],
    [
      -0.5992771, -0.34958652, -0.35315248, -0.5255966, -0.03629249,
      -0.34147778,
    ],
    [-0.53602463, -0.5711668, 0.7213426, -1.7292765, -0.11530387, -1.7924851],
    [0.52787155, 0.15420282, -0.06676751, 0.09076008, 1.7018548, 0.17385295],
  ],
  [[0.566249, 0.51702875, -0.6228413, -0.10376287, -1.122004, -0.55353564]],
];

const BIAS_V2 = [
  [1.2334526, -1.3812139, -0.24565703, -3.3825176, -3.5829697, -0.02190185],
  [-1.1887258, -0.41817272, -1.3184562, -0.20588127, 0.25860855, -2.6970034],
  [1.1585021],
];

const NETWORK_V2 = [
  [
    {
      id: "NEURON_11136",
      weights: [-0.34477118, -1.6760575],
      bias: 1.2334526,
    },
    {
      id: "NEURON_35617",
      weights: [0.31985378, 0.05698782],
      bias: -1.3812139,
    },
    {
      id: "NEURON_52199",
      weights: [0.9938797, 0.37092927],
      bias: -0.24565703,
    },
    {
      id: "NEURON_68952",
      weights: [0.5316709, 0.05891604],
      bias: -3.3825176,
    },
    {
      id: "NEURON_03907",
      weights: [-0.3936875, 0.2678236],
      bias: -3.5829697,
    },
    {
      id: "NEURON_71160",
      weights: [-0.6676354, -0.23336759],
      bias: -0.02190185,
    },
  ],
  [
    {
      id: "NEURON_61495",
      weights: [
        1.7718524, 0.1253783, 0.05593611, 0.8161352, -0.5778513, -0.32674235,
      ],
      bias: -1.1887258,
    },
    {
      id: "NEURON_75033",
      weights: [
        -0.387093, 0.11015438, -0.6425315, 0.01890373, -0.12255807, -0.67158157,
      ],
      bias: -0.41817272,
    },
    {
      id: "NEURON_47197",
      weights: [
        0.12292493, -2.2577233, 0.04268863, -0.23945038, 0.824801, 0.16089681,
      ],
      bias: -1.3184562,
    },
    {
      id: "NEURON_67004",
      weights: [
        -0.5992771, -0.34958652, -0.35315248, -0.5255966, -0.03629249,
        -0.34147778,
      ],
      bias: -0.20588127,
    },
    {
      id: "NEURON_22291",
      weights: [
        -0.53602463, -0.5711668, 0.7213426, -1.7292765, -0.11530387, -1.7924851,
      ],
      bias: 0.25860855,
    },
    {
      id: "NEURON_42131",
      weights: [
        0.52787155, 0.15420282, -0.06676751, 0.09076008, 1.7018548, 0.17385295,
      ],
      bias: -2.6970034,
    },
  ],
  [
    {
      id: "NEURON_38332",
      weights: [
        0.566249, 0.51702875, -0.6228413, -0.10376287, -1.122004, -0.55353564,
      ],
      bias: 1.1585021,
    },
  ],
];

// ---------------- NETWORk V3 ---------------
const WEIGHTS_V3 = [
  [
    [-0.5324926376342773, -0.29907533526420593],
    [-0.7304787039756775, -0.7349548935890198],
    [-0.19057944416999817, 0.6576992273330688],
    [0.7561840415000916, -0.23459865152835846],
    [-0.0315120592713356, 0.09727984666824341],
    [0.7216871976852417, 0.6902466416358948],
  ],
  [
    [
      -0.3610752522945404, 0.8125820755958557, -0.001195224467664957,
      -0.05774438753724098, 0.3710850477218628, -3.180962085723877,
    ],
    [
      0.1668349951505661, 0.452275812625885, 0.15249839425086975,
      0.5151237845420837, -0.7802107930183411, -0.12064271420240402,
    ],
    [
      0.6722677946090698, -0.43293437361717224, 0.20755833387374878,
      0.6839873194694519, -0.30257752537727356, 0.07432575523853302,
    ],
    [
      -0.6294812560081482, -0.303091824054718, 0.2578834295272827,
      0.0066947718150913715, -0.542716383934021, 0.9371834993362427,
    ],
    [
      0.4042842984199524, -0.3901467025279999, -1.5084220170974731,
      0.5652968883514404, 0.8680306077003479, -0.6993414759635925,
    ],
    [
      -0.13709603250026703, -0.4469386637210846, -0.14095459878444672,
      0.5516986846923828, 0.026941873133182526, 0.6507626175880432,
    ],
    [
      0.030041947960853577, -0.06400871276855469, 0.5501330494880676,
      -0.5280497670173645, 0.13784568011760712, 0.3633773922920227,
    ],
    [
      0.13917189836502075, -0.09907057881355286, -1.1791188716888428,
      0.6115815043449402, -0.1257452815771103, 0.28531205654144287,
    ],
  ],
  [
    [
      0.3943626880645752, 0.7286345362663269, 0.15075565874576569,
      -0.6228792071342468, 1.626854658126831, 0.6073384881019592,
      -0.01686279848217964, -0.24761465191841125,
    ],
    [
      0.0928196981549263, 0.3560091555118561, -0.5269024968147278,
      0.6296191811561584, 0.20593887567520142, -0.6647340655326843,
      0.3685893416404724, 1.2788645029067993,
    ],
    [
      -1.3074438571929932, 0.29227086901664734, -0.20799235999584198,
      -1.6280311346054077, 0.9070345759391785, -0.03995760530233383,
      0.2281820923089981, 0.44812899827957153,
    ],
    [
      -0.714678168296814, -0.44059914350509644, -0.4126870930194855,
      -0.4688993990421295, 0.21437454223632812, -0.4142325818538666,
      -0.10313690453767776, -0.35133835673332214,
    ],
  ],
  [
    [
      0.49380406737327576, 0.30138105154037476, 0.8497355580329895,
      0.17598935961723328,
    ],
    [
      0.5417230725288391, 1.002265453338623, -0.19498759508132935,
      -0.22209909558296204,
    ],
    [
      0.6868888735771179, 0.8658484816551208, -1.1983275413513184,
      0.21791952848434448,
    ],
    [
      -1.7504398822784424, 0.530386745929718, -1.7322925329208374,
      -0.156508207321167,
    ],
  ],
  [
    [
      0.4318792223930359, 0.23323090374469757, -1.2973649501800537,
      -3.3018250465393066,
    ],
    [
      -0.5199006199836731, -1.24300217628479, -1.2370699644088745,
      1.5943868160247803,
    ],
    [
      -0.9033937454223633, 0.7900865077972412, 0.6025182008743286,
      0.24536322057247162,
    ],
  ],
];

const BIAS_V3 = [
  [
    -1.0458276271820068, -0.05338984727859497, 1.9784071445465088,
    0.002738594077527523, 1.867319107055664, -0.2467537671327591,
  ],
  [
    0.4289727210998535, -2.3215765953063965, -0.9846894145011902,
    0.17616547644138336, 0.44055885076522827, 0.24573835730552673,
    0.1263357251882553, -1.2629506587982178,
  ],
  [
    -1.5963979959487915, -0.6022589802742004, -1.7257966995239258,
    -0.30573442578315735,
  ],
  [
    2.2868971824645996, -0.46975868940353394, -2.9407854080200195,
    2.441746234893799,
  ],
  [1.476133108139038, 0.42703884840011597, -1.7692339420318604],
];

const NETWORK_V3 = [
  [
    {
      id: "NEURON_61994",
      weights: [-0.5324926376342773, -0.29907533526420593],
      bias: -1.0458276271820068,
    },
    {
      id: "NEURON_39560",
      weights: [-0.7304787039756775, -0.7349548935890198],
      bias: -0.05338984727859497,
    },
    {
      id: "NEURON_94932",
      weights: [-0.19057944416999817, 0.6576992273330688],
      bias: 1.9784071445465088,
    },
    {
      id: "NEURON_73823",
      weights: [0.7561840415000916, -0.23459865152835846],
      bias: 0.002738594077527523,
    },
    {
      id: "NEURON_58804",
      weights: [-0.0315120592713356, 0.09727984666824341],
      bias: 1.867319107055664,
    },
    {
      id: "NEURON_92644",
      weights: [0.7216871976852417, 0.6902466416358948],
      bias: -0.2467537671327591,
    },
  ],
  [
    {
      id: "NEURON_34345",
      weights: [
        -0.3610752522945404, 0.8125820755958557, -0.001195224467664957,
        -0.05774438753724098, 0.3710850477218628, -3.180962085723877,
      ],
      bias: 0.4289727210998535,
    },
    {
      id: "NEURON_49208",
      weights: [
        0.1668349951505661, 0.452275812625885, 0.15249839425086975,
        0.5151237845420837, -0.7802107930183411, -0.12064271420240402,
      ],
      bias: -2.3215765953063965,
    },
    {
      id: "NEURON_38397",
      weights: [
        0.6722677946090698, -0.43293437361717224, 0.20755833387374878,
        0.6839873194694519, -0.30257752537727356, 0.07432575523853302,
      ],
      bias: -0.9846894145011902,
    },
    {
      id: "NEURON_52637",
      weights: [
        -0.6294812560081482, -0.303091824054718, 0.2578834295272827,
        0.0066947718150913715, -0.542716383934021, 0.9371834993362427,
      ],
      bias: 0.17616547644138336,
    },
    {
      id: "NEURON_18446",
      weights: [
        0.4042842984199524, -0.3901467025279999, -1.5084220170974731,
        0.5652968883514404, 0.8680306077003479, -0.6993414759635925,
      ],
      bias: 0.44055885076522827,
    },
    {
      id: "NEURON_72529",
      weights: [
        -0.13709603250026703, -0.4469386637210846, -0.14095459878444672,
        0.5516986846923828, 0.026941873133182526, 0.6507626175880432,
      ],
      bias: 0.24573835730552673,
    },
    {
      id: "NEURON_36645",
      weights: [
        0.030041947960853577, -0.06400871276855469, 0.5501330494880676,
        -0.5280497670173645, 0.13784568011760712, 0.3633773922920227,
      ],
      bias: 0.1263357251882553,
    },
    {
      id: "NEURON_18500",
      weights: [
        0.13917189836502075, -0.09907057881355286, -1.1791188716888428,
        0.6115815043449402, -0.1257452815771103, 0.28531205654144287,
      ],
      bias: -1.2629506587982178,
    },
  ],
  [
    {
      id: "NEURON_20512",
      weights: [
        0.3943626880645752, 0.7286345362663269, 0.15075565874576569,
        -0.6228792071342468, 1.626854658126831, 0.6073384881019592,
        -0.01686279848217964, -0.24761465191841125,
      ],
      bias: -1.5963979959487915,
    },
    {
      id: "NEURON_18675",
      weights: [
        0.0928196981549263, 0.3560091555118561, -0.5269024968147278,
        0.6296191811561584, 0.20593887567520142, -0.6647340655326843,
        0.3685893416404724, 1.2788645029067993,
      ],
      bias: -0.6022589802742004,
    },
    {
      id: "NEURON_56902",
      weights: [
        -1.3074438571929932, 0.29227086901664734, -0.20799235999584198,
        -1.6280311346054077, 0.9070345759391785, -0.03995760530233383,
        0.2281820923089981, 0.44812899827957153,
      ],
      bias: -1.7257966995239258,
    },
    {
      id: "NEURON_76179",
      weights: [
        -0.714678168296814, -0.44059914350509644, -0.4126870930194855,
        -0.4688993990421295, 0.21437454223632812, -0.4142325818538666,
        -0.10313690453767776, -0.35133835673332214,
      ],
      bias: -0.30573442578315735,
    },
  ],
  [
    {
      id: "NEURON_08539",
      weights: [
        0.49380406737327576, 0.30138105154037476, 0.8497355580329895,
        0.17598935961723328,
      ],
      bias: 2.2868971824645996,
    },
    {
      id: "NEURON_47368",
      weights: [
        0.5417230725288391, 1.002265453338623, -0.19498759508132935,
        -0.22209909558296204,
      ],
      bias: -0.46975868940353394,
    },
    {
      id: "NEURON_56888",
      weights: [
        0.6868888735771179, 0.8658484816551208, -1.1983275413513184,
        0.21791952848434448,
      ],
      bias: -2.9407854080200195,
    },
    {
      id: "NEURON_18692",
      weights: [
        -1.7504398822784424, 0.530386745929718, -1.7322925329208374,
        -0.156508207321167,
      ],
      bias: 2.441746234893799,
    },
  ],
  [
    {
      id: "NEURON_48446",
      weights: [
        0.4318792223930359, 0.23323090374469757, -1.2973649501800537,
        -3.3018250465393066,
      ],
      bias: 1.476133108139038,
    },
    {
      id: "NEURON_36365",
      weights: [
        -0.5199006199836731, -1.24300217628479, -1.2370699644088745,
        1.5943868160247803,
      ],
      bias: 0.42703884840011597,
    },
    {
      id: "NEURON_07340",
      weights: [
        -0.9033937454223633, 0.7900865077972412, 0.6025182008743286,
        0.24536322057247162,
      ],
      bias: -1.7692339420318604,
    },
  ],
];

// const network = create_network(WEIGHTS_V3, BIAS_V3);
// console.log(network);

// --------------- NETWORK_V4 (HUGE!) --------------
// const NETWORK_V4 = create_network(WEIGHTS_V4, BIAS_V4);
// console.log(NETWORK_V4);
const NETWORK_V4 = [
  [
      {
          "id": "NEURON_91717",
          "weights": [
              1.8908472061157227,
              0.7938565015792847,
              1.3916587829589844,
              1.92182195186615,
              0.10519694536924362,
              0.5973033905029297,
              0.8762330412864685,
              0.8963724374771118,
              1.341346263885498,
              -0.10545863211154938,
              2.059615135192871,
              0.35436245799064636,
              -0.23151220381259918,
              -0.34421324729919434,
              -0.8102657794952393,
              -0.5862693786621094,
              -0.7229309678077698,
              0.48004457354545593,
              0.7384037971496582,
              -1.8453162908554077,
              2.777215003967285,
              -0.5495980381965637,
              -0.7565750479698181,
              0.4835432469844818,
              0.7453604936599731,
              0.7099213600158691,
              0.6663686037063599,
              0.09214857965707779,
              1.0625754594802856,
              -2.917449951171875,
              1.4212406873703003,
              0.024243518710136414,
              -0.7440531253814697,
              0.6155558824539185,
              0.5647851228713989,
              0.32002609968185425,
              0.49136099219322205,
              -0.20061761140823364,
              -1.7799715995788574,
              -0.6972604990005493,
              1.7026476860046387,
              0.3850554823875427,
              -0.05482620745897293,
              -0.06638754159212112,
              0.2892555594444275,
              0.36644089221954346,
              -0.8408676385879517,
              -1.329521656036377,
              -2.1681034564971924,
              -1.5403589010238647,
              0.24484632909297943,
              -0.6230916976928711,
              -0.32174840569496155,
              0.2205742746591568,
              -0.3191128969192505,
              -0.8824796080589294,
              -1.7715686559677124,
              -0.7253484129905701,
              -0.7685580849647522,
              -0.7525285482406616,
              -0.3450300991535187,
              0.0018749494338408113,
              -0.4173177182674408,
              -0.26524588465690613,
              0.5623680353164673,
              0.7803992033004761,
              0.5934330224990845,
              -0.4549229145050049,
              -1.052804946899414,
              -1.2303696870803833,
              -0.8223168849945068,
              -0.9034519195556641,
              0.05621440336108208,
              0.8877109885215759,
              -0.32478341460227966,
              -0.03748141974210739,
              0.050215013325214386,
              0.474359393119812,
              1.233322262763977,
              0.00954827107489109,
              -0.717982828617096,
              0.2413935363292694,
              0.530924916267395,
              0.8913357257843018,
              0.652287483215332,
              0.9687229990959167,
              0.3533015847206116,
              -0.6615915298461914,
              0.06709641963243484,
              0.1094556674361229,
              -0.12286044657230377,
              0.3283850848674774,
              1.4513355493545532,
              1.8893450498580933,
              0.17218708992004395,
              -1.681408166885376,
              0.553665280342102,
              0.03381113335490227,
              1.807320475578308,
              0.48607370257377625
          ],
          "bias": -0.45958372950553894
      },
      {
          "id": "NEURON_70009",
          "weights": [
              1.3259254693984985,
              -1.0905301570892334,
              0.2078094482421875,
              0.3851262331008911,
              0.5686898231506348,
              0.8637500405311584,
              -0.1770906299352646,
              0.4970340132713318,
              -1.1515345573425293,
              -0.3995632231235504,
              0.7402288317680359,
              -0.45239925384521484,
              0.004520708695054054,
              -0.026857977733016014,
              0.2738867700099945,
              0.17009522020816803,
              0.251656174659729,
              0.04852991923689842,
              0.5128052234649658,
              0.549475908279419,
              -0.2661035656929016,
              1.272451639175415,
              0.48750948905944824,
              0.21386459469795227,
              -0.5120455622673035,
              -0.05330269783735275,
              -0.5684296488761902,
              0.34131234884262085,
              -1.2331875562667847,
              1.7765110731124878,
              0.03848361223936081,
              0.3982401490211487,
              0.6916436553001404,
              -0.30250638723373413,
              -0.4848204255104065,
              0.20591920614242554,
              0.27171647548675537,
              0.22227424383163452,
              -1.2956680059432983,
              -0.7974281311035156,
              -0.3978245258331299,
              -1.1196638345718384,
              -0.6682916283607483,
              -1.0176664590835571,
              -1.24884831905365,
              -0.11512918770313263,
              -0.40362548828125,
              -0.35974350571632385,
              -1.5975958108901978,
              0.3069206178188324,
              1.0757511854171753,
              0.10979535430669785,
              -0.4463146924972534,
              -1.244264841079712,
              -0.7880653738975525,
              0.12355745583772659,
              0.09629520773887634,
              -0.4721592664718628,
              -2.1357436180114746,
              0.756507158279419,
              0.016818460077047348,
              0.35127368569374084,
              -0.16793420910835266,
              -0.8112837076187134,
              0.298283189535141,
              -0.5923923850059509,
              0.10589280724525452,
              0.3732704222202301,
              -0.5640274882316589,
              0.008135883137583733,
              0.334016889333725,
              0.06803672015666962,
              -0.4541570842266083,
              0.12985262274742126,
              0.8039573431015015,
              0.9249738454818726,
              0.20352359116077423,
              0.1056811735033989,
              -0.24208471179008484,
              0.6824794411659241,
              0.5470234751701355,
              0.0023098886013031006,
              -0.021306714043021202,
              -0.24699421226978302,
              0.7733218669891357,
              0.3339459002017975,
              0.45337826013565063,
              0.24997791647911072,
              0.5499632954597473,
              -0.205210879445076,
              -0.5002419352531433,
              -0.08283784985542297,
              0.5685866475105286,
              0.5999829173088074,
              0.9659279584884644,
              -0.21298064291477203,
              -0.20023047924041748,
              0.04496372491121292,
              0.5159137845039368,
              0.14564673602581024
          ],
          "bias": 2.300933599472046
      },
      {
          "id": "NEURON_73943",
          "weights": [
              1.6375064849853516,
              -2.5922720432281494,
              -1.5374022722244263,
              -2.1360995769500732,
              -1.171295166015625,
              0.1809503585100174,
              1.0713902711868286,
              2.066995859146118,
              1.1663137674331665,
              1.5973045825958252,
              0.7402486801147461,
              -2.006704092025757,
              0.13705284893512726,
              -0.3334646224975586,
              -0.09562498331069946,
              -0.8110753297805786,
              -2.512667417526245,
              0.08540786802768707,
              -0.13125668466091156,
              0.19828695058822632,
              0.7666297554969788,
              -0.23687222599983215,
              0.521874189376831,
              -0.31775471568107605,
              -0.05299082025885582,
              0.4128569960594177,
              0.2304231822490692,
              0.14226725697517395,
              -0.637199342250824,
              -0.379242867231369,
              1.8602551221847534,
              -0.01420597918331623,
              0.28002700209617615,
              -0.6273605227470398,
              -0.2188602238893509,
              0.1154991090297699,
              0.1887769103050232,
              -0.4952487051486969,
              0.6611284017562866,
              -0.9854857325553894,
              1.1488035917282104,
              0.28149259090423584,
              0.05406513810157776,
              -0.45125073194503784,
              -0.30530422925949097,
              -0.3687112033367157,
              -1.6855117082595825,
              -0.5816560983657837,
              -0.07558829337358475,
              -0.4188450276851654,
              -0.01935076341032982,
              0.4075109362602234,
              0.7344166040420532,
              0.2840569019317627,
              0.08381091803312302,
              -0.7193003296852112,
              -0.8661043643951416,
              -0.9497869610786438,
              -0.36047208309173584,
              0.35647985339164734,
              -0.4676421284675598,
              -0.37773045897483826,
              0.15358245372772217,
              0.470218688249588,
              -0.09632214903831482,
              -0.2599552273750305,
              -0.822921872138977,
              -1.3136268854141235,
              -0.3010943830013275,
              1.4334361553192139,
              -0.2378285676240921,
              -0.24706149101257324,
              -0.7191281914710999,
              0.3119436800479889,
              0.5910932421684265,
              -1.8132383823394775,
              0.1895701140165329,
              -0.48587509989738464,
              0.8982395529747009,
              0.7228562831878662,
              0.17786523699760437,
              -0.5073416829109192,
              -0.06584019213914871,
              1.1837518215179443,
              0.5140467286109924,
              -1.5404253005981445,
              -0.848757803440094,
              1.7265105247497559,
              -0.4883040189743042,
              1.0734367370605469,
              0.7755677103996277,
              1.236379623413086,
              0.311195969581604,
              -0.7039720416069031,
              0.8484325408935547,
              -2.3791186809539795,
              -0.879982590675354,
              -0.8596922159194946,
              0.39713436365127563,
              -0.22151243686676025
          ],
          "bias": 1.0587377548217773
      },
      {
          "id": "NEURON_40147",
          "weights": [
              0.4692447781562805,
              0.45041051506996155,
              -0.5544715523719788,
              -0.2788957953453064,
              0.6568583846092224,
              -0.4613129198551178,
              2.20756196975708,
              0.9179546236991882,
              1.1200063228607178,
              0.30553340911865234,
              -0.17712301015853882,
              0.6947835683822632,
              -0.4464615285396576,
              -0.47976920008659363,
              -0.05917760357260704,
              0.6717761754989624,
              -1.5294264554977417,
              -1.9188241958618164,
              -2.7332921028137207,
              -3.1427724361419678,
              -0.21248044073581696,
              1.3000365495681763,
              -0.11609277874231339,
              0.4217506945133209,
              -0.3929871618747711,
              0.23658795654773712,
              1.2728540897369385,
              1.7786504030227661,
              1.0155788660049438,
              1.2967973947525024,
              0.9007197022438049,
              1.1494410037994385,
              0.5797940492630005,
              0.03189883381128311,
              -0.5307115316390991,
              -1.7837235927581787,
              -0.049180448055267334,
              0.32426097989082336,
              -0.10135070234537125,
              0.8196218609809875,
              0.4882194995880127,
              1.73826265335083,
              -0.16980679333209991,
              -0.31141364574432373,
              -0.1046336442232132,
              -0.4749413728713989,
              -0.05765332281589508,
              0.46788063645362854,
              1.4022932052612305,
              0.19631464779376984,
              0.7483412623405457,
              1.2897486686706543,
              -0.21512161195278168,
              -0.3774082064628601,
              -0.16865435242652893,
              -0.8322975635528564,
              -0.8478363752365112,
              -1.7234828472137451,
              -0.6877867579460144,
              0.24124197661876678,
              0.3447517156600952,
              1.0879385471343994,
              -0.0599602572619915,
              -0.2582804262638092,
              -0.39653268456459045,
              0.19232653081417084,
              -0.5148680210113525,
              -0.7417809963226318,
              0.8903546333312988,
              0.681732714176178,
              0.693646252155304,
              0.3320237696170807,
              -0.20646114647388458,
              0.06851018965244293,
              -0.2794485092163086,
              0.22802817821502686,
              -1.172134280204773,
              -3.1520256996154785,
              -1.2703959941864014,
              -1.0526081323623657,
              0.580485999584198,
              0.0476205050945282,
              0.08074844628572464,
              -0.5244730710983276,
              0.11095719039440155,
              -0.4152713418006897,
              -0.4265674352645874,
              -0.3426608741283417,
              0.5370811820030212,
              0.1172272190451622,
              0.13468557596206665,
              0.49551016092300415,
              0.2489497810602188,
              0.06311744451522827,
              0.4486648142337799,
              -0.5483375787734985,
              -1.5864720344543457,
              -0.4072742164134979,
              -0.6491572260856628,
              -1.3559958934783936
          ],
          "bias": -1.0914965867996216
      },
      {
          "id": "NEURON_07832",
          "weights": [
              0.42288801074028015,
              -2.3361568450927734,
              0.33240461349487305,
              0.3510971665382385,
              -2.3436169624328613,
              0.5564344525337219,
              0.6266725063323975,
              -3.1724162101745605,
              0.45444491505622864,
              0.5904849171638489,
              0.2639670968055725,
              -0.9078342914581299,
              0.19589577615261078,
              0.5337434411048889,
              -1.0727802515029907,
              -0.6821867227554321,
              0.09996258467435837,
              -0.02978009544312954,
              0.43030786514282227,
              0.8722755312919617,
              0.5044764280319214,
              -1.3349050283432007,
              -0.19154417514801025,
              -0.3126071095466614,
              -0.2759176790714264,
              -0.24421077966690063,
              0.5549973845481873,
              -0.942126989364624,
              0.660117506980896,
              0.33453571796417236,
              0.36123353242874146,
              -0.7393269538879395,
              0.6268240213394165,
              -0.27417704463005066,
              -0.893128514289856,
              1.0312182903289795,
              0.568423867225647,
              -0.9657384157180786,
              0.6977578401565552,
              0.49349287152290344,
              0.6866124272346497,
              0.11047770828008652,
              -0.37379682064056396,
              0.6437108516693115,
              -0.41510850191116333,
              0.3015619218349457,
              0.6635982990264893,
              -0.5279337763786316,
              0.26599031686782837,
              0.41084548830986023,
              0.5022038221359253,
              -0.3791331648826599,
              0.13028788566589355,
              0.8038147687911987,
              -0.47421836853027344,
              0.655585527420044,
              -0.342180997133255,
              -1.3433187007904053,
              0.27763494849205017,
              -0.4888388514518738,
              0.05096501111984253,
              -0.46066153049468994,
              -0.11879683285951614,
              -0.41127410531044006,
              -0.6290639042854309,
              0.06903353333473206,
              0.4391370117664337,
              -1.631273627281189,
              -0.847507655620575,
              0.28765326738357544,
              0.4300406873226166,
              -0.46669039130210876,
              -0.2811354696750641,
              0.6017776131629944,
              -1.0741890668869019,
              0.13039259612560272,
              0.056279152631759644,
              -3.156259059906006,
              0.9835615158081055,
              1.2517763376235962,
              0.007377699948847294,
              -0.13089530169963837,
              0.2620922029018402,
              0.26307278871536255,
              -0.7787833213806152,
              0.2760123610496521,
              0.621799647808075,
              -2.0512516498565674,
              0.875930666923523,
              0.3407125771045685,
              -0.1906994879245758,
              -1.9114717245101929,
              0.04663896933197975,
              1.5167911052703857,
              -2.627152919769287,
              -0.6601755619049072,
              1.5482949018478394,
              -2.5280203819274902,
              0.8830755352973938,
              -0.11498340219259262
          ],
          "bias": 0.2149033099412918
      },
      {
          "id": "NEURON_18062",
          "weights": [
              1.6296489238739014,
              1.7975013256072998,
              1.889276146888733,
              0.8948931694030762,
              1.3817905187606812,
              1.6072182655334473,
              1.0745900869369507,
              1.0616602897644043,
              0.49589794874191284,
              0.849686324596405,
              -1.0873756408691406,
              -0.521457314491272,
              -0.7031867504119873,
              0.13888472318649292,
              -0.23799003660678864,
              0.4957837462425232,
              0.33130669593811035,
              0.2929117679595947,
              -0.044352684170007706,
              -0.6396730542182922,
              -3.8994996547698975,
              -4.006039142608643,
              -2.708172559738159,
              -1.5547796487808228,
              -0.8261826634407043,
              -0.7075667977333069,
              -0.4168239235877991,
              -0.34637364745140076,
              -0.12471620738506317,
              -0.10216733068227768,
              -0.27382656931877136,
              0.2585738003253937,
              -0.043790265917778015,
              -0.2659713923931122,
              -0.516514003276825,
              -0.5474929809570312,
              -0.2784363031387329,
              -0.21213746070861816,
              0.5626941919326782,
              0.5199105143547058,
              1.3738124370574951,
              1.2951254844665527,
              0.8370407819747925,
              0.33434003591537476,
              0.024538207799196243,
              -0.44217169284820557,
              -0.29115036129951477,
              -0.23535551130771637,
              0.034656278789043427,
              0.2893827557563782,
              -0.1536313146352768,
              -1.4980829954147339,
              -0.7018319964408875,
              -0.3675726652145386,
              -0.08866457641124725,
              -0.1643916666507721,
              -0.05585402995347977,
              -0.21534714102745056,
              -0.6503824591636658,
              -0.8516084551811218,
              -1.13695228099823,
              1.365268588066101,
              -0.09534148126840591,
              0.08514320850372314,
              -0.08728606253862381,
              -0.3034859895706177,
              -0.24133387207984924,
              -0.05570799857378006,
              0.09507036209106445,
              -0.5966660976409912,
              -1.2969210147857666,
              -0.62547767162323,
              -0.33684319257736206,
              -0.2720942199230194,
              -0.13537351787090302,
              -0.30944740772247314,
              0.29965585470199585,
              0.36384403705596924,
              0.16493849456310272,
              0.36759355664253235,
              1.1635373830795288,
              0.1336107701063156,
              -0.3280384838581085,
              -0.5933203101158142,
              -0.9512218832969666,
              -0.43350642919540405,
              0.0535186231136322,
              -0.032438766211271286,
              -0.3834449052810669,
              0.2510959804058075,
              0.2573090195655823,
              0.04543856903910637,
              -0.02249130606651306,
              -0.5494908094406128,
              0.9942834377288818,
              1.1535834074020386,
              0.3243095874786377,
              0.4559692442417145,
              -0.10464325547218323,
              1.0649298429489136
          ],
          "bias": 0.4544466733932495
      },
      {
          "id": "NEURON_77492",
          "weights": [
              -0.9258373975753784,
              -1.6739342212677002,
              -2.324934482574463,
              -0.05579245090484619,
              0.35219916701316833,
              0.15052743256092072,
              -1.7359968423843384,
              -0.5442789793014526,
              -0.47441306710243225,
              -0.3207511007785797,
              -2.583667755126953,
              -2.6377365589141846,
              -0.4713784456253052,
              0.619971513748169,
              -0.6400636434555054,
              -1.3661937713623047,
              -2.9530861377716064,
              -1.8395001888275146,
              -1.272849202156067,
              -1.8595237731933594,
              -1.4233461618423462,
              -0.6874018311500549,
              -0.7207596302032471,
              0.06456920504570007,
              -0.5285935997962952,
              -0.7742147445678711,
              -1.496733546257019,
              -0.9733516573905945,
              1.076728105545044,
              0.8068222403526306,
              -0.9823687672615051,
              -1.4321037530899048,
              -0.7499827146530151,
              -0.37409767508506775,
              -0.8534080982208252,
              -0.736833393573761,
              -0.4137326180934906,
              -0.08170107007026672,
              1.8635060787200928,
              1.6069353818893433,
              -0.3027987778186798,
              -0.720117449760437,
              -0.802539587020874,
              -0.8968412280082703,
              -0.7195206880569458,
              -0.5429181456565857,
              -1.0870014429092407,
              -0.15194158256053925,
              -0.49473121762275696,
              -0.4757702350616455,
              -0.7997128367424011,
              -0.38131141662597656,
              0.26995497941970825,
              -0.6347328424453735,
              -0.5377696752548218,
              0.025389276444911957,
              -0.015339402481913567,
              -0.8846756815910339,
              -1.056917667388916,
              0.2682879865169525,
              0.9359606504440308,
              1.7214101552963257,
              1.1103096008300781,
              1.3820416927337646,
              1.23296058177948,
              0.48745980858802795,
              1.0614269971847534,
              0.5620220303535461,
              0.09711950272321701,
              -1.1833654642105103,
              0.553733766078949,
              0.6263554692268372,
              1.0821794271469116,
              1.1373709440231323,
              1.2224969863891602,
              1.379960298538208,
              0.9096022844314575,
              0.4438013732433319,
              -1.1358742713928223,
              0.6075621843338013,
              1.9002292156219482,
              0.3936414122581482,
              -0.30236685276031494,
              0.21237657964229584,
              0.5491431951522827,
              -0.0015316646313294768,
              0.24008770287036896,
              0.7078278064727783,
              -0.4140932559967041,
              0.8677771091461182,
              -0.3427724242210388,
              -0.06681963801383972,
              0.27425581216812134,
              -0.6724421977996826,
              0.407739520072937,
              0.07755083590745926,
              0.2324596643447876,
              1.0639482736587524,
              -0.9688178300857544,
              -0.9430280327796936
          ],
          "bias": -0.9856315851211548
      },
      {
          "id": "NEURON_66987",
          "weights": [
              1.0571997165679932,
              -0.3803001642227173,
              -1.1234674453735352,
              -0.7145772576332092,
              -0.36443227529525757,
              -0.2088766098022461,
              -0.7604303359985352,
              0.45466792583465576,
              1.3615694046020508,
              1.5600000619888306,
              1.5879267454147339,
              0.7045813798904419,
              -1.0772970914840698,
              0.16006000339984894,
              -0.5382036566734314,
              0.012475818395614624,
              0.23684532940387726,
              0.8977354764938354,
              -1.1695992946624756,
              -4.007538795471191,
              1.0953248739242554,
              1.2468461990356445,
              -0.8117404580116272,
              -1.1994376182556152,
              -0.9066715836524963,
              0.8423015475273132,
              -0.03595356643199921,
              0.14539627730846405,
              0.11363701522350311,
              0.9183083772659302,
              1.2508182525634766,
              1.0635485649108887,
              -0.03367326781153679,
              -1.105119228363037,
              -1.2959460020065308,
              0.39385074377059937,
              -0.037312619388103485,
              0.2740577459335327,
              -0.2890847325325012,
              -1.489173173904419,
              1.493344783782959,
              0.5879369974136353,
              -0.9932671785354614,
              0.17762430012226105,
              -0.9502074122428894,
              -0.1271170824766159,
              0.1902022510766983,
              -0.4227372705936432,
              0.358964741230011,
              -0.14451617002487183,
              0.6626919507980347,
              -0.15647092461585999,
              -1.0572055578231812,
              -0.9367897510528564,
              0.022438159212470055,
              0.6685250997543335,
              -0.02849970944225788,
              -0.14496947824954987,
              0.1430182009935379,
              0.3794088661670685,
              1.3612089157104492,
              -0.5454207062721252,
              -1.6579439640045166,
              0.05304035171866417,
              0.013573301956057549,
              -0.1945062130689621,
              0.2576630115509033,
              -0.8299643993377686,
              -0.32610487937927246,
              0.4144013524055481,
              1.3280212879180908,
              -0.13815617561340332,
              -1.3546168804168701,
              -0.37896299362182617,
              0.375590056180954,
              0.08410034328699112,
              -0.24370630085468292,
              0.5360767841339111,
              -0.2841103971004486,
              -0.5084909200668335,
              1.9500070810317993,
              0.17329619824886322,
              -0.546672523021698,
              -0.45658665895462036,
              0.3195154368877411,
              -0.01695920154452324,
              0.06725935637950897,
              0.34331628680229187,
              -0.45982620120048523,
              -1.2806891202926636,
              1.537347435951233,
              -0.10916182398796082,
              0.22006916999816895,
              -0.6608226895332336,
              -0.386839359998703,
              0.4410148561000824,
              0.29660531878471375,
              -0.9639092683792114,
              1.1453971862792969,
              0.20321869850158691
          ],
          "bias": 0.22147004306316376
      },
      {
          "id": "NEURON_00421",
          "weights": [
              0.3014602065086365,
              0.3708461821079254,
              0.3044215738773346,
              -0.19560173153877258,
              0.22957609593868256,
              0.9887376427650452,
              0.6006730198860168,
              1.076545000076294,
              0.27411413192749023,
              1.2288583517074585,
              -0.2903016209602356,
              -0.334282785654068,
              -0.23047494888305664,
              0.2888982594013214,
              0.3801375925540924,
              0.148984894156456,
              -0.3810459077358246,
              -0.5045129656791687,
              -0.0914297103881836,
              0.20226246118545532,
              -0.04269087687134743,
              0.16385383903980255,
              0.23859122395515442,
              0.46602365374565125,
              0.15312202274799347,
              0.8255069255828857,
              0.5600403547286987,
              0.30652278661727905,
              0.062092095613479614,
              -0.40597936511039734,
              0.3800012171268463,
              0.25198349356651306,
              0.4839988350868225,
              0.8783649802207947,
              0.8912729620933533,
              1.5854803323745728,
              1.7356114387512207,
              1.9878982305526733,
              1.6434532403945923,
              1.953015685081482,
              0.5131850242614746,
              0.16836775839328766,
              0.9425568580627441,
              0.11710265278816223,
              0.34155258536338806,
              0.6035565137863159,
              0.3719256818294525,
              0.7564085125923157,
              0.4547465145587921,
              1.90928053855896,
              -0.12763486802577972,
              0.02610873058438301,
              0.21860268712043762,
              -0.15417684614658356,
              0.14378561079502106,
              -0.045330218970775604,
              -0.13223566114902496,
              -0.03680339828133583,
              -0.604235827922821,
              -0.5074319243431091,
              0.2624141573905945,
              -0.5333606004714966,
              -0.23409810662269592,
              -0.359254390001297,
              -0.10759282857179642,
              -0.9852965474128723,
              -1.2658073902130127,
              -1.549121379852295,
              -1.2562965154647827,
              -1.8071264028549194,
              0.013122770003974438,
              0.15758143365383148,
              -0.025903752073645592,
              -0.2690601646900177,
              -0.05225864797830582,
              -0.2819216847419739,
              -1.1374915838241577,
              -0.8305081129074097,
              -1.648974061012268,
              -0.07767073065042496,
              -0.27883803844451904,
              -0.06972873955965042,
              -0.09281092882156372,
              -0.08704075962305069,
              0.6625509262084961,
              0.7510375380516052,
              -0.259920597076416,
              1.5436135530471802,
              -0.5965044498443604,
              -1.6780868768692017,
              -0.21624501049518585,
              0.31859290599823,
              0.5546410083770752,
              0.4437115490436554,
              0.33502864837646484,
              0.23790346086025238,
              -1.415618896484375,
              0.6815277338027954,
              -1.7730751037597656,
              0.4569266438484192
          ],
          "bias": -1.0431151390075684
      },
      {
          "id": "NEURON_78315",
          "weights": [
              -1.0744413137435913,
              0.9694372415542603,
              0.7737728953361511,
              0.9976553320884705,
              0.6287879347801208,
              1.524337649345398,
              1.1351319551467896,
              1.0747848749160767,
              0.724402129650116,
              1.293306589126587,
              -1.2696257829666138,
              -0.3011021614074707,
              0.18243525922298431,
              0.3803843557834625,
              0.054724618792533875,
              0.32706642150878906,
              0.04789204150438309,
              -0.08182712644338608,
              -0.09786000847816467,
              1.09866464138031,
              -1.1678088903427124,
              0.40313610434532166,
              0.6054423451423645,
              0.36559003591537476,
              0.7419421672821045,
              -0.1435622274875641,
              -0.15980032086372375,
              0.04955760017037392,
              -0.26460352540016174,
              -0.186929851770401,
              -1.2386915683746338,
              0.4099009037017822,
              0.6022648215293884,
              -0.14202746748924255,
              -0.02770155854523182,
              0.4301653504371643,
              0.03883884474635124,
              -0.4272524118423462,
              -0.7578738927841187,
              -0.026295823976397514,
              -1.3968558311462402,
              0.20810197293758392,
              1.3544349670410156,
              1.4313147068023682,
              0.5193634033203125,
              0.06119806319475174,
              -0.010777056217193604,
              0.19678995013237,
              -0.03214111179113388,
              -0.27152323722839355,
              -0.3943331837654114,
              -0.34031447768211365,
              0.2571793496608734,
              0.34945252537727356,
              0.808763861656189,
              0.4105239510536194,
              -0.07886432111263275,
              0.7811999917030334,
              0.1512652039527893,
              0.5884332656860352,
              -0.798736572265625,
              -0.6307950019836426,
              -0.5138394236564636,
              0.9331476092338562,
              0.6057934165000916,
              0.49512943625450134,
              0.27734091877937317,
              1.4325919151306152,
              0.4321800768375397,
              0.9936836361885071,
              0.560593843460083,
              -0.4866228401660919,
              -0.4679555594921112,
              -0.9980464577674866,
              0.3613121509552002,
              0.30054301023483276,
              0.6118359565734863,
              0.6169527173042297,
              0.5088775157928467,
              1.3403500318527222,
              -0.6847231984138489,
              0.005897517316043377,
              -0.13691391050815582,
              -0.5211762189865112,
              -0.6176807880401611,
              -0.007622654549777508,
              0.5382019877433777,
              0.2392081618309021,
              0.6348180174827576,
              0.3099965453147888,
              -1.3935551643371582,
              -1.1494206190109253,
              0.24579758942127228,
              0.17379529774188995,
              -0.28222301602363586,
              0.3128128945827484,
              0.3764633238315582,
              0.25714775919914246,
              0.04816510155797005,
              0.9309179782867432
          ],
          "bias": -1.3149892091751099
      },
      {
          "id": "NEURON_19053",
          "weights": [
              -0.20726966857910156,
              -0.3793789744377136,
              0.9122493267059326,
              0.2947060763835907,
              0.072794109582901,
              0.2786761522293091,
              0.24842728674411774,
              1.2635900974273682,
              -0.31299686431884766,
              1.0277447700500488,
              -0.3759024143218994,
              -0.44275376200675964,
              0.2622639536857605,
              0.25032976269721985,
              0.8347744345664978,
              1.182738184928894,
              0.8111074566841125,
              1.166595220565796,
              0.7720394134521484,
              0.6576837301254272,
              0.7289801239967346,
              0.5528832674026489,
              0.6056398153305054,
              0.45441678166389465,
              0.8288261890411377,
              1.2225643396377563,
              1.1326731443405151,
              1.441036343574524,
              1.139615535736084,
              1.2180272340774536,
              0.43606552481651306,
              1.3145592212677002,
              0.5502486824989319,
              0.364483118057251,
              0.17802251875400543,
              0.06006883829832077,
              -0.08155792951583862,
              0.47921574115753174,
              -0.2671651840209961,
              0.5681434869766235,
              0.4557540714740753,
              -0.01786825992166996,
              0.29935333132743835,
              0.07616231590509415,
              -0.45687857270240784,
              -0.033519845455884933,
              -0.5382135510444641,
              -0.5915933847427368,
              -0.005129022058099508,
              0.039550166577100754,
              1.6233059167861938,
              -0.24842989444732666,
              0.23718519508838654,
              -0.2516145408153534,
              -0.38011103868484497,
              -0.5437882542610168,
              -0.6979118585586548,
              -0.4554818570613861,
              -1.1309527158737183,
              -0.11490098387002945,
              0.8507081270217896,
              0.16146670281887054,
              0.058986861258745193,
              -0.11570121347904205,
              -0.19902728497982025,
              0.24265576899051666,
              -0.10068214684724808,
              -0.16898362338542938,
              -0.14188769459724426,
              -0.6760861873626709,
              0.5093064308166504,
              -0.212850883603096,
              -0.20356105268001556,
              -0.16084450483322144,
              -0.47121813893318176,
              -0.42550528049468994,
              -0.2915100157260895,
              0.3846728205680847,
              -0.46655818819999695,
              -1.4102225303649902,
              0.46247556805610657,
              -0.42407703399658203,
              0.7035835981369019,
              0.1527690440416336,
              -0.14722104370594025,
              -0.08937644958496094,
              -0.6816596984863281,
              -0.4443265199661255,
              -2.380370855331421,
              -1.7524365186691284,
              -0.294674813747406,
              0.21313981711864471,
              -0.03758363798260689,
              0.7777405381202698,
              0.024203116074204445,
              0.09335996210575104,
              -0.16612128913402557,
              0.12218085676431656,
              -3.673118829727173,
              -1.3268271684646606
          ],
          "bias": -2.3769936561584473
      },
      {
          "id": "NEURON_01657",
          "weights": [
              -1.3738596439361572,
              0.4311456084251404,
              -0.8486971259117126,
              -0.7021231055259705,
              0.013729771599173546,
              -0.7321662306785583,
              0.5222218632698059,
              0.264653742313385,
              -0.5439308881759644,
              -0.22341519594192505,
              -0.9041831493377686,
              -0.12679779529571533,
              -0.5974385738372803,
              -0.03316998481750488,
              0.6150744557380676,
              0.5892379283905029,
              -0.5886173844337463,
              -0.7810923457145691,
              -1.9292778968811035,
              -0.9518760442733765,
              -0.3992718756198883,
              -0.46506989002227783,
              -0.04046954587101936,
              0.27891069650650024,
              0.41583532094955444,
              0.28684329986572266,
              0.786720871925354,
              -0.06811091303825378,
              -0.5029972791671753,
              -0.8942012190818787,
              -0.09282325208187103,
              -0.3838203251361847,
              0.34655529260635376,
              0.19764959812164307,
              0.3969559371471405,
              0.9360549449920654,
              0.46728548407554626,
              0.5976574420928955,
              0.829209566116333,
              0.3740987181663513,
              -0.1506812870502472,
              -0.5823208093643188,
              -0.4060930907726288,
              -0.5672411918640137,
              -0.9846600294113159,
              -0.6488597989082336,
              -1.4359959363937378,
              -0.2787493169307709,
              -0.655066967010498,
              0.5211176872253418,
              -1.315037727355957,
              -0.1707860827445984,
              -0.09126508980989456,
              -0.18528099358081818,
              -0.8124285340309143,
              -1.5147290229797363,
              -0.7896119356155396,
              -1.3688843250274658,
              -0.954441487789154,
              0.3631454110145569,
              -0.415918231010437,
              -0.11841333657503128,
              0.08052076399326324,
              -0.3917006552219391,
              -1.218563437461853,
              -1.512540340423584,
              -1.2098435163497925,
              -1.2802506685256958,
              0.21973910927772522,
              0.8543168902397156,
              -0.41564878821372986,
              0.5471644401550293,
              0.2374510020017624,
              0.32792821526527405,
              1.1007343530654907,
              0.08272543549537659,
              0.2317170649766922,
              0.005875608418136835,
              -0.4425715506076813,
              -0.2722727060317993,
              -0.305422842502594,
              0.9291502833366394,
              0.6157277822494507,
              1.2920924425125122,
              1.2077662944793701,
              1.7049083709716797,
              1.4424546957015991,
              1.216112732887268,
              0.4810750186443329,
              1.5014456510543823,
              0.2823038697242737,
              0.8534287810325623,
              0.32548364996910095,
              0.6141098737716675,
              0.7346949577331543,
              1.1004332304000854,
              1.4192975759506226,
              1.5005534887313843,
              1.687740683555603,
              0.4143354892730713
          ],
          "bias": 0.5126173496246338
      },
      {
          "id": "NEURON_21406",
          "weights": [
              -0.7902910709381104,
              0.7737678289413452,
              0.12353156507015228,
              -0.21182972192764282,
              -0.011060947552323341,
              -0.6301894783973694,
              0.17062944173812866,
              -1.055939793586731,
              0.7838655710220337,
              0.032649341970682144,
              1.092391014099121,
              1.2324916124343872,
              0.4188193380832672,
              0.5178772211074829,
              0.1121942549943924,
              0.3230486512184143,
              1.0102958679199219,
              0.6729410290718079,
              0.1760597676038742,
              0.3906061053276062,
              -0.16356490552425385,
              0.5987544655799866,
              0.18823295831680298,
              0.05011935532093048,
              0.2966453433036804,
              -0.24592186510562897,
              0.5746536254882812,
              0.18613968789577484,
              1.090386152267456,
              0.8228614330291748,
              0.007643450982868671,
              -0.09984339773654938,
              0.5965097546577454,
              0.3224928081035614,
              -0.20150336623191833,
              0.8796073794364929,
              0.6073530912399292,
              1.0509618520736694,
              0.5347769260406494,
              0.38866862654685974,
              -0.2299049198627472,
              -0.0627860352396965,
              -0.4289184510707855,
              0.15497402846813202,
              0.06159663945436478,
              0.4184379279613495,
              1.2450023889541626,
              -0.08956853300333023,
              0.7560635805130005,
              0.19066451489925385,
              -0.19959259033203125,
              0.6489004492759705,
              -0.065121129155159,
              0.3358483612537384,
              0.22997687757015228,
              1.1141085624694824,
              0.3493095636367798,
              0.0015221957582980394,
              0.02108396589756012,
              -0.30103716254234314,
              -0.4231126308441162,
              1.258617639541626,
              0.4982043206691742,
              -0.01426665484905243,
              0.3120008707046509,
              -0.18834368884563446,
              0.7903218865394592,
              0.08366309106349945,
              -0.029017111286520958,
              0.4215833246707916,
              1.2800248861312866,
              1.2486803531646729,
              0.3753478527069092,
              0.8270459175109863,
              0.5343112945556641,
              0.9246002435684204,
              0.6362980008125305,
              0.35563215613365173,
              1.3150392770767212,
              0.3167845606803894,
              1.0575922727584839,
              1.5588905811309814,
              0.47336483001708984,
              1.1225799322128296,
              0.48017317056655884,
              0.45467355847358704,
              1.1640866994857788,
              -0.14200466871261597,
              2.1311709880828857,
              -0.1811399757862091,
              -0.5551713705062866,
              0.2512516379356384,
              0.8368893265724182,
              1.5412726402282715,
              0.8325085639953613,
              0.9234094619750977,
              1.7757740020751953,
              0.5435206890106201,
              -0.23463255167007446,
              0.6251280307769775
          ],
          "bias": -2.0009617805480957
      },
      {
          "id": "NEURON_19401",
          "weights": [
              1.2419320344924927,
              0.11830413341522217,
              0.37575626373291016,
              0.3951495885848999,
              0.09797082096338272,
              -0.11139427125453949,
              -0.024175601080060005,
              -0.38716810941696167,
              0.5880772471427917,
              -0.44443395733833313,
              1.6924186944961548,
              1.4526344537734985,
              0.7025313377380371,
              0.5107395648956299,
              0.5051745176315308,
              1.2490317821502686,
              0.1873101443052292,
              -0.14440502226352692,
              -0.7920858860015869,
              -0.26883459091186523,
              1.248332142829895,
              0.9575486779212952,
              0.24188470840454102,
              0.8791453838348389,
              0.9575442671775818,
              0.1367371678352356,
              0.43681177496910095,
              0.5483613610267639,
              -0.11675159633159637,
              0.3178476095199585,
              -0.3537510335445404,
              0.36109066009521484,
              0.13558831810951233,
              -0.3421131372451782,
              -0.246254563331604,
              0.6471554040908813,
              -0.0933162197470665,
              0.23121614754199982,
              0.05685078725218773,
              -0.2347600907087326,
              -1.4007600545883179,
              0.2672308385372162,
              -0.18117594718933105,
              0.004974979907274246,
              -0.8075769543647766,
              -0.8438803553581238,
              -0.44599226117134094,
              0.04527150094509125,
              0.9103474020957947,
              0.23936952650547028,
              -1.8761396408081055,
              -1.6172007322311401,
              -0.7464882731437683,
              0.20461703836917877,
              0.3057481348514557,
              -0.3985607624053955,
              -0.1294294148683548,
              0.4227026104927063,
              0.7921653389930725,
              -0.31131312251091003,
              -0.30467069149017334,
              -1.0684120655059814,
              -1.404173731803894,
              -0.25918322801589966,
              -0.7161287069320679,
              -0.31257888674736023,
              -0.7671056389808655,
              -0.015850087627768517,
              -0.3611002564430237,
              -0.7659997344017029,
              0.5782420039176941,
              -0.5679776072502136,
              -0.8348456621170044,
              -0.9868885278701782,
              -0.058912985026836395,
              -0.012574114836752415,
              -0.43406492471694946,
              -0.4631763696670532,
              -0.6097106337547302,
              -0.8143312931060791,
              0.12042073160409927,
              0.9231133460998535,
              -0.13982340693473816,
              -0.1211220771074295,
              -0.4235345423221588,
              1.093566656112671,
              0.8188011646270752,
              -0.412749707698822,
              -0.20952282845973969,
              0.15041625499725342,
              0.3532833755016327,
              -0.8499282598495483,
              -0.11095613241195679,
              0.4157131016254425,
              0.11751776933670044,
              1.5379668474197388,
              1.6709743738174438,
              -0.45009899139404297,
              1.8281184434890747,
              1.9647622108459473
          ],
          "bias": 1.389878273010254
      },
      {
          "id": "NEURON_96659",
          "weights": [
              0.1593753844499588,
              1.3905621767044067,
              -1.292458176612854,
              0.17588463425636292,
              0.5024496912956238,
              -0.5362065434455872,
              1.3134714365005493,
              -0.707722008228302,
              0.7570018172264099,
              -0.26759445667266846,
              -1.2625313997268677,
              1.3643769025802612,
              -1.1914498805999756,
              0.06482179462909698,
              -0.005252123344689608,
              0.2529151737689972,
              0.338442325592041,
              -0.6421229839324951,
              -0.21323180198669434,
              0.005576904397457838,
              -0.8381741046905518,
              1.5055646896362305,
              -1.4009720087051392,
              0.2945915460586548,
              0.12411715090274811,
              -0.25062644481658936,
              0.6778411865234375,
              -0.4408982992172241,
              0.6011236906051636,
              -1.7007745504379272,
              -0.12264145910739899,
              0.7329908013343811,
              -0.9906716346740723,
              0.22198224067687988,
              -0.21337898075580597,
              -0.5807211399078369,
              -0.019747229292988777,
              -0.36051493883132935,
              0.35396814346313477,
              0.13913799822330475,
              -0.441821813583374,
              2.313154935836792,
              -1.5601433515548706,
              0.16580291092395782,
              -0.28781697154045105,
              -0.7636443376541138,
              -0.035716746002435684,
              -1.1713849306106567,
              0.7348482012748718,
              -0.10264935344457626,
              -0.4248579442501068,
              0.9840797781944275,
              -1.0608396530151367,
              0.13929957151412964,
              0.2872205078601837,
              -1.1917153596878052,
              0.31793808937072754,
              -0.8729302287101746,
              0.7060523629188538,
              -0.4901109039783478,
              -1.2394630908966064,
              1.1740493774414062,
              -0.3145325779914856,
              -0.5290535688400269,
              0.4820237159729004,
              -0.5166109800338745,
              0.14575736224651337,
              -0.2969762980937958,
              0.061019036918878555,
              -1.8047385215759277,
              -1.7632111310958862,
              0.46175774931907654,
              -1.5676603317260742,
              0.9178179502487183,
              -0.22773517668247223,
              -0.4249681532382965,
              0.42247244715690613,
              -1.0023199319839478,
              1.082739233970642,
              -2.413684129714966,
              -1.4178111553192139,
              -0.17616870999336243,
              0.06291472166776657,
              0.6060242056846619,
              -0.04302218183875084,
              -0.20362088084220886,
              0.7303077578544617,
              -0.7464225888252258,
              0.43495190143585205,
              -2.003389835357666,
              0.3398113548755646,
              0.4353536069393158,
              -1.5706021785736084,
              0.22375638782978058,
              0.5483684539794922,
              -0.01982957497239113,
              0.13139396905899048,
              -1.2783457040786743,
              1.342919945716858,
              -2.22882080078125
          ],
          "bias": 0.26588624715805054
      }
  ],
  [
      {
          "id": "NEURON_39506",
          "weights": [
              0.799764096736908,
              0.8452644348144531,
              0.20988820493221283,
              0.2973088324069977,
              -1.58161199092865,
              -0.06685969978570938,
              -1.9998304843902588,
              1.283703088760376,
              -2.367401599884033,
              0.5674207210540771,
              -0.021309522911906242,
              1.804057240486145,
              0.726216733455658,
              -0.6879491209983826,
              -0.7785794734954834
          ],
          "bias": 0.22972120344638824
      },
      {
          "id": "NEURON_59087",
          "weights": [
              -0.5340718030929565,
              1.5121973752975464,
              1.7088215351104736,
              -2.4219412803649902,
              1.6789941787719727,
              -0.18318302929401398,
              1.1174910068511963,
              -0.2538130283355713,
              -0.5230823159217834,
              -0.4460979402065277,
              0.13640688359737396,
              -0.7126744389533997,
              -1.0208872556686401,
              1.0745757818222046,
              1.3832565546035767
          ],
          "bias": 1.4460902214050293
      },
      {
          "id": "NEURON_25840",
          "weights": [
              -0.19499555230140686,
              1.2364846467971802,
              0.26318415999412537,
              0.20536524057388306,
              0.4597223401069641,
              2.231348991394043,
              0.16768521070480347,
              0.046571701765060425,
              -0.43920472264289856,
              0.05550204962491989,
              -0.9345252513885498,
              0.2812426686286926,
              -0.2750683128833771,
              0.9995999932289124,
              0.7558586597442627
          ],
          "bias": 3.4330034255981445
      },
      {
          "id": "NEURON_65069",
          "weights": [
              -1.642420768737793,
              -1.4428781270980835,
              -0.9345920085906982,
              0.4485328793525696,
              0.7106232047080994,
              -2.782397747039795,
              1.7673463821411133,
              0.6701570749282837,
              0.10559726506471634,
              0.2711127996444702,
              0.6381080746650696,
              0.8295441269874573,
              0.47680941224098206,
              -0.8803125023841858,
              1.0615735054016113
          ],
          "bias": 1.4717763662338257
      },
      {
          "id": "NEURON_33090",
          "weights": [
              -3.7092771530151367,
              -0.7451834678649902,
              0.3107430338859558,
              -0.5620547533035278,
              0.19853919744491577,
              -1.2829841375350952,
              -0.6154419779777527,
              -0.28940659761428833,
              0.22926205396652222,
              -0.31210535764694214,
              -1.0348645448684692,
              2.124070167541504,
              -0.023434823378920555,
              -0.31375929713249207,
              -0.5697008967399597
          ],
          "bias": 0.026157600805163383
      },
      {
          "id": "NEURON_01751",
          "weights": [
              0.9817444086074829,
              0.7155374884605408,
              1.8013863563537598,
              -0.1618114411830902,
              -1.039870262145996,
              1.2487472295761108,
              0.16548502445220947,
              -2.4972829818725586,
              -0.40954849123954773,
              -0.43616536259651184,
              0.9572678208351135,
              -1.4166406393051147,
              1.9687129259109497,
              1.060907244682312,
              -0.5959212183952332
          ],
          "bias": -0.6516124606132507
      },
      {
          "id": "NEURON_20778",
          "weights": [
              -0.20937442779541016,
              -0.4190395176410675,
              0.33829739689826965,
              0.33802348375320435,
              -0.0907619521021843,
              -1.2424790859222412,
              0.6080207228660583,
              1.4771100282669067,
              -0.00029150862246751785,
              1.0561944246292114,
              0.22642482817173004,
              0.09232399612665176,
              0.5531378388404846,
              -0.32431700825691223,
              2.41766095161438
          ],
          "bias": -2.5657615661621094
      },
      {
          "id": "NEURON_94563",
          "weights": [
              0.8073410987854004,
              1.2810463905334473,
              1.4840383529663086,
              -1.6814662218093872,
              1.7462564706802368,
              -0.27665382623672485,
              -0.40636855363845825,
              0.015476795844733715,
              0.317486971616745,
              -0.5377246141433716,
              0.06834010034799576,
              -1.144123911857605,
              -0.4722538888454437,
              -0.14529526233673096,
              1.8054662942886353
          ],
          "bias": 0.32025569677352905
      },
      {
          "id": "NEURON_52450",
          "weights": [
              -1.6290559768676758,
              0.49764135479927063,
              -0.37161949276924133,
              -2.3408126831054688,
              0.48125889897346497,
              -0.3244558572769165,
              -0.1708763837814331,
              0.0468650758266449,
              -0.16445951163768768,
              0.8743308186531067,
              1.8676156997680664,
              0.36300596594810486,
              -0.3684122860431671,
              0.6193675994873047,
              2.177555561065674
          ],
          "bias": -0.867724597454071
      },
      {
          "id": "NEURON_14450",
          "weights": [
              0.1912829428911209,
              -0.23909814655780792,
              -0.37441205978393555,
              1.8721884489059448,
              0.2985551059246063,
              -1.447364330291748,
              2.6873161792755127,
              0.5407220721244812,
              0.8343387842178345,
              0.7389200329780579,
              -0.25692397356033325,
              0.045639410614967346,
              -0.15871143341064453,
              1.0232211351394653,
              -0.011606751009821892
          ],
          "bias": -1.595960021018982
      },
      {
          "id": "NEURON_63361",
          "weights": [
              0.5110345482826233,
              -0.053656987845897675,
              -1.3540220260620117,
              0.9631639122962952,
              -1.36358642578125,
              -0.32876288890838623,
              -0.4213186502456665,
              1.6946014165878296,
              -0.1657460331916809,
              -0.6640655994415283,
              0.8677344918251038,
              1.0196890830993652,
              0.8440244197845459,
              -1.6959341764450073,
              0.4528864026069641
          ],
          "bias": -0.6947082877159119
      },
      {
          "id": "NEURON_28063",
          "weights": [
              0.8416973352432251,
              -0.4120512306690216,
              0.8181740045547485,
              -0.15704262256622314,
              1.1221404075622559,
              0.6528204679489136,
              0.5846023559570312,
              0.02775867097079754,
              -0.755325198173523,
              -1.9691818952560425,
              1.107500433921814,
              -1.9695842266082764,
              -0.6536996364593506,
              0.79440838098526,
              -0.8059470057487488
          ],
          "bias": -2.22651743888855
      }
  ],
  [
      {
          "id": "NEURON_16400",
          "weights": [
              -0.0808342844247818,
              -2.228179454803467,
              -0.06650395691394806,
              -1.0694549083709717,
              0.6512937545776367,
              -0.3649771809577942,
              0.5729314088821411,
              0.22496992349624634,
              1.6983389854431152,
              -0.635686457157135,
              1.6141877174377441,
              0.20433475077152252
          ],
          "bias": -0.20053641498088837
      },
      {
          "id": "NEURON_89219",
          "weights": [
              -0.2512686550617218,
              2.711883306503296,
              1.0956535339355469,
              0.8099789619445801,
              -0.4247925877571106,
              -4.348177433013916,
              0.6207293272018433,
              1.190447211265564,
              -0.9281296730041504,
              -2.537858724594116,
              1.4102391004562378,
              -0.9461256265640259
          ],
          "bias": -0.09592348337173462
      },
      {
          "id": "NEURON_92090",
          "weights": [
              1.7259405851364136,
              -4.067882061004639,
              1.5315101146697998,
              -1.998397946357727,
              -0.0992421880364418,
              -0.06718186289072037,
              -2.814356803894043,
              -3.561342239379883,
              -2.5241003036499023,
              -0.3794257640838623,
              -1.0271360874176025,
              -3.564115047454834
          ],
          "bias": 1.052931547164917
      },
      {
          "id": "NEURON_33148",
          "weights": [
              -0.5024663209915161,
              -0.8936032056808472,
              0.6074943542480469,
              -4.187177658081055,
              2.0491418838500977,
              1.2881178855895996,
              -1.1701500415802002,
              -0.47975680232048035,
              -1.1507387161254883,
              -0.5218358635902405,
              -2.5919134616851807,
              -3.3058393001556396
          ],
          "bias": 0.846064567565918
      },
      {
          "id": "NEURON_31292",
          "weights": [
              -1.9821761846542358,
              1.0514593124389648,
              -0.6038901805877686,
              1.7415173053741455,
              -1.0561782121658325,
              -0.7645519971847534,
              -0.2722017467021942,
              0.9616438746452332,
              1.0223027467727661,
              0.008800233714282513,
              0.00356993917375803,
              1.5127228498458862
          ],
          "bias": 0.2984233498573303
      },
      {
          "id": "NEURON_42673",
          "weights": [
              1.1456378698349,
              -1.2838960886001587,
              0.7617915868759155,
              -0.9287258982658386,
              -0.934436559677124,
              -0.5239729881286621,
              0.11228949576616287,
              0.38301515579223633,
              -0.7749884128570557,
              0.749878466129303,
              -0.6360672116279602,
              -0.05507053807377815
          ],
          "bias": 0.1622152477502823
      },
      {
          "id": "NEURON_89483",
          "weights": [
              1.1927486658096313,
              0.2634548246860504,
              -0.53509122133255,
              0.43550485372543335,
              -4.193999767303467,
              -0.8315438628196716,
              0.014037520624697208,
              0.13133743405342102,
              -0.39641472697257996,
              1.2432523965835571,
              0.08998221158981323,
              0.29473933577537537
          ],
          "bias": 0.6544051170349121
      },
      {
          "id": "NEURON_69111",
          "weights": [
              -4.232637882232666,
              1.0429309606552124,
              0.5212657451629639,
              0.6749362349510193,
              2.774681568145752,
              1.5925424098968506,
              -2.773763418197632,
              -0.24035614728927612,
              -2.1108667850494385,
              -1.4865446090698242,
              -0.2169450968503952,
              -4.324841022491455
          ],
          "bias": 1.5551397800445557
      },
      {
          "id": "NEURON_54083",
          "weights": [
              -0.30496421456336975,
              1.389107346534729,
              -3.356341600418091,
              -0.2955509424209595,
              -0.12533941864967346,
              0.3343994915485382,
              1.252187967300415,
              -1.4906249046325684,
              0.1171581968665123,
              1.0815025568008423,
              0.5772175788879395,
              1.2854236364364624
          ],
          "bias": -2.359100580215454
      },
      {
          "id": "NEURON_91094",
          "weights": [
              -1.832812786102295,
              -0.7685838341712952,
              -0.22687266767024994,
              -0.7083358764648438,
              1.139683723449707,
              0.9929070472717285,
              0.37593770027160645,
              0.5586794018745422,
              0.3175729215145111,
              -0.10470832884311676,
              -0.7295126914978027,
              0.14394672214984894
          ],
          "bias": -1.4663832187652588
      }
  ]
];

export enum MODEL_VERSIONS {
  v1,
  v2,
  v3,
  v4,
}

export type ModelType = {
  network: NetworkType;
  activation_thresholds: number[];
  activation_functions: Function[];
  classificationType: ClassificationType;
  inputLength: number;
};

export const MODELS: { [key in MODEL_VERSIONS]: ModelType } = {
  [MODEL_VERSIONS.v1]: {
    network: NETWORK_V1,
    classificationType: "binary",
    activation_thresholds: ACTIVATION_THRESHOLDS_V1,
    activation_functions: ACTIVATIONS_V1,
    inputLength: 2, // X and Y
  },
  [MODEL_VERSIONS.v2]: {
    network: NETWORK_V2,
    classificationType: "binary",
    activation_thresholds: [0, 0, 0.5],
    activation_functions: [
      relu_activation,
      relu_activation,
      sigmoid_activation,
    ],
    inputLength: 2, // X and Y
  },
  [MODEL_VERSIONS.v3]: {
    network: NETWORK_V3,
    classificationType: "categorical",
    activation_thresholds: [0, 0, 0, 0, 0.5],
    activation_functions: [
      relu_activation,
      relu_activation,
      relu_activation,
      relu_activation,
      softmax_activation, // CHANGE THIS
    ],
    inputLength: 2, // X and Y
  },
  [MODEL_VERSIONS.v4]: {
    network: NETWORK_V4,
    classificationType: "categorical",
    activation_thresholds: [0, 0, 0.5],
    activation_functions: [
      relu_activation,
      relu_activation,
      softmax_activation,
    ],
    inputLength: 100,
  },
};

// console.log(create_network(WEIGHTS_V2, BIAS_V2))
